<?xml version="1.0"?>
<MethodSetup Method="BDT::BDT">
  <GeneralInfo>
    <Info name="TMVA Release" value="4.2.1 [262657]"/>
    <Info name="ROOT Release" value="6.16/00 [397312]"/>
    <Info name="Creator" value="hrjheng"/>
    <Info name="Date" value="Sun Jun 30 15:20:08 2019"/>
    <Info name="Host" value="Darwin hrjheng.local 17.7.0 Darwin Kernel Version 17.7.0: Wed Feb 27 00:43:23 PST 2019; root:xnu-4570.71.35~1/RELEASE_X86_64 x86_64"/>
    <Info name="Dir" value="/Users/hrjheng/Documents/Gunther-TA/TMVA"/>
    <Info name="Training events" value="110315"/>
    <Info name="TrainingTime" value="1.04033341e+01"/>
    <Info name="AnalysisType" value="Regression"/>
  </GeneralInfo>
  <Options>
    <Option name="V" modified="Yes">False</Option>
    <Option name="VerbosityLevel" modified="No">Default</Option>
    <Option name="VarTransform" modified="Yes">Decorrelate</Option>
    <Option name="H" modified="Yes">False</Option>
    <Option name="CreateMVAPdfs" modified="No">False</Option>
    <Option name="IgnoreNegWeightsInTraining" modified="No">False</Option>
    <Option name="NTrees" modified="Yes">100</Option>
    <Option name="MaxDepth" modified="No">50</Option>
    <Option name="MinNodeSize" modified="Yes">1.0%</Option>
    <Option name="nCuts" modified="Yes">20</Option>
    <Option name="BoostType" modified="Yes">AdaBoostR2</Option>
    <Option name="AdaBoostR2Loss" modified="No">quadratic</Option>
    <Option name="UseBaggedBoost" modified="No">False</Option>
    <Option name="Shrinkage" modified="No">1.000000e+00</Option>
    <Option name="AdaBoostBeta" modified="No">5.000000e-01</Option>
    <Option name="UseRandomisedTrees" modified="No">False</Option>
    <Option name="UseNvars" modified="No">2</Option>
    <Option name="UsePoissonNvars" modified="No">True</Option>
    <Option name="BaggedSampleFraction" modified="No">6.000000e-01</Option>
    <Option name="UseYesNoLeaf" modified="No">False</Option>
    <Option name="NegWeightTreatment" modified="No">inverseboostnegweights</Option>
    <Option name="Css" modified="No">1.000000e+00</Option>
    <Option name="Cts_sb" modified="No">1.000000e+00</Option>
    <Option name="Ctb_ss" modified="No">1.000000e+00</Option>
    <Option name="Cbb" modified="No">1.000000e+00</Option>
    <Option name="NodePurityLimit" modified="No">5.000000e-01</Option>
    <Option name="SeparationType" modified="Yes">regressionvariance</Option>
    <Option name="RegressionLossFunctionBDTG" modified="No">huber</Option>
    <Option name="HuberQuantile" modified="No">7.000000e-01</Option>
    <Option name="DoBoostMonitor" modified="No">False</Option>
    <Option name="UseFisherCuts" modified="No">False</Option>
    <Option name="MinLinCorrForFisher" modified="No">8.000000e-01</Option>
    <Option name="UseExclusiveVars" modified="No">False</Option>
    <Option name="DoPreselection" modified="No">False</Option>
    <Option name="SigToBkgFraction" modified="No">1.000000e+00</Option>
    <Option name="PruneMethod" modified="Yes">costcomplexity</Option>
    <Option name="PruneStrength" modified="Yes">3.000000e+01</Option>
    <Option name="PruningValFraction" modified="No">5.000000e-01</Option>
    <Option name="SkipNormalization" modified="No">False</Option>
    <Option name="nEventsMin" modified="No">0</Option>
    <Option name="UseBaggedGrad" modified="No">False</Option>
    <Option name="GradBaggingFraction" modified="No">6.000000e-01</Option>
    <Option name="UseNTrainEvents" modified="No">0</Option>
    <Option name="NNodesMax" modified="No">0</Option>
  </Options>
  <Variables NVar="4">
    <Variable VarIndex="0" Expression="charged_hadron_pT" Label="charged_hadron_pT" Title="charged_hadron_pT" Unit="GeV" Internal="charged_hadron_pT" Type="F" Min="1.95601001e-01" Max="3.17768993e+01"/>
    <Variable VarIndex="1" Expression="neutral_hadron_pT" Label="neutral_hadron_pT" Title="neutral_hadron_pT" Unit="GeV" Internal="neutral_hadron_pT" Type="F" Min="-4.39048004e+00" Max="1.06973999e+02"/>
    <Variable VarIndex="2" Expression="charged_plus_neutral_pT" Label="charged_plus_neutral_pT" Title="charged_plus_neutral_pT" Unit="GeV" Internal="charged_plus_neutral_pT" Type="F" Min="-8.79490972e-01" Max="1.51888000e+02"/>
    <Variable VarIndex="3" Expression="em_pT" Label="em_pT" Title="em_pT" Unit="GeV" Internal="em_pT" Type="F" Min="-9.87794995e-02" Max="1.40039993e+02"/>
  </Variables>
  <Spectators NSpec="0"/>
  <Classes NClass="1">
    <Class Name="Regression" Index="0"/>
  </Classes>
  <Targets NTrgt="1">
    <Target TargetIndex="0" Expression="truth_pT" Label="truth_pT" Title="truth_pT" Unit="" Internal="truth_pT" Type="F" Min="1.50008001e+01" Max="2.50000000e+02"/>
  </Targets>
  <Transformations NTransformations="1">
    <Transform Name="Decorrelation">
      <Selection>
        <Input NInputs="4">
          <Input Type="Variable" Label="charged_hadron_pT" Expression="charged_hadron_pT"/>
          <Input Type="Variable" Label="neutral_hadron_pT" Expression="neutral_hadron_pT"/>
          <Input Type="Variable" Label="charged_plus_neutral_pT" Expression="charged_plus_neutral_pT"/>
          <Input Type="Variable" Label="em_pT" Expression="em_pT"/>
        </Input>
        <Output NOutputs="4">
          <Output Type="Variable" Label="charged_hadron_pT" Expression="charged_hadron_pT"/>
          <Output Type="Variable" Label="neutral_hadron_pT" Expression="neutral_hadron_pT"/>
          <Output Type="Variable" Label="charged_plus_neutral_pT" Expression="charged_plus_neutral_pT"/>
          <Output Type="Variable" Label="em_pT" Expression="em_pT"/>
        </Output>
      </Selection>
      <Matrix Rows="4" Columns="4">
        1.278607810214780e+00 -4.926914751408364e-05 -2.564618051199731e-01 8.290798739128870e-04 -4.926914751407496e-05 1.902529590407898e-01 -5.735914084259151e-04 -1.103378464251376e-01 -2.564618051199731e-01 -5.735914084259055e-04 8.480568986934567e-02 -3.237984961694584e-03 8.290798739128968e-04 -1.103378464251377e-01 -3.237984961694581e-03 1.140669534422648e-01 
      </Matrix>
    </Transform>
  </Transformations>
  <MVAPdfs/>
  <Weights NTrees="100" AnalysisType="1">
    <BinaryTree type="DecisionTree" boostWeight="3.7603025357280777e+00" itree="0">
      <Node pos="s" depth="0" NCoef="0" IVar="2" Cut="1.1513316631317139e+00" cType="1" res="1.3464836120605469e+02" rms="6.7357307434082031e+01" purity="1.0000000000000000e+00" nType="0">
        <Node pos="l" depth="1" NCoef="0" IVar="3" Cut="1.7827217578887939e+00" cType="1" res="8.9740890502929688e+01" rms="5.4896831512451172e+01" purity="1.0000000000000000e+00" nType="0">
          <Node pos="l" depth="2" NCoef="0" IVar="2" Cut="4.6042019128799438e-01" cType="1" res="6.7595878601074219e+01" rms="3.6671112060546875e+01" purity="1.0000000000000000e+00" nType="0">
            <Node pos="l" depth="3" NCoef="0" IVar="1" Cut="4.1294503211975098e-01" cType="1" res="4.7343631744384766e+01" rms="2.5730667114257812e+01" purity="1.0000000000000000e+00" nType="0">
              <Node pos="l" depth="4" NCoef="0" IVar="3" Cut="8.6334133148193359e-01" cType="1" res="4.1560718536376953e+01" rms="1.8796178817749023e+01" purity="1.0000000000000000e+00" nType="0">
                <Node pos="l" depth="5" NCoef="0" IVar="2" Cut="9.4082094728946686e-02" cType="1" res="3.2914535522460938e+01" rms="1.2758123397827148e+01" purity="1.0000000000000000e+00" nType="0">
                  <Node pos="l" depth="6" NCoef="0" IVar="-1" Cut="5.3393405675888062e-01" cType="1" res="2.6477190017700195e+01" rms="8.9476842880249023e+00" purity="1.0000000000000000e+00" nType="1"/>
                  <Node pos="r" depth="6" NCoef="0" IVar="-1" Cut="4.2973035573959351e-01" cType="1" res="4.0642513275146484e+01" rms="1.2352790832519531e+01" purity="1.0000000000000000e+00" nType="1"/>
                </Node>
                <Node pos="r" depth="5" NCoef="0" IVar="2" Cut="5.9116329997777939e-02" cType="1" res="5.8079505920410156e+01" rms="1.7366878509521484e+01" purity="1.0000000000000000e+00" nType="0">
                  <Node pos="l" depth="6" NCoef="0" IVar="-1" Cut="1.2138209342956543e+00" cType="1" res="4.7487899780273438e+01" rms="1.3645887374877930e+01" purity="1.0000000000000000e+00" nType="1"/>
                  <Node pos="r" depth="6" NCoef="0" IVar="-1" Cut="-3.9336279034614563e-01" cType="1" res="6.5414253234863281e+01" rms="1.5812561035156250e+01" purity="1.0000000000000000e+00" nType="1"/>
                </Node>
              </Node>
              <Node pos="r" depth="4" NCoef="0" IVar="3" Cut="9.8601055145263672e-01" cType="1" res="8.6820999145507812e+01" rms="3.1355247497558594e+01" purity="1.0000000000000000e+00" nType="0">
                <Node pos="l" depth="5" NCoef="0" IVar="-1" Cut="0.0000000000000000e+00" cType="1" res="6.9402008056640625e+01" rms="2.4425170898437500e+01" purity="1.0000000000000000e+00" nType="-99"/>
                <Node pos="r" depth="5" NCoef="0" IVar="-1" Cut="0.0000000000000000e+00" cType="1" res="1.0518501281738281e+02" rms="2.7084428787231445e+01" purity="1.0000000000000000e+00" nType="-99"/>
              </Node>
            </Node>
            <Node pos="r" depth="3" NCoef="0" IVar="1" Cut="3.9311203360557556e-01" cType="1" res="9.1172256469726562e+01" rms="3.3259727478027344e+01" purity="1.0000000000000000e+00" nType="0">
              <Node pos="l" depth="4" NCoef="0" IVar="3" Cut="8.3221042156219482e-01" cType="1" res="7.9049880981445312e+01" rms="2.3440698623657227e+01" purity="1.0000000000000000e+00" nType="0">
                <Node pos="l" depth="5" NCoef="0" IVar="0" Cut="1.0530270338058472e+00" cType="1" res="6.5837211608886719e+01" rms="1.7669895172119141e+01" purity="1.0000000000000000e+00" nType="0">
                  <Node pos="l" depth="6" NCoef="0" IVar="-1" Cut="7.8926771879196167e-01" cType="1" res="5.9463794708251953e+01" rms="1.3762817382812500e+01" purity="1.0000000000000000e+00" nType="1"/>
                  <Node pos="r" depth="6" NCoef="0" IVar="-1" Cut="0.0000000000000000e+00" cType="1" res="8.0798660278320312e+01" rms="1.6772558212280273e+01" purity="1.0000000000000000e+00" nType="-99"/>
                </Node>
                <Node pos="r" depth="5" NCoef="0" IVar="0" Cut="1.2574287652969360e+00" cType="1" res="9.2661308288574219e+01" rms="2.0706357955932617e+01" purity="1.0000000000000000e+00" nType="0">
                  <Node pos="l" depth="6" NCoef="0" IVar="2" Cut="8.8802647590637207e-01" cType="1" res="8.6327980041503906e+01" rms="1.7070013046264648e+01" purity="1.0000000000000000e+00" nType="0">
                    <Node pos="l" depth="7" NCoef="0" IVar="-1" Cut="1.2847768068313599e+00" cType="1" res="8.0498794555664062e+01" rms="1.4798327445983887e+01" purity="1.0000000000000000e+00" nType="1"/>
                    <Node pos="r" depth="7" NCoef="0" IVar="-1" Cut="0.0000000000000000e+00" cType="1" res="9.6806358337402344e+01" rms="1.5831720352172852e+01" purity="1.0000000000000000e+00" nType="-99"/>
                  </Node>
                  <Node pos="r" depth="6" NCoef="0" IVar="-1" Cut="0.0000000000000000e+00" cType="1" res="1.1031111145019531e+02" rms="1.9704679489135742e+01" purity="1.0000000000000000e+00" nType="-99"/>
                </Node>
              </Node>
              <Node pos="r" depth="4" NCoef="0" IVar="1" Cut="1.7631851434707642e+00" cType="1" res="1.2617356872558594e+02" rms="3.2623912811279297e+01" purity="1.0000000000000000e+00" nType="0">
                <Node pos="l" depth="5" NCoef="0" IVar="3" Cut="9.9066787958145142e-01" cType="1" res="1.1559497070312500e+02" rms="2.5522773742675781e+01" purity="1.0000000000000000e+00" nType="0">
                  <Node pos="l" depth="6" NCoef="0" IVar="-1" Cut="0.0000000000000000e+00" cType="1" res="9.9945945739746094e+01" rms="2.0970508575439453e+01" purity="1.0000000000000000e+00" nType="-99"/>
                  <Node pos="r" depth="6" NCoef="0" IVar="-1" Cut="0.0000000000000000e+00" cType="1" res="1.2885968017578125e+02" rms="2.1149045944213867e+01" purity="1.0000000000000000e+00" nType="-99"/>
                </Node>
                <Node pos="r" depth="5" NCoef="0" IVar="-1" Cut="0.0000000000000000e+00" cType="1" res="1.5803196716308594e+02" rms="3.0916885375976562e+01" purity="1.0000000000000000e+00" nType="-99"/>
              </Node>
            </Node>
          </Node>
          <Node pos="r" depth="2" NCoef="0" IVar="3" Cut="2.9208714962005615e+00" cType="1" res="1.5469575500488281e+02" rms="4.7447109222412109e+01" purity="1.0000000000000000e+00" nType="0">
            <Node pos="l" depth="3" NCoef="0" IVar="1" Cut="3.7358745932579041e-01" cType="1" res="1.3573167419433594e+02" rms="4.1019695281982422e+01" purity="1.0000000000000000e+00" nType="0">
              <Node pos="l" depth="4" NCoef="0" IVar="2" Cut="5.5835145711898804e-01" cType="1" res="1.1370668792724609e+02" rms="2.9906961441040039e+01" purity="1.0000000000000000e+00" nType="0">
                <Node pos="l" depth="5" NCoef="0" IVar="1" Cut="-6.3264882564544678e-01" cType="1" res="9.4038467407226562e+01" rms="2.3141759872436523e+01" purity="1.0000000000000000e+00" nType="0">
                  <Node pos="l" depth="6" NCoef="0" IVar="-1" Cut="0.0000000000000000e+00" cType="1" res="8.2010620117187500e+01" rms="1.9150926589965820e+01" purity="1.0000000000000000e+00" nType="-99"/>
                  <Node pos="r" depth="6" NCoef="0" IVar="-1" Cut="0.0000000000000000e+00" cType="1" res="1.0625867462158203e+02" rms="2.0265914916992188e+01" purity="1.0000000000000000e+00" nType="-99"/>
                </Node>
                <Node pos="r" depth="5" NCoef="0" IVar="0" Cut="1.0139375925064087e+00" cType="1" res="1.2959919738769531e+02" rms="2.4885078430175781e+01" purity="1.0000000000000000e+00" nType="0">
                  <Node pos="l" depth="6" NCoef="0" IVar="-1" Cut="0.0000000000000000e+00" cType="1" res="1.1913407897949219e+02" rms="2.0243263244628906e+01" purity="1.0000000000000000e+00" nType="-99"/>
                  <Node pos="r" depth="6" NCoef="0" IVar="-1" Cut="0.0000000000000000e+00" cType="1" res="1.4319815063476562e+02" rms="2.3753475189208984e+01" purity="1.0000000000000000e+00" nType="-99"/>
                </Node>
              </Node>
              <Node pos="r" depth="4" NCoef="0" IVar="1" Cut="1.8109563589096069e+00" cType="1" res="1.6714820861816406e+02" rms="3.3584884643554688e+01" purity="1.0000000000000000e+00" nType="0">
                <Node pos="l" depth="5" NCoef="0" IVar="2" Cut="6.6386169195175171e-01" cType="1" res="1.5480412292480469e+02" rms="2.8143199920654297e+01" purity="1.0000000000000000e+00" nType="0">
                  <Node pos="l" depth="6" NCoef="0" IVar="-1" Cut="0.0000000000000000e+00" cType="1" res="1.3715512084960938e+02" rms="2.3268253326416016e+01" purity="1.0000000000000000e+00" nType="-99"/>
                  <Node pos="r" depth="6" NCoef="0" IVar="-1" Cut="0.0000000000000000e+00" cType="1" res="1.6989178466796875e+02" rms="2.2635713577270508e+01" purity="1.0000000000000000e+00" nType="-99"/>
                </Node>
                <Node pos="r" depth="5" NCoef="0" IVar="-1" Cut="0.0000000000000000e+00" cType="1" res="1.9384176635742188e+02" rms="2.8500358581542969e+01" purity="1.0000000000000000e+00" nType="-99"/>
              </Node>
            </Node>
            <Node pos="r" depth="3" NCoef="0" IVar="1" Cut="4.2674563825130463e-02" cType="1" res="1.9083972167968750e+02" rms="3.6648784637451172e+01" purity="1.0000000000000000e+00" nType="0">
              <Node pos="l" depth="4" NCoef="0" IVar="-1" Cut="0.0000000000000000e+00" cType="1" res="1.7034313964843750e+02" rms="3.7048007965087891e+01" purity="1.0000000000000000e+00" nType="-99"/>
              <Node pos="r" depth="4" NCoef="0" IVar="-1" Cut="3.5491876602172852e+00" cType="1" res="2.0612240600585938e+02" rms="2.7827924728393555e+01" purity="1.0000000000000000e+00" nType="1"/>
            </Node>
          </Node>
        </Node>
        <Node pos="r" depth="1" NCoef="0" IVar="2" Cut="1.9962495565414429e+00" cType="1" res="1.7876417541503906e+02" rms="4.5892948150634766e+01" purity="1.0000000000000000e+00" nType="0">
          <Node pos="l" depth="2" NCoef="0" IVar="3" Cut="1.5092024803161621e+00" cType="1" res="1.5879200744628906e+02" rms="4.5825447082519531e+01" purity="1.0000000000000000e+00" nType="0">
            <Node pos="l" depth="3" NCoef="0" IVar="1" Cut="5.3719455003738403e-01" cType="1" res="1.3233685302734375e+02" rms="3.6428634643554688e+01" purity="1.0000000000000000e+00" nType="0">
              <Node pos="l" depth="4" NCoef="0" IVar="0" Cut="1.3517984151840210e+00" cType="1" res="1.1868338012695312e+02" rms="2.8098697662353516e+01" purity="1.0000000000000000e+00" nType="0">
                <Node pos="l" depth="5" NCoef="0" IVar="3" Cut="8.0989199876785278e-01" cType="1" res="1.0765234375000000e+02" rms="2.2139871597290039e+01" purity="1.0000000000000000e+00" nType="0">
                  <Node pos="l" depth="6" NCoef="0" IVar="2" Cut="1.5536404848098755e+00" cType="1" res="9.6560874938964844e+01" rms="1.8299840927124023e+01" purity="1.0000000000000000e+00" nType="0">
                    <Node pos="l" depth="7" NCoef="0" IVar="-1" Cut="0.0000000000000000e+00" cType="1" res="8.7216506958007812e+01" rms="1.4597630500793457e+01" purity="1.0000000000000000e+00" nType="-99"/>
                    <Node pos="r" depth="7" NCoef="0" IVar="-1" Cut="0.0000000000000000e+00" cType="1" res="1.0809842681884766e+02" rms="1.5631283760070801e+01" purity="1.0000000000000000e+00" nType="-99"/>
                  </Node>
                  <Node pos="r" depth="6" NCoef="0" IVar="2" Cut="1.5536928176879883e+00" cType="1" res="1.1932772827148438e+02" rms="1.9693328857421875e+01" purity="1.0000000000000000e+00" nType="0">
                    <Node pos="l" depth="7" NCoef="0" IVar="-1" Cut="0.0000000000000000e+00" cType="1" res="1.0985961914062500e+02" rms="1.6233798980712891e+01" purity="1.0000000000000000e+00" nType="-99"/>
                    <Node pos="r" depth="7" NCoef="0" IVar="-1" Cut="0.0000000000000000e+00" cType="1" res="1.3081021118164062e+02" rms="1.7262578964233398e+01" purity="1.0000000000000000e+00" nType="-99"/>
                  </Node>
                </Node>
                <Node pos="r" depth="5" NCoef="0" IVar="3" Cut="7.4535220861434937e-01" cType="1" res="1.4183949279785156e+02" rms="2.5026206970214844e+01" purity="1.0000000000000000e+00" nType="0">
                  <Node pos="l" depth="6" NCoef="0" IVar="-1" Cut="0.0000000000000000e+00" cType="1" res="1.2769680786132812e+02" rms="2.0458248138427734e+01" purity="1.0000000000000000e+00" nType="-99"/>
                  <Node pos="r" depth="6" NCoef="0" IVar="-1" Cut="0.0000000000000000e+00" cType="1" res="1.5282749938964844e+02" rms="2.2618581771850586e+01" purity="1.0000000000000000e+00" nType="-99"/>
                </Node>
              </Node>
              <Node pos="r" depth="4" NCoef="0" IVar="0" Cut="1.1142445802688599e+00" cType="1" res="1.6581849670410156e+02" rms="3.2664749145507812e+01" purity="1.0000000000000000e+00" nType="0">
                <Node pos="l" depth="5" NCoef="0" IVar="3" Cut="9.7675746679306030e-01" cType="1" res="1.5047810363769531e+02" rms="2.8390760421752930e+01" purity="1.0000000000000000e+00" nType="0">
                  <Node pos="l" depth="6" NCoef="0" IVar="-1" Cut="0.0000000000000000e+00" cType="1" res="1.3892919921875000e+02" rms="2.5840808868408203e+01" purity="1.0000000000000000e+00" nType="-99"/>
                  <Node pos="r" depth="6" NCoef="0" IVar="-1" Cut="0.0000000000000000e+00" cType="1" res="1.6215501403808594e+02" rms="2.5974033355712891e+01" purity="1.0000000000000000e+00" nType="-99"/>
                </Node>
                <Node pos="r" depth="5" NCoef="0" IVar="-1" Cut="0.0000000000000000e+00" cType="1" res="1.8304264831542969e+02" rms="2.8268066406250000e+01" purity="1.0000000000000000e+00" nType="-99"/>
              </Node>
            </Node>
            <Node pos="r" depth="3" NCoef="0" IVar="3" Cut="2.3075053691864014e+00" cType="1" res="1.8806683349609375e+02" rms="3.6383975982666016e+01" purity="1.0000000000000000e+00" nType="0">
              <Node pos="l" depth="4" NCoef="0" IVar="1" Cut="4.3417379260063171e-01" cType="1" res="1.7291986083984375e+02" rms="3.4626510620117188e+01" purity="1.0000000000000000e+00" nType="0">
                <Node pos="l" depth="5" NCoef="0" IVar="0" Cut="1.2690399885177612e+00" cType="1" res="1.5456486511230469e+02" rms="2.7669582366943359e+01" purity="1.0000000000000000e+00" nType="0">
                  <Node pos="l" depth="6" NCoef="0" IVar="1" Cut="-5.4106998443603516e-01" cType="1" res="1.4136042785644531e+02" rms="2.1401517868041992e+01" purity="1.0000000000000000e+00" nType="0">
                    <Node pos="l" depth="7" NCoef="0" IVar="-1" Cut="0.0000000000000000e+00" cType="1" res="1.2951885986328125e+02" rms="1.8017789840698242e+01" purity="1.0000000000000000e+00" nType="-99"/>
                    <Node pos="r" depth="7" NCoef="0" IVar="-1" Cut="0.0000000000000000e+00" cType="1" res="1.5148620605468750e+02" rms="1.8698825836181641e+01" purity="1.0000000000000000e+00" nType="-99"/>
                  </Node>
                  <Node pos="r" depth="6" NCoef="0" IVar="-1" Cut="0.0000000000000000e+00" cType="1" res="1.7454060363769531e+02" rms="2.3835210800170898e+01" purity="1.0000000000000000e+00" nType="-99"/>
                </Node>
                <Node pos="r" depth="5" NCoef="0" IVar="1" Cut="1.4253152608871460e+00" cType="1" res="1.9764328002929688e+02" rms="2.6790061950683594e+01" purity="1.0000000000000000e+00" nType="0">
                  <Node pos="l" depth="6" NCoef="0" IVar="-1" Cut="0.0000000000000000e+00" cType="1" res="1.8593809509277344e+02" rms="2.4381740570068359e+01" purity="1.0000000000000000e+00" nType="-99"/>
                  <Node pos="r" depth="6" NCoef="0" IVar="-1" Cut="0.0000000000000000e+00" cType="1" res="2.1241313171386719e+02" rms="2.1958591461181641e+01" purity="1.0000000000000000e+00" nType="-99"/>
                </Node>
              </Node>
              <Node pos="r" depth="4" NCoef="0" IVar="1" Cut="-8.5123404860496521e-02" cType="1" res="2.0589152526855469e+02" rms="2.9714382171630859e+01" purity="1.0000000000000000e+00" nType="0">
                <Node pos="l" depth="5" NCoef="0" IVar="3" Cut="3.2199358940124512e+00" cType="1" res="1.9197946166992188e+02" rms="3.0975812911987305e+01" purity="1.0000000000000000e+00" nType="0">
                  <Node pos="l" depth="6" NCoef="0" IVar="-1" Cut="0.0000000000000000e+00" cType="1" res="1.7806777954101562e+02" rms="2.6900033950805664e+01" purity="1.0000000000000000e+00" nType="-99"/>
                  <Node pos="r" depth="6" NCoef="0" IVar="-1" Cut="0.0000000000000000e+00" cType="1" res="2.1289366149902344e+02" rms="2.4202686309814453e+01" purity="1.0000000000000000e+00" nType="-99"/>
                </Node>
                <Node pos="r" depth="5" NCoef="0" IVar="-1" Cut="2.8662197589874268e+00" cType="1" res="2.1807273864746094e+02" rms="2.2317361831665039e+01" purity="1.0000000000000000e+00" nType="1"/>
              </Node>
            </Node>
          </Node>
          <Node pos="r" depth="2" NCoef="0" IVar="2" Cut="2.6802158355712891e+00" cType="1" res="2.0099162292480469e+02" rms="3.4279201507568359e+01" purity="1.0000000000000000e+00" nType="0">
            <Node pos="l" depth="3" NCoef="0" IVar="3" Cut="1.3470705747604370e+00" cType="1" res="1.9089138793945312e+02" rms="3.6077445983886719e+01" purity="1.0000000000000000e+00" nType="0">
              <Node pos="l" depth="4" NCoef="0" IVar="1" Cut="4.9783167243003845e-01" cType="1" res="1.7246337890625000e+02" rms="3.3667732238769531e+01" purity="1.0000000000000000e+00" nType="0">
                <Node pos="l" depth="5" NCoef="0" IVar="0" Cut="1.4903925657272339e+00" cType="1" res="1.5988899230957031e+02" rms="2.8685621261596680e+01" purity="1.0000000000000000e+00" nType="0">
                  <Node pos="l" depth="6" NCoef="0" IVar="3" Cut="6.2286925315856934e-01" cType="1" res="1.4477647399902344e+02" rms="2.1306549072265625e+01" purity="1.0000000000000000e+00" nType="0">
                    <Node pos="l" depth="7" NCoef="0" IVar="-1" Cut="0.0000000000000000e+00" cType="1" res="1.3252015686035156e+02" rms="1.7507814407348633e+01" purity="1.0000000000000000e+00" nType="-99"/>
                    <Node pos="r" depth="7" NCoef="0" IVar="-1" Cut="0.0000000000000000e+00" cType="1" res="1.5421905517578125e+02" rms="1.9043931961059570e+01" purity="1.0000000000000000e+00" nType="-99"/>
                  </Node>
                  <Node pos="r" depth="6" NCoef="0" IVar="-1" Cut="0.0000000000000000e+00" cType="1" res="1.8172055053710938e+02" rms="2.3435554504394531e+01" purity="1.0000000000000000e+00" nType="-99"/>
                </Node>
                <Node pos="r" depth="5" NCoef="0" IVar="0" Cut="1.0635448694229126e+00" cType="1" res="1.9836323547363281e+02" rms="2.7872873306274414e+01" purity="1.0000000000000000e+00" nType="0">
                  <Node pos="l" depth="6" NCoef="0" IVar="-1" Cut="0.0000000000000000e+00" cType="1" res="1.8383273315429688e+02" rms="2.6217300415039062e+01" purity="1.0000000000000000e+00" nType="-99"/>
                  <Node pos="r" depth="6" NCoef="0" IVar="-1" Cut="0.0000000000000000e+00" cType="1" res="2.1153492736816406e+02" rms="2.2207841873168945e+01" purity="1.0000000000000000e+00" nType="-99"/>
                </Node>
              </Node>
              <Node pos="r" depth="4" NCoef="0" IVar="1" Cut="5.4048127494752407e-03" cType="1" res="2.1014062500000000e+02" rms="2.7420415878295898e+01" purity="1.0000000000000000e+00" nType="0">
                <Node pos="l" depth="5" NCoef="0" IVar="3" Cut="2.1274721622467041e+00" cType="1" res="2.0022016906738281e+02" rms="2.8760269165039062e+01" purity="1.0000000000000000e+00" nType="0">
                  <Node pos="l" depth="6" NCoef="0" IVar="-1" Cut="0.0000000000000000e+00" cType="1" res="1.8634939575195312e+02" rms="2.5921852111816406e+01" purity="1.0000000000000000e+00" nType="-99"/>
                  <Node pos="r" depth="6" NCoef="0" IVar="-1" Cut="0.0000000000000000e+00" cType="1" res="2.1522372436523438e+02" rms="2.3702783584594727e+01" purity="1.0000000000000000e+00" nType="-99"/>
                </Node>
                <Node pos="r" depth="5" NCoef="0" IVar="-1" Cut="2.0725147724151611e+00" cType="1" res="2.2030245971679688e+02" rms="2.1695650100708008e+01" purity="1.0000000000000000e+00" nType="1"/>
              </Node>
            </Node>
            <Node pos="r" depth="3" NCoef="0" IVar="2" Cut="3.3723835945129395e+00" cType="1" res="2.1464863586425781e+02" rms="2.6067970275878906e+01" purity="1.0000000000000000e+00" nType="0">
              <Node pos="l" depth="4" NCoef="0" IVar="3" Cut="9.3961256742477417e-01" cType="1" res="2.0945237731933594e+02" rms="2.7328908920288086e+01" purity="1.0000000000000000e+00" nType="0">
                <Node pos="l" depth="5" NCoef="0" IVar="0" Cut="9.1186702251434326e-01" cType="1" res="1.9671771240234375e+02" rms="2.7747234344482422e+01" purity="1.0000000000000000e+00" nType="0">
                  <Node pos="l" depth="6" NCoef="0" IVar="-1" Cut="0.0000000000000000e+00" cType="1" res="1.7820100402832031e+02" rms="2.5537193298339844e+01" purity="1.0000000000000000e+00" nType="-99"/>
                  <Node pos="r" depth="6" NCoef="0" IVar="-1" Cut="0.0000000000000000e+00" cType="1" res="2.0888352966308594e+02" rms="2.1771589279174805e+01" purity="1.0000000000000000e+00" nType="-99"/>
                </Node>
                <Node pos="r" depth="5" NCoef="0" IVar="-1" Cut="8.6912786960601807e-01" cType="1" res="2.1975227355957031e+02" rms="2.2158096313476562e+01" purity="1.0000000000000000e+00" nType="1"/>
              </Node>
              <Node pos="r" depth="4" NCoef="0" IVar="-1" Cut="4.9468064308166504e-01" cType="1" res="2.2600498962402344e+02" rms="1.8558353424072266e+01" purity="1.0000000000000000e+00" nType="1"/>
            </Node>
          </Node>
        </Node>
      </Node>
    </BinaryTree>
    <BinaryTree type="DecisionTree" boostWeight="3.2571682185929358e+00" itree="1">
      <Node pos="s" depth="0" NCoef="0" IVar="2" Cut="8.5561931133270264e-01" cType="1" res="1.4322705078125000e+02" rms="6.5730529785156250e+01" purity="1.0000000000000000e+00" nType="0">
        <Node pos="l" depth="1" NCoef="0" IVar="3" Cut="1.3843753337860107e+00" cType="1" res="8.9772956848144531e+01" rms="5.6205181121826172e+01" purity="1.0000000000000000e+00" nType="0">
          <Node pos="l" depth="2" NCoef="0" IVar="1" Cut="9.1117578744888306e-01" cType="1" res="5.8221702575683594e+01" rms="3.2535057067871094e+01" purity="1.0000000000000000e+00" nType="0">
            <Node pos="l" depth="3" NCoef="0" IVar="2" Cut="3.1989666819572449e-01" cType="1" res="5.0855346679687500e+01" rms="2.3433792114257812e+01" purity="1.0000000000000000e+00" nType="0">
              <Node pos="l" depth="4" NCoef="0" IVar="3" Cut="7.1838033199310303e-01" cType="1" res="3.8099029541015625e+01" rms="1.6672821044921875e+01" purity="1.0000000000000000e+00" nType="0">
                <Node pos="l" depth="5" NCoef="0" IVar="-1" Cut="4.7740958631038666e-02" cType="1" res="3.0279674530029297e+01" rms="1.1417603492736816e+01" purity="1.0000000000000000e+00" nType="1"/>
                <Node pos="r" depth="5" NCoef="0" IVar="1" Cut="-1.3509647548198700e-01" cType="1" res="5.0400764465332031e+01" rms="1.6208103179931641e+01" purity="1.0000000000000000e+00" nType="0">
                  <Node pos="l" depth="6" NCoef="0" IVar="-1" Cut="2.6736838743090630e-02" cType="1" res="4.3855247497558594e+01" rms="1.2664697647094727e+01" purity="1.0000000000000000e+00" nType="1"/>
                  <Node pos="r" depth="6" NCoef="0" IVar="-1" Cut="0.0000000000000000e+00" cType="1" res="6.3641056060791016e+01" rms="1.4411163330078125e+01" purity="1.0000000000000000e+00" nType="-99"/>
                </Node>
              </Node>
              <Node pos="r" depth="4" NCoef="0" IVar="3" Cut="6.6324800252914429e-01" cType="1" res="6.7034851074218750e+01" rms="2.0613138198852539e+01" purity="1.0000000000000000e+00" nType="0">
                <Node pos="l" depth="5" NCoef="0" IVar="-1" Cut="1.0201356410980225e+00" cType="1" res="5.4840923309326172e+01" rms="1.5289384841918945e+01" purity="1.0000000000000000e+00" nType="1"/>
                <Node pos="r" depth="5" NCoef="0" IVar="1" Cut="-4.2831689119338989e-02" cType="1" res="7.7767333984375000e+01" rms="1.8629884719848633e+01" purity="1.0000000000000000e+00" nType="0">
                  <Node pos="l" depth="6" NCoef="0" IVar="-1" Cut="1.0619363784790039e+00" cType="1" res="7.0495613098144531e+01" rms="1.5448771476745605e+01" purity="1.0000000000000000e+00" nType="1"/>
                  <Node pos="r" depth="6" NCoef="0" IVar="-1" Cut="0.0000000000000000e+00" cType="1" res="9.1277961730957031e+01" rms="1.6361806869506836e+01" purity="1.0000000000000000e+00" nType="-99"/>
                </Node>
              </Node>
            </Node>
            <Node pos="r" depth="3" NCoef="0" IVar="-1" Cut="0.0000000000000000e+00" cType="1" res="1.1619724273681641e+02" rms="3.5767826080322266e+01" purity="1.0000000000000000e+00" nType="-99"/>
          </Node>
          <Node pos="r" depth="2" NCoef="0" IVar="3" Cut="2.5984811782836914e+00" cType="1" res="1.3511016845703125e+02" rms="5.1878623962402344e+01" purity="1.0000000000000000e+00" nType="0">
            <Node pos="l" depth="3" NCoef="0" IVar="1" Cut="8.2478106021881104e-01" cType="1" res="1.1241457366943359e+02" rms="4.1373714447021484e+01" purity="1.0000000000000000e+00" nType="0">
              <Node pos="l" depth="4" NCoef="0" IVar="2" Cut="2.4868613481521606e-01" cType="1" res="9.4858680725097656e+01" rms="2.7775436401367188e+01" purity="1.0000000000000000e+00" nType="0">
                <Node pos="l" depth="5" NCoef="0" IVar="1" Cut="-4.1591072082519531e-01" cType="1" res="7.4816535949707031e+01" rms="2.1092353820800781e+01" purity="1.0000000000000000e+00" nType="0">
                  <Node pos="l" depth="6" NCoef="0" IVar="-1" Cut="0.0000000000000000e+00" cType="1" res="6.3023880004882812e+01" rms="1.6695947647094727e+01" purity="1.0000000000000000e+00" nType="-99"/>
                  <Node pos="r" depth="6" NCoef="0" IVar="-1" Cut="0.0000000000000000e+00" cType="1" res="8.8469116210937500e+01" rms="1.7024377822875977e+01" purity="1.0000000000000000e+00" nType="-99"/>
                </Node>
                <Node pos="r" depth="5" NCoef="0" IVar="1" Cut="-3.3097752928733826e-01" cType="1" res="1.0555521392822266e+02" rms="2.4839040756225586e+01" purity="1.0000000000000000e+00" nType="0">
                  <Node pos="l" depth="6" NCoef="0" IVar="-1" Cut="1.8467568159103394e+00" cType="1" res="9.3381652832031250e+01" rms="2.0027126312255859e+01" purity="1.0000000000000000e+00" nType="1"/>
                  <Node pos="r" depth="6" NCoef="0" IVar="-1" Cut="0.0000000000000000e+00" cType="1" res="1.2024224090576172e+02" rms="2.1975963592529297e+01" purity="1.0000000000000000e+00" nType="-99"/>
                </Node>
              </Node>
              <Node pos="r" depth="4" NCoef="0" IVar="-1" Cut="1.0737686157226562e+00" cType="1" res="1.5859828186035156e+02" rms="3.5237674713134766e+01" purity="1.0000000000000000e+00" nType="1"/>
            </Node>
            <Node pos="r" depth="3" NCoef="0" IVar="3" Cut="3.8270125389099121e+00" cType="1" res="1.7108886718750000e+02" rms="4.6187782287597656e+01" purity="1.0000000000000000e+00" nType="0">
              <Node pos="l" depth="4" NCoef="0" IVar="1" Cut="4.8011091351509094e-01" cType="1" res="1.5642277526855469e+02" rms="4.2328540802001953e+01" purity="1.0000000000000000e+00" nType="0">
                <Node pos="l" depth="5" NCoef="0" IVar="-1" Cut="0.0000000000000000e+00" cType="1" res="1.3209671020507812e+02" rms="3.0053272247314453e+01" purity="1.0000000000000000e+00" nType="-99"/>
                <Node pos="r" depth="5" NCoef="0" IVar="-1" Cut="0.0000000000000000e+00" cType="1" res="1.9113793945312500e+02" rms="3.1781215667724609e+01" purity="1.0000000000000000e+00" nType="-99"/>
              </Node>
              <Node pos="r" depth="4" NCoef="0" IVar="-1" Cut="0.0000000000000000e+00" cType="1" res="2.0823384094238281e+02" rms="3.2771629333496094e+01" purity="1.0000000000000000e+00" nType="-99"/>
            </Node>
          </Node>
        </Node>
        <Node pos="r" depth="1" NCoef="0" IVar="2" Cut="1.7568467855453491e+00" cType="1" res="1.7307388305664062e+02" rms="4.9827316284179688e+01" purity="1.0000000000000000e+00" nType="0">
          <Node pos="l" depth="2" NCoef="0" IVar="3" Cut="1.8817110061645508e+00" cType="1" res="1.5070326232910156e+02" rms="5.0114040374755859e+01" purity="1.0000000000000000e+00" nType="0">
            <Node pos="l" depth="3" NCoef="0" IVar="1" Cut="6.9596844911575317e-01" cType="1" res="1.2836001586914062e+02" rms="4.1591285705566406e+01" purity="1.0000000000000000e+00" nType="0">
              <Node pos="l" depth="4" NCoef="0" IVar="0" Cut="1.1141575574874878e+00" cType="1" res="1.1207787322998047e+02" rms="3.0747205734252930e+01" purity="1.0000000000000000e+00" nType="0">
                <Node pos="l" depth="5" NCoef="0" IVar="3" Cut="9.7094058990478516e-01" cType="1" res="9.9239852905273438e+01" rms="2.5062969207763672e+01" purity="1.0000000000000000e+00" nType="0">
                  <Node pos="l" depth="6" NCoef="0" IVar="2" Cut="1.3274818658828735e+00" cType="1" res="8.4941864013671875e+01" rms="1.8955329895019531e+01" purity="1.0000000000000000e+00" nType="0">
                    <Node pos="l" depth="7" NCoef="0" IVar="-1" Cut="5.0811326503753662e-01" cType="1" res="7.6573059082031250e+01" rms="1.5244543075561523e+01" purity="1.0000000000000000e+00" nType="1"/>
                    <Node pos="r" depth="7" NCoef="0" IVar="-1" Cut="0.0000000000000000e+00" cType="1" res="9.7788879394531250e+01" rms="1.6779834747314453e+01" purity="1.0000000000000000e+00" nType="-99"/>
                  </Node>
                  <Node pos="r" depth="6" NCoef="0" IVar="1" Cut="-2.4463979899883270e-01" cType="1" res="1.1423123168945312e+02" rms="2.1701385498046875e+01" purity="1.0000000000000000e+00" nType="0">
                    <Node pos="l" depth="7" NCoef="0" IVar="-1" Cut="1.2846112251281738e+00" cType="1" res="1.0364578247070312e+02" rms="1.8680505752563477e+01" purity="1.0000000000000000e+00" nType="1"/>
                    <Node pos="r" depth="7" NCoef="0" IVar="-1" Cut="0.0000000000000000e+00" cType="1" res="1.2661642456054688e+02" rms="1.8143415451049805e+01" purity="1.0000000000000000e+00" nType="-99"/>
                  </Node>
                </Node>
                <Node pos="r" depth="5" NCoef="0" IVar="3" Cut="1.0350273847579956e+00" cType="1" res="1.3148286437988281e+02" rms="2.8270635604858398e+01" purity="1.0000000000000000e+00" nType="0">
                  <Node pos="l" depth="6" NCoef="0" IVar="2" Cut="1.4129096269607544e+00" cType="1" res="1.1717984008789062e+02" rms="2.2798292160034180e+01" purity="1.0000000000000000e+00" nType="0">
                    <Node pos="l" depth="7" NCoef="0" IVar="-1" Cut="0.0000000000000000e+00" cType="1" res="1.0824292755126953e+02" rms="1.8601257324218750e+01" purity="1.0000000000000000e+00" nType="-99"/>
                    <Node pos="r" depth="7" NCoef="0" IVar="-1" Cut="0.0000000000000000e+00" cType="1" res="1.3316079711914062e+02" rms="2.0790847778320312e+01" purity="1.0000000000000000e+00" nType="-99"/>
                  </Node>
                  <Node pos="r" depth="6" NCoef="0" IVar="0" Cut="1.9446487426757812e+00" cType="1" res="1.4682212829589844e+02" rms="2.5382114410400391e+01" purity="1.0000000000000000e+00" nType="0">
                    <Node pos="l" depth="7" NCoef="0" IVar="-1" Cut="0.0000000000000000e+00" cType="1" res="1.3552975463867188e+02" rms="1.8330583572387695e+01" purity="1.0000000000000000e+00" nType="-99"/>
                    <Node pos="r" depth="7" NCoef="0" IVar="-1" Cut="0.0000000000000000e+00" cType="1" res="1.6203982543945312e+02" rms="2.5616756439208984e+01" purity="1.0000000000000000e+00" nType="-99"/>
                  </Node>
                </Node>
              </Node>
              <Node pos="r" depth="4" NCoef="0" IVar="1" Cut="2.3084619045257568e+00" cType="1" res="1.6722581481933594e+02" rms="3.8196212768554688e+01" purity="1.0000000000000000e+00" nType="0">
                <Node pos="l" depth="5" NCoef="0" IVar="0" Cut="1.7366986274719238e+00" cType="1" res="1.5449003601074219e+02" rms="3.1803686141967773e+01" purity="1.0000000000000000e+00" nType="0">
                  <Node pos="l" depth="6" NCoef="0" IVar="3" Cut="1.1523618698120117e+00" cType="1" res="1.4391758728027344e+02" rms="2.6029954910278320e+01" purity="1.0000000000000000e+00" nType="0">
                    <Node pos="l" depth="7" NCoef="0" IVar="-1" Cut="0.0000000000000000e+00" cType="1" res="1.2906248474121094e+02" rms="2.1207349777221680e+01" purity="1.0000000000000000e+00" nType="-99"/>
                    <Node pos="r" depth="7" NCoef="0" IVar="-1" Cut="0.0000000000000000e+00" cType="1" res="1.5967996215820312e+02" rms="2.0896764755249023e+01" purity="1.0000000000000000e+00" nType="-99"/>
                  </Node>
                  <Node pos="r" depth="6" NCoef="0" IVar="-1" Cut="0.0000000000000000e+00" cType="1" res="1.8147937011718750e+02" rms="2.9156953811645508e+01" purity="1.0000000000000000e+00" nType="-99"/>
                </Node>
                <Node pos="r" depth="5" NCoef="0" IVar="-1" Cut="0.0000000000000000e+00" cType="1" res="2.0406358337402344e+02" rms="3.0447986602783203e+01" purity="1.0000000000000000e+00" nType="-99"/>
              </Node>
            </Node>
            <Node pos="r" depth="3" NCoef="0" IVar="1" Cut="5.2930009365081787e-01" cType="1" res="1.9025949096679688e+02" rms="3.8034336090087891e+01" purity="1.0000000000000000e+00" nType="0">
              <Node pos="l" depth="4" NCoef="0" IVar="3" Cut="3.1234078407287598e+00" cType="1" res="1.7800886535644531e+02" rms="3.7647678375244141e+01" purity="1.0000000000000000e+00" nType="0">
                <Node pos="l" depth="5" NCoef="0" IVar="0" Cut="1.7590253353118896e+00" cType="1" res="1.6292997741699219e+02" rms="3.1587688446044922e+01" purity="1.0000000000000000e+00" nType="0">
                  <Node pos="l" depth="6" NCoef="0" IVar="1" Cut="-3.8594910502433777e-01" cType="1" res="1.5201696777343750e+02" rms="2.5446462631225586e+01" purity="1.0000000000000000e+00" nType="0">
                    <Node pos="l" depth="7" NCoef="0" IVar="-1" Cut="0.0000000000000000e+00" cType="1" res="1.3893905639648438e+02" rms="2.2211149215698242e+01" purity="1.0000000000000000e+00" nType="-99"/>
                    <Node pos="r" depth="7" NCoef="0" IVar="-1" Cut="0.0000000000000000e+00" cType="1" res="1.6578364562988281e+02" rms="2.0982593536376953e+01" purity="1.0000000000000000e+00" nType="-99"/>
                  </Node>
                  <Node pos="r" depth="6" NCoef="0" IVar="-1" Cut="0.0000000000000000e+00" cType="1" res="1.9357456970214844e+02" rms="2.6604928970336914e+01" purity="1.0000000000000000e+00" nType="-99"/>
                </Node>
                <Node pos="r" depth="5" NCoef="0" IVar="-1" Cut="0.0000000000000000e+00" cType="1" res="2.0884916687011719e+02" rms="2.9313970565795898e+01" purity="1.0000000000000000e+00" nType="-99"/>
              </Node>
              <Node pos="r" depth="4" NCoef="0" IVar="3" Cut="2.6246690750122070e+00" cType="1" res="2.1187840270996094e+02" rms="2.7677230834960938e+01" purity="1.0000000000000000e+00" nType="0">
                <Node pos="l" depth="5" NCoef="0" IVar="0" Cut="8.9634263515472412e-01" cType="1" res="2.0216252136230469e+02" rms="2.8803068161010742e+01" purity="1.0000000000000000e+00" nType="0">
                  <Node pos="l" depth="6" NCoef="0" IVar="-1" Cut="0.0000000000000000e+00" cType="1" res="1.8557705688476562e+02" rms="2.6377864837646484e+01" purity="1.0000000000000000e+00" nType="-99"/>
                  <Node pos="r" depth="6" NCoef="0" IVar="-1" Cut="0.0000000000000000e+00" cType="1" res="2.1555772399902344e+02" rms="2.3153902053833008e+01" purity="1.0000000000000000e+00" nType="-99"/>
                </Node>
                <Node pos="r" depth="5" NCoef="0" IVar="-1" Cut="0.0000000000000000e+00" cType="1" res="2.2500755310058594e+02" rms="1.9497865676879883e+01" purity="1.0000000000000000e+00" nType="-99"/>
              </Node>
            </Node>
          </Node>
          <Node pos="r" depth="2" NCoef="0" IVar="3" Cut="1.0587691068649292e+00" cType="1" res="1.9526770019531250e+02" rms="3.8278942108154297e+01" purity="1.0000000000000000e+00" nType="0">
            <Node pos="l" depth="3" NCoef="0" IVar="2" Cut="2.4864149093627930e+00" cType="1" res="1.8105897521972656e+02" rms="4.0547927856445312e+01" purity="1.0000000000000000e+00" nType="0">
              <Node pos="l" depth="4" NCoef="0" IVar="1" Cut="1.0049172639846802e+00" cType="1" res="1.5740165710449219e+02" rms="3.6220005035400391e+01" purity="1.0000000000000000e+00" nType="0">
                <Node pos="l" depth="5" NCoef="0" IVar="0" Cut="1.0859214067459106e+00" cType="1" res="1.4683279418945312e+02" rms="2.9817070007324219e+01" purity="1.0000000000000000e+00" nType="0">
                  <Node pos="l" depth="6" NCoef="0" IVar="-1" Cut="7.8009352087974548e-02" cType="1" res="1.2737933349609375e+02" rms="2.1242603302001953e+01" purity="1.0000000000000000e+00" nType="1"/>
                  <Node pos="r" depth="6" NCoef="0" IVar="0" Cut="2.0926685333251953e+00" cType="1" res="1.6461199951171875e+02" rms="2.5044363021850586e+01" purity="1.0000000000000000e+00" nType="0">
                    <Node pos="l" depth="7" NCoef="0" IVar="-1" Cut="0.0000000000000000e+00" cType="1" res="1.5208052062988281e+02" rms="1.7762653350830078e+01" purity="1.0000000000000000e+00" nType="-99"/>
                    <Node pos="r" depth="7" NCoef="0" IVar="-1" Cut="0.0000000000000000e+00" cType="1" res="1.7837854003906250e+02" rms="2.4649883270263672e+01" purity="1.0000000000000000e+00" nType="-99"/>
                  </Node>
                </Node>
                <Node pos="r" depth="5" NCoef="0" IVar="-1" Cut="0.0000000000000000e+00" cType="1" res="1.9674980163574219e+02" rms="3.0363782882690430e+01" purity="1.0000000000000000e+00" nType="-99"/>
              </Node>
              <Node pos="r" depth="4" NCoef="0" IVar="2" Cut="3.0772042274475098e+00" cType="1" res="2.0169190979003906e+02" rms="3.1938497543334961e+01" purity="1.0000000000000000e+00" nType="0">
                <Node pos="l" depth="5" NCoef="0" IVar="0" Cut="1.9900546073913574e+00" cType="1" res="1.8837037658691406e+02" rms="3.1932132720947266e+01" purity="1.0000000000000000e+00" nType="0">
                  <Node pos="l" depth="6" NCoef="0" IVar="1" Cut="-7.9880848526954651e-02" cType="1" res="1.7760176086425781e+02" rms="2.9055511474609375e+01" purity="1.0000000000000000e+00" nType="0">
                    <Node pos="l" depth="7" NCoef="0" IVar="-1" Cut="0.0000000000000000e+00" cType="1" res="1.6305705261230469e+02" rms="1.8994329452514648e+01" purity="1.0000000000000000e+00" nType="-99"/>
                    <Node pos="r" depth="7" NCoef="0" IVar="-1" Cut="0.0000000000000000e+00" cType="1" res="1.9104306030273438e+02" rms="3.0245954513549805e+01" purity="1.0000000000000000e+00" nType="-99"/>
                  </Node>
                  <Node pos="r" depth="6" NCoef="0" IVar="-1" Cut="0.0000000000000000e+00" cType="1" res="2.1422294616699219e+02" rms="2.2228134155273438e+01" purity="1.0000000000000000e+00" nType="-99"/>
                </Node>
                <Node pos="r" depth="5" NCoef="0" IVar="0" Cut="3.7488722801208496e-01" cType="1" res="2.1552182006835938e+02" rms="2.5396608352661133e+01" purity="1.0000000000000000e+00" nType="0">
                  <Node pos="l" depth="6" NCoef="0" IVar="-1" Cut="0.0000000000000000e+00" cType="1" res="2.0255252075195312e+02" rms="2.8768163681030273e+01" purity="1.0000000000000000e+00" nType="-99"/>
                  <Node pos="r" depth="6" NCoef="0" IVar="-1" Cut="1.6099642515182495e+00" cType="1" res="2.2330288696289062e+02" rms="1.9338123321533203e+01" purity="1.0000000000000000e+00" nType="1"/>
                </Node>
              </Node>
            </Node>
            <Node pos="r" depth="3" NCoef="0" IVar="0" Cut="1.4660360813140869e+00" cType="1" res="2.0613424682617188e+02" rms="3.2496303558349609e+01" purity="1.0000000000000000e+00" nType="0">
              <Node pos="l" depth="4" NCoef="0" IVar="2" Cut="2.4261360168457031e+00" cType="1" res="1.9844221496582031e+02" rms="3.4082675933837891e+01" purity="1.0000000000000000e+00" nType="0">
                <Node pos="l" depth="5" NCoef="0" IVar="1" Cut="6.0490202903747559e-01" cType="1" res="1.8781407165527344e+02" rms="3.4035594940185547e+01" purity="1.0000000000000000e+00" nType="0">
                  <Node pos="l" depth="6" NCoef="0" IVar="3" Cut="2.5256543159484863e+00" cType="1" res="1.7653150939941406e+02" rms="3.1802076339721680e+01" purity="1.0000000000000000e+00" nType="0">
                    <Node pos="l" depth="7" NCoef="0" IVar="1" Cut="-2.7517163753509521e-01" cType="1" res="1.6477778625488281e+02" rms="2.3568937301635742e+01" purity="1.0000000000000000e+00" nType="0">
                      <Node pos="l" depth="8" NCoef="0" IVar="-1" Cut="0.0000000000000000e+00" cType="1" res="1.5468103027343750e+02" rms="2.1086523056030273e+01" purity="1.0000000000000000e+00" nType="-99"/>
                      <Node pos="r" depth="8" NCoef="0" IVar="-1" Cut="0.0000000000000000e+00" cType="1" res="1.7615208435058594e+02" rms="2.0884359359741211e+01" purity="1.0000000000000000e+00" nType="-99"/>
                    </Node>
                    <Node pos="r" depth="7" NCoef="0" IVar="-1" Cut="0.0000000000000000e+00" cType="1" res="2.1157701110839844e+02" rms="2.7028430938720703e+01" purity="1.0000000000000000e+00" nType="-99"/>
                  </Node>
                  <Node pos="r" depth="6" NCoef="0" IVar="-1" Cut="1.6941199302673340e+00" cType="1" res="2.1148066711425781e+02" rms="2.5293260574340820e+01" purity="1.0000000000000000e+00" nType="1"/>
                </Node>
                <Node pos="r" depth="5" NCoef="0" IVar="3" Cut="1.7326482534408569e+00" cType="1" res="2.1409535217285156e+02" rms="2.7476676940917969e+01" purity="1.0000000000000000e+00" nType="0">
                  <Node pos="l" depth="6" NCoef="0" IVar="1" Cut="5.4893493652343750e-03" cType="1" res="2.0572537231445312e+02" rms="2.8442525863647461e+01" purity="1.0000000000000000e+00" nType="0">
                    <Node pos="l" depth="7" NCoef="0" IVar="-1" Cut="0.0000000000000000e+00" cType="1" res="1.9283662414550781e+02" rms="2.7425533294677734e+01" purity="1.0000000000000000e+00" nType="-99"/>
                    <Node pos="r" depth="7" NCoef="0" IVar="-1" Cut="0.0000000000000000e+00" cType="1" res="2.2053593444824219e+02" rms="2.1541227340698242e+01" purity="1.0000000000000000e+00" nType="-99"/>
                  </Node>
                  <Node pos="r" depth="6" NCoef="0" IVar="-1" Cut="-3.8786965608596802e-01" cType="1" res="2.2498292541503906e+02" rms="2.1795520782470703e+01" purity="1.0000000000000000e+00" nType="1"/>
                </Node>
              </Node>
              <Node pos="r" depth="4" NCoef="0" IVar="-1" Cut="1.7545464038848877e+00" cType="1" res="2.2115832519531250e+02" rms="2.2548307418823242e+01" purity="1.0000000000000000e+00" nType="1"/>
            </Node>
          </Node>
        </Node>
      </Node>
    </BinaryTree>
    <BinaryTree type="DecisionTree" boostWeight="3.4039279241248424e+00" itree="2">
      <Node pos="s" depth="0" NCoef="0" IVar="2" Cut="1.4470440149307251e+00" cType="1" res="1.5109246826171875e+02" rms="6.3719909667968750e+01" purity="1.0000000000000000e+00" nType="0">
        <Node pos="l" depth="1" NCoef="0" IVar="3" Cut="1.6980843544006348e+00" cType="1" res="1.2200804138183594e+02" rms="6.1675781250000000e+01" purity="1.0000000000000000e+00" nType="0">
          <Node pos="l" depth="2" NCoef="0" IVar="1" Cut="1.3341914415359497e+00" cType="1" res="9.2028884887695312e+01" rms="5.0506000518798828e+01" purity="1.0000000000000000e+00" nType="0">
            <Node pos="l" depth="3" NCoef="0" IVar="2" Cut="5.6985771656036377e-01" cType="1" res="7.6976364135742188e+01" rms="3.7180831909179688e+01" purity="1.0000000000000000e+00" nType="0">
              <Node pos="l" depth="4" NCoef="0" IVar="3" Cut="9.3756282329559326e-01" cType="1" res="5.1849643707275391e+01" rms="2.4370019912719727e+01" purity="1.0000000000000000e+00" nType="0">
                <Node pos="l" depth="5" NCoef="0" IVar="2" Cut="2.0248974859714508e-01" cType="1" res="4.1186019897460938e+01" rms="1.7995790481567383e+01" purity="1.0000000000000000e+00" nType="0">
                  <Node pos="l" depth="6" NCoef="0" IVar="-1" Cut="1.9017709791660309e-01" cType="1" res="3.3403926849365234e+01" rms="1.4357985496520996e+01" purity="1.0000000000000000e+00" nType="1"/>
                  <Node pos="r" depth="6" NCoef="0" IVar="-1" Cut="8.2728438079357147e-02" cType="1" res="5.2511268615722656e+01" rms="1.6695407867431641e+01" purity="1.0000000000000000e+00" nType="1"/>
                </Node>
                <Node pos="r" depth="5" NCoef="0" IVar="1" Cut="-1.0817731730639935e-02" cType="1" res="7.0215545654296875e+01" rms="2.2931404113769531e+01" purity="1.0000000000000000e+00" nType="0">
                  <Node pos="l" depth="6" NCoef="0" IVar="-1" Cut="1.7048050463199615e-01" cType="1" res="6.0060886383056641e+01" rms="1.8519460678100586e+01" purity="1.0000000000000000e+00" nType="1"/>
                  <Node pos="r" depth="6" NCoef="0" IVar="-1" Cut="0.0000000000000000e+00" cType="1" res="8.7296028137207031e+01" rms="1.9190320968627930e+01" purity="1.0000000000000000e+00" nType="-99"/>
                </Node>
              </Node>
              <Node pos="r" depth="4" NCoef="0" IVar="0" Cut="1.7444455623626709e+00" cType="1" res="1.0087301635742188e+02" rms="3.0997333526611328e+01" purity="1.0000000000000000e+00" nType="0">
                <Node pos="l" depth="5" NCoef="0" IVar="3" Cut="8.4331899881362915e-01" cType="1" res="9.2568595886230469e+01" rms="2.6157402038574219e+01" purity="1.0000000000000000e+00" nType="0">
                  <Node pos="l" depth="6" NCoef="0" IVar="2" Cut="1.0293118953704834e+00" cType="1" res="7.7806701660156250e+01" rms="2.0848604202270508e+01" purity="1.0000000000000000e+00" nType="0">
                    <Node pos="l" depth="7" NCoef="0" IVar="-1" Cut="5.9299129247665405e-01" cType="1" res="6.7838890075683594e+01" rms="1.6580718994140625e+01" purity="1.0000000000000000e+00" nType="1"/>
                    <Node pos="r" depth="7" NCoef="0" IVar="-1" Cut="5.5923175811767578e-01" cType="1" res="9.0040649414062500e+01" rms="1.8950204849243164e+01" purity="1.0000000000000000e+00" nType="1"/>
                  </Node>
                  <Node pos="r" depth="6" NCoef="0" IVar="1" Cut="4.3621575459837914e-03" cType="1" res="1.0511475372314453e+02" rms="2.3530567169189453e+01" purity="1.0000000000000000e+00" nType="0">
                    <Node pos="l" depth="7" NCoef="0" IVar="-1" Cut="1.0712300539016724e+00" cType="1" res="9.3803375244140625e+01" rms="1.9108236312866211e+01" purity="1.0000000000000000e+00" nType="1"/>
                    <Node pos="r" depth="7" NCoef="0" IVar="-1" Cut="1.0291291475296021e+00" cType="1" res="1.2060929870605469e+02" rms="1.9915802001953125e+01" purity="1.0000000000000000e+00" nType="1"/>
                  </Node>
                </Node>
                <Node pos="r" depth="5" NCoef="0" IVar="3" Cut="8.2720530033111572e-01" cType="1" res="1.3249502563476562e+02" rms="2.7415822982788086e+01" purity="1.0000000000000000e+00" nType="0">
                  <Node pos="l" depth="6" NCoef="0" IVar="-1" Cut="0.0000000000000000e+00" cType="1" res="1.1738364410400391e+02" rms="2.2372453689575195e+01" purity="1.0000000000000000e+00" nType="-99"/>
                  <Node pos="r" depth="6" NCoef="0" IVar="-1" Cut="0.0000000000000000e+00" cType="1" res="1.4239132690429688e+02" rms="2.5857055664062500e+01" purity="1.0000000000000000e+00" nType="-99"/>
                </Node>
              </Node>
            </Node>
            <Node pos="r" depth="3" NCoef="0" IVar="1" Cut="2.3061842918395996e+00" cType="1" res="1.6134056091308594e+02" rms="4.5647571563720703e+01" purity="1.0000000000000000e+00" nType="0">
              <Node pos="l" depth="4" NCoef="0" IVar="2" Cut="8.4688425064086914e-01" cType="1" res="1.3164027404785156e+02" rms="3.6067741394042969e+01" purity="1.0000000000000000e+00" nType="0">
                <Node pos="l" depth="5" NCoef="0" IVar="-1" Cut="0.0000000000000000e+00" cType="1" res="1.1209049987792969e+02" rms="2.9129573822021484e+01" purity="1.0000000000000000e+00" nType="-99"/>
                <Node pos="r" depth="5" NCoef="0" IVar="-1" Cut="0.0000000000000000e+00" cType="1" res="1.5294770812988281e+02" rms="3.0386491775512695e+01" purity="1.0000000000000000e+00" nType="-99"/>
              </Node>
              <Node pos="r" depth="4" NCoef="0" IVar="-1" Cut="0.0000000000000000e+00" cType="1" res="1.8059333801269531e+02" rms="4.0603801727294922e+01" purity="1.0000000000000000e+00" nType="-99"/>
            </Node>
          </Node>
          <Node pos="r" depth="2" NCoef="0" IVar="1" Cut="1.0618691444396973e+00" cType="1" res="1.6365744018554688e+02" rms="5.0610736846923828e+01" purity="1.0000000000000000e+00" nType="0">
            <Node pos="l" depth="3" NCoef="0" IVar="3" Cut="3.4295394420623779e+00" cType="1" res="1.5001898193359375e+02" rms="4.7361827850341797e+01" purity="1.0000000000000000e+00" nType="0">
              <Node pos="l" depth="4" NCoef="0" IVar="2" Cut="6.1647331714630127e-01" cType="1" res="1.3556768798828125e+02" rms="3.9299175262451172e+01" purity="1.0000000000000000e+00" nType="0">
                <Node pos="l" depth="5" NCoef="0" IVar="1" Cut="-1.7086113989353180e-01" cType="1" res="1.0819469451904297e+02" rms="3.2018325805664062e+01" purity="1.0000000000000000e+00" nType="0">
                  <Node pos="l" depth="6" NCoef="0" IVar="2" Cut="2.2719788551330566e-01" cType="1" res="9.3236518859863281e+01" rms="2.6500513076782227e+01" purity="1.0000000000000000e+00" nType="0">
                    <Node pos="l" depth="7" NCoef="0" IVar="-1" Cut="0.0000000000000000e+00" cType="1" res="8.1800643920898438e+01" rms="2.2261522293090820e+01" purity="1.0000000000000000e+00" nType="-99"/>
                    <Node pos="r" depth="7" NCoef="0" IVar="-1" Cut="0.0000000000000000e+00" cType="1" res="1.0519100189208984e+02" rms="2.5273170471191406e+01" purity="1.0000000000000000e+00" nType="-99"/>
                  </Node>
                  <Node pos="r" depth="6" NCoef="0" IVar="-1" Cut="0.0000000000000000e+00" cType="1" res="1.2990147399902344e+02" rms="2.6417238235473633e+01" purity="1.0000000000000000e+00" nType="-99"/>
                </Node>
                <Node pos="r" depth="5" NCoef="0" IVar="3" Cut="2.3574531078338623e+00" cType="1" res="1.5225675964355469e+02" rms="3.3550762176513672e+01" purity="1.0000000000000000e+00" nType="0">
                  <Node pos="l" depth="6" NCoef="0" IVar="1" Cut="-1.9861532747745514e-01" cType="1" res="1.3636100769042969e+02" rms="2.8561655044555664e+01" purity="1.0000000000000000e+00" nType="0">
                    <Node pos="l" depth="7" NCoef="0" IVar="-1" Cut="1.0513666868209839e+00" cType="1" res="1.2128042602539062e+02" rms="2.4236888885498047e+01" purity="1.0000000000000000e+00" nType="1"/>
                    <Node pos="r" depth="7" NCoef="0" IVar="-1" Cut="0.0000000000000000e+00" cType="1" res="1.5290762329101562e+02" rms="2.3302022933959961e+01" purity="1.0000000000000000e+00" nType="-99"/>
                  </Node>
                  <Node pos="r" depth="6" NCoef="0" IVar="1" Cut="-4.7908481955528259e-01" cType="1" res="1.6917645263671875e+02" rms="3.0004558563232422e+01" purity="1.0000000000000000e+00" nType="0">
                    <Node pos="l" depth="7" NCoef="0" IVar="-1" Cut="0.0000000000000000e+00" cType="1" res="1.4877626037597656e+02" rms="2.5304218292236328e+01" purity="1.0000000000000000e+00" nType="-99"/>
                    <Node pos="r" depth="7" NCoef="0" IVar="-1" Cut="0.0000000000000000e+00" cType="1" res="1.8206613159179688e+02" rms="2.5207889556884766e+01" purity="1.0000000000000000e+00" nType="-99"/>
                  </Node>
                </Node>
              </Node>
              <Node pos="r" depth="4" NCoef="0" IVar="2" Cut="6.8624049425125122e-01" cType="1" res="1.9080613708496094e+02" rms="4.4296455383300781e+01" purity="1.0000000000000000e+00" nType="0">
                <Node pos="l" depth="5" NCoef="0" IVar="-1" Cut="0.0000000000000000e+00" cType="1" res="1.6869990539550781e+02" rms="4.4410358428955078e+01" purity="1.0000000000000000e+00" nType="-99"/>
                <Node pos="r" depth="5" NCoef="0" IVar="-1" Cut="0.0000000000000000e+00" cType="1" res="2.1216432189941406e+02" rms="3.2001445770263672e+01" purity="1.0000000000000000e+00" nType="-99"/>
              </Node>
            </Node>
            <Node pos="r" depth="3" NCoef="0" IVar="2" Cut="3.6264154314994812e-01" cType="1" res="2.0183969116210938e+02" rms="3.8391899108886719e+01" purity="1.0000000000000000e+00" nType="0">
              <Node pos="l" depth="4" NCoef="0" IVar="-1" Cut="0.0000000000000000e+00" cType="1" res="1.7156211853027344e+02" rms="4.3869525909423828e+01" purity="1.0000000000000000e+00" nType="-99"/>
              <Node pos="r" depth="4" NCoef="0" IVar="1" Cut="2.0900604724884033e+00" cType="1" res="2.1182127380371094e+02" rms="3.0389804840087891e+01" purity="1.0000000000000000e+00" nType="0">
                <Node pos="l" depth="5" NCoef="0" IVar="3" Cut="2.5244669914245605e+00" cType="1" res="1.9864239501953125e+02" rms="3.1972360610961914e+01" purity="1.0000000000000000e+00" nType="0">
                  <Node pos="l" depth="6" NCoef="0" IVar="-1" Cut="0.0000000000000000e+00" cType="1" res="1.8085386657714844e+02" rms="2.8399877548217773e+01" purity="1.0000000000000000e+00" nType="-99"/>
                  <Node pos="r" depth="6" NCoef="0" IVar="-1" Cut="0.0000000000000000e+00" cType="1" res="2.1650532531738281e+02" rms="2.4535142898559570e+01" purity="1.0000000000000000e+00" nType="-99"/>
                </Node>
                <Node pos="r" depth="5" NCoef="0" IVar="-1" Cut="0.0000000000000000e+00" cType="1" res="2.2485679626464844e+02" rms="2.2004625320434570e+01" purity="1.0000000000000000e+00" nType="-99"/>
              </Node>
            </Node>
          </Node>
        </Node>
        <Node pos="r" depth="1" NCoef="0" IVar="0" Cut="3.2897204160690308e-01" cType="1" res="1.8958018493652344e+02" rms="4.2411392211914062e+01" purity="1.0000000000000000e+00" nType="0">
          <Node pos="l" depth="2" NCoef="0" IVar="2" Cut="2.8270406723022461e+00" cType="1" res="1.7084507751464844e+02" rms="4.5123157501220703e+01" purity="1.0000000000000000e+00" nType="0">
            <Node pos="l" depth="3" NCoef="0" IVar="3" Cut="1.6269625425338745e+00" cType="1" res="1.5937850952148438e+02" rms="4.2167583465576172e+01" purity="1.0000000000000000e+00" nType="0">
              <Node pos="l" depth="4" NCoef="0" IVar="1" Cut="1.8527844548225403e-01" cType="1" res="1.4115307617187500e+02" rms="3.6718906402587891e+01" purity="1.0000000000000000e+00" nType="0">
                <Node pos="l" depth="5" NCoef="0" IVar="2" Cut="2.0379176139831543e+00" cType="1" res="1.2221744537353516e+02" rms="2.6367092132568359e+01" purity="1.0000000000000000e+00" nType="0">
                  <Node pos="l" depth="6" NCoef="0" IVar="-1" Cut="0.0000000000000000e+00" cType="1" res="1.0430272674560547e+02" rms="1.9970146179199219e+01" purity="1.0000000000000000e+00" nType="-99"/>
                  <Node pos="r" depth="6" NCoef="0" IVar="-1" Cut="0.0000000000000000e+00" cType="1" res="1.3777696228027344e+02" rms="2.0780475616455078e+01" purity="1.0000000000000000e+00" nType="-99"/>
                </Node>
                <Node pos="r" depth="5" NCoef="0" IVar="3" Cut="1.0607094764709473e+00" cType="1" res="1.6417869567871094e+02" rms="3.4295837402343750e+01" purity="1.0000000000000000e+00" nType="0">
                  <Node pos="l" depth="6" NCoef="0" IVar="-1" Cut="0.0000000000000000e+00" cType="1" res="1.5063069152832031e+02" rms="2.9870731353759766e+01" purity="1.0000000000000000e+00" nType="-99"/>
                  <Node pos="r" depth="6" NCoef="0" IVar="-1" Cut="0.0000000000000000e+00" cType="1" res="1.7980580139160156e+02" rms="3.2369747161865234e+01" purity="1.0000000000000000e+00" nType="-99"/>
                </Node>
              </Node>
              <Node pos="r" depth="4" NCoef="0" IVar="1" Cut="-4.7288888692855835e-01" cType="1" res="1.8600863647460938e+02" rms="3.4808601379394531e+01" purity="1.0000000000000000e+00" nType="0">
                <Node pos="l" depth="5" NCoef="0" IVar="-1" Cut="0.0000000000000000e+00" cType="1" res="1.6657414245605469e+02" rms="3.2467201232910156e+01" purity="1.0000000000000000e+00" nType="-99"/>
                <Node pos="r" depth="5" NCoef="0" IVar="3" Cut="2.3647890090942383e+00" cType="1" res="1.9933050537109375e+02" rms="2.9719333648681641e+01" purity="1.0000000000000000e+00" nType="0">
                  <Node pos="l" depth="6" NCoef="0" IVar="-1" Cut="0.0000000000000000e+00" cType="1" res="1.8777423095703125e+02" rms="2.7402252197265625e+01" purity="1.0000000000000000e+00" nType="-99"/>
                  <Node pos="r" depth="6" NCoef="0" IVar="-1" Cut="0.0000000000000000e+00" cType="1" res="2.1570652770996094e+02" rms="2.4766420364379883e+01" purity="1.0000000000000000e+00" nType="-99"/>
                </Node>
              </Node>
            </Node>
            <Node pos="r" depth="3" NCoef="0" IVar="2" Cut="3.4842970371246338e+00" cType="1" res="2.0343223571777344e+02" rms="3.6520057678222656e+01" purity="1.0000000000000000e+00" nType="0">
              <Node pos="l" depth="4" NCoef="0" IVar="-1" Cut="0.0000000000000000e+00" cType="1" res="1.9111892700195312e+02" rms="3.6713890075683594e+01" purity="1.0000000000000000e+00" nType="-99"/>
              <Node pos="r" depth="4" NCoef="0" IVar="-1" Cut="0.0000000000000000e+00" cType="1" res="2.2318814086914062e+02" rms="2.6026575088500977e+01" purity="1.0000000000000000e+00" nType="-99"/>
            </Node>
          </Node>
          <Node pos="r" depth="2" NCoef="0" IVar="3" Cut="9.5775395631790161e-01" cType="1" res="1.9863275146484375e+02" rms="3.7848129272460938e+01" purity="1.0000000000000000e+00" nType="0">
            <Node pos="l" depth="3" NCoef="0" IVar="2" Cut="2.2223913669586182e+00" cType="1" res="1.8262042236328125e+02" rms="4.1470756530761719e+01" purity="1.0000000000000000e+00" nType="0">
              <Node pos="l" depth="4" NCoef="0" IVar="1" Cut="8.7128496170043945e-01" cType="1" res="1.5618527221679688e+02" rms="3.6913661956787109e+01" purity="1.0000000000000000e+00" nType="0">
                <Node pos="l" depth="5" NCoef="0" IVar="0" Cut="1.8152816295623779e+00" cType="1" res="1.4200274658203125e+02" rms="2.7964717864990234e+01" purity="1.0000000000000000e+00" nType="0">
                  <Node pos="l" depth="6" NCoef="0" IVar="-1" Cut="0.0000000000000000e+00" cType="1" res="1.2704393768310547e+02" rms="1.8199279785156250e+01" purity="1.0000000000000000e+00" nType="-99"/>
                  <Node pos="r" depth="6" NCoef="0" IVar="-1" Cut="0.0000000000000000e+00" cType="1" res="1.6162255859375000e+02" rms="2.6360565185546875e+01" purity="1.0000000000000000e+00" nType="-99"/>
                </Node>
                <Node pos="r" depth="5" NCoef="0" IVar="-1" Cut="0.0000000000000000e+00" cType="1" res="1.9026539611816406e+02" rms="3.3361152648925781e+01" purity="1.0000000000000000e+00" nType="-99"/>
              </Node>
              <Node pos="r" depth="4" NCoef="0" IVar="2" Cut="2.8131616115570068e+00" cType="1" res="2.0423347473144531e+02" rms="3.1199375152587891e+01" purity="1.0000000000000000e+00" nType="0">
                <Node pos="l" depth="5" NCoef="0" IVar="1" Cut="2.0119380950927734e-01" cType="1" res="1.9058666992187500e+02" rms="3.1826782226562500e+01" purity="1.0000000000000000e+00" nType="0">
                  <Node pos="l" depth="6" NCoef="0" IVar="-1" Cut="0.0000000000000000e+00" cType="1" res="1.7516983032226562e+02" rms="2.5448751449584961e+01" purity="1.0000000000000000e+00" nType="-99"/>
                  <Node pos="r" depth="6" NCoef="0" IVar="-1" Cut="0.0000000000000000e+00" cType="1" res="2.0915632629394531e+02" rms="2.8667720794677734e+01" purity="1.0000000000000000e+00" nType="-99"/>
                </Node>
                <Node pos="r" depth="5" NCoef="0" IVar="-1" Cut="1.1118999868631363e-01" cType="1" res="2.1691035461425781e+02" rms="2.4555383682250977e+01" purity="1.0000000000000000e+00" nType="1"/>
              </Node>
            </Node>
            <Node pos="r" depth="3" NCoef="0" IVar="1" Cut="5.6738126277923584e-01" cType="1" res="2.0779403686523438e+02" rms="3.2209602355957031e+01" purity="1.0000000000000000e+00" nType="0">
              <Node pos="l" depth="4" NCoef="0" IVar="2" Cut="2.3334326744079590e+00" cType="1" res="2.0074842834472656e+02" rms="3.3138717651367188e+01" purity="1.0000000000000000e+00" nType="0">
                <Node pos="l" depth="5" NCoef="0" IVar="3" Cut="2.4747092723846436e+00" cType="1" res="1.9166221618652344e+02" rms="3.3438373565673828e+01" purity="1.0000000000000000e+00" nType="0">
                  <Node pos="l" depth="6" NCoef="0" IVar="0" Cut="2.5284636020660400e+00" cType="1" res="1.8031986999511719e+02" rms="2.9701080322265625e+01" purity="1.0000000000000000e+00" nType="0">
                    <Node pos="l" depth="7" NCoef="0" IVar="3" Cut="1.8246145248413086e+00" cType="1" res="1.6989523315429688e+02" rms="2.4057348251342773e+01" purity="1.0000000000000000e+00" nType="0">
                      <Node pos="l" depth="8" NCoef="0" IVar="-1" Cut="1.8695386648178101e+00" cType="1" res="1.6046133422851562e+02" rms="2.0421028137207031e+01" purity="1.0000000000000000e+00" nType="1"/>
                      <Node pos="r" depth="8" NCoef="0" IVar="-1" Cut="0.0000000000000000e+00" cType="1" res="1.8536930847167969e+02" rms="2.1415431976318359e+01" purity="1.0000000000000000e+00" nType="-99"/>
                    </Node>
                    <Node pos="r" depth="7" NCoef="0" IVar="-1" Cut="0.0000000000000000e+00" cType="1" res="2.1006777954101562e+02" rms="2.3513538360595703e+01" purity="1.0000000000000000e+00" nType="-99"/>
                  </Node>
                  <Node pos="r" depth="6" NCoef="0" IVar="-1" Cut="3.0164756774902344e+00" cType="1" res="2.1964288330078125e+02" rms="2.4494117736816406e+01" purity="1.0000000000000000e+00" nType="1"/>
                </Node>
                <Node pos="r" depth="5" NCoef="0" IVar="-1" Cut="2.8611071109771729e+00" cType="1" res="2.1888548278808594e+02" rms="2.3761346817016602e+01" purity="1.0000000000000000e+00" nType="1"/>
              </Node>
              <Node pos="r" depth="4" NCoef="0" IVar="-1" Cut="1.7192884683609009e+00" cType="1" res="2.2351829528808594e+02" rms="2.3321979522705078e+01" purity="1.0000000000000000e+00" nType="1"/>
            </Node>
          </Node>
        </Node>
      </Node>
    </BinaryTree>
    <BinaryTree type="DecisionTree" boostWeight="3.0879688974583002e+00" itree="3">
      <Node pos="s" depth="0" NCoef="0" IVar="2" Cut="1.4470440149307251e+00" cType="1" res="1.5712124633789062e+02" rms="6.2695709228515625e+01" purity="1.0000000000000000e+00" nType="0">
        <Node pos="l" depth="1" NCoef="0" IVar="3" Cut="1.2940953969955444e+00" cType="1" res="1.3222383117675781e+02" rms="6.3383892059326172e+01" purity="1.0000000000000000e+00" nType="0">
          <Node pos="l" depth="2" NCoef="0" IVar="1" Cut="1.0435445308685303e+00" cType="1" res="9.0006973266601562e+01" rms="5.0169582366943359e+01" purity="1.0000000000000000e+00" nType="0">
            <Node pos="l" depth="3" NCoef="0" IVar="2" Cut="6.5783751010894775e-01" cType="1" res="7.0524665832519531e+01" rms="3.4989929199218750e+01" purity="1.0000000000000000e+00" nType="0">
              <Node pos="l" depth="4" NCoef="0" IVar="2" Cut="2.5697642564773560e-01" cType="1" res="4.8576538085937500e+01" rms="2.2224225997924805e+01" purity="1.0000000000000000e+00" nType="0">
                <Node pos="l" depth="5" NCoef="0" IVar="-1" Cut="6.6686242818832397e-01" cType="1" res="3.8839664459228516e+01" rms="1.7563697814941406e+01" purity="1.0000000000000000e+00" nType="1"/>
                <Node pos="r" depth="5" NCoef="0" IVar="3" Cut="5.3582972288131714e-01" cType="1" res="6.1733440399169922e+01" rms="2.1053979873657227e+01" purity="1.0000000000000000e+00" nType="0">
                  <Node pos="l" depth="6" NCoef="0" IVar="-1" Cut="0.0000000000000000e+00" cType="1" res="4.7458015441894531e+01" rms="1.4139599800109863e+01" purity="1.0000000000000000e+00" nType="-99"/>
                  <Node pos="r" depth="6" NCoef="0" IVar="-1" Cut="-2.1059401333332062e-01" cType="1" res="7.0990318298339844e+01" rms="1.9576234817504883e+01" purity="1.0000000000000000e+00" nType="1"/>
                </Node>
              </Node>
              <Node pos="r" depth="4" NCoef="0" IVar="0" Cut="1.3658618927001953e+00" cType="1" res="9.6079551696777344e+01" rms="2.9338787078857422e+01" purity="1.0000000000000000e+00" nType="0">
                <Node pos="l" depth="5" NCoef="0" IVar="1" Cut="2.0206153392791748e-01" cType="1" res="8.4090774536132812e+01" rms="2.1559070587158203e+01" purity="1.0000000000000000e+00" nType="0">
                  <Node pos="l" depth="6" NCoef="0" IVar="-1" Cut="4.5885193347930908e-01" cType="1" res="7.7127029418945312e+01" rms="1.8449586868286133e+01" purity="1.0000000000000000e+00" nType="1"/>
                  <Node pos="r" depth="6" NCoef="0" IVar="-1" Cut="0.0000000000000000e+00" cType="1" res="1.0135427093505859e+02" rms="1.8840288162231445e+01" purity="1.0000000000000000e+00" nType="-99"/>
                </Node>
                <Node pos="r" depth="5" NCoef="0" IVar="-1" Cut="2.0199611186981201e+00" cType="1" res="1.2013012695312500e+02" rms="2.8077587127685547e+01" purity="1.0000000000000000e+00" nType="1"/>
              </Node>
            </Node>
            <Node pos="r" depth="3" NCoef="0" IVar="3" Cut="9.0927290916442871e-01" cType="1" res="1.3630033874511719e+02" rms="5.0434822082519531e+01" purity="1.0000000000000000e+00" nType="0">
              <Node pos="l" depth="4" NCoef="0" IVar="-1" Cut="0.0000000000000000e+00" cType="1" res="1.1217395782470703e+02" rms="3.6397357940673828e+01" purity="1.0000000000000000e+00" nType="-99"/>
              <Node pos="r" depth="4" NCoef="0" IVar="-1" Cut="0.0000000000000000e+00" cType="1" res="1.7544830322265625e+02" rms="4.5215347290039062e+01" purity="1.0000000000000000e+00" nType="-99"/>
            </Node>
          </Node>
          <Node pos="r" depth="2" NCoef="0" IVar="1" Cut="1.6015748977661133e+00" cType="1" res="1.6002731323242188e+02" rms="5.5307678222656250e+01" purity="1.0000000000000000e+00" nType="0">
            <Node pos="l" depth="3" NCoef="0" IVar="3" Cut="4.0643062591552734e+00" cType="1" res="1.4796363830566406e+02" rms="5.2536205291748047e+01" purity="1.0000000000000000e+00" nType="0">
              <Node pos="l" depth="4" NCoef="0" IVar="0" Cut="1.8605816364288330e+00" cType="1" res="1.3762063598632812e+02" rms="4.6001228332519531e+01" purity="1.0000000000000000e+00" nType="0">
                <Node pos="l" depth="5" NCoef="0" IVar="2" Cut="6.3576722145080566e-01" cType="1" res="1.2501797485351562e+02" rms="3.9112506866455078e+01" purity="1.0000000000000000e+00" nType="0">
                  <Node pos="l" depth="6" NCoef="0" IVar="3" Cut="2.2174117565155029e+00" cType="1" res="1.0475431823730469e+02" rms="3.4066711425781250e+01" purity="1.0000000000000000e+00" nType="0">
                    <Node pos="l" depth="7" NCoef="0" IVar="1" Cut="1.6045586764812469e-01" cType="1" res="8.5726448059082031e+01" rms="2.4748710632324219e+01" purity="1.0000000000000000e+00" nType="0">
                      <Node pos="l" depth="8" NCoef="0" IVar="-1" Cut="1.6065061092376709e-01" cType="1" res="7.2479904174804688e+01" rms="1.9331453323364258e+01" purity="1.0000000000000000e+00" nType="1"/>
                      <Node pos="r" depth="8" NCoef="0" IVar="-1" Cut="0.0000000000000000e+00" cType="1" res="1.0599305725097656e+02" rms="1.7281309127807617e+01" purity="1.0000000000000000e+00" nType="-99"/>
                    </Node>
                    <Node pos="r" depth="7" NCoef="0" IVar="1" Cut="-2.4766540527343750e-01" cType="1" res="1.2213394927978516e+02" rms="3.2068073272705078e+01" purity="1.0000000000000000e+00" nType="0">
                      <Node pos="l" depth="8" NCoef="0" IVar="-1" Cut="0.0000000000000000e+00" cType="1" res="1.0510589599609375e+02" rms="2.3891496658325195e+01" purity="1.0000000000000000e+00" nType="-99"/>
                      <Node pos="r" depth="8" NCoef="0" IVar="-1" Cut="0.0000000000000000e+00" cType="1" res="1.4883856201171875e+02" rms="2.4043142318725586e+01" purity="1.0000000000000000e+00" nType="-99"/>
                    </Node>
                  </Node>
                  <Node pos="r" depth="6" NCoef="0" IVar="3" Cut="2.4809858798980713e+00" cType="1" res="1.4348385620117188e+02" rms="3.3927886962890625e+01" purity="1.0000000000000000e+00" nType="0">
                    <Node pos="l" depth="7" NCoef="0" IVar="1" Cut="1.3606214523315430e-01" cType="1" res="1.2790993499755859e+02" rms="2.7327859878540039e+01" purity="1.0000000000000000e+00" nType="0">
                      <Node pos="l" depth="8" NCoef="0" IVar="-1" Cut="-7.7119708061218262e-01" cType="1" res="1.1422076416015625e+02" rms="2.2249090194702148e+01" purity="1.0000000000000000e+00" nType="1"/>
                      <Node pos="r" depth="8" NCoef="0" IVar="-1" Cut="7.2511273622512817e-01" cType="1" res="1.4790261840820312e+02" rms="2.1003669738769531e+01" purity="1.0000000000000000e+00" nType="1"/>
                    </Node>
                    <Node pos="r" depth="7" NCoef="0" IVar="1" Cut="-1.6583491861820221e-01" cType="1" res="1.6683106994628906e+02" rms="2.9128698348999023e+01" purity="1.0000000000000000e+00" nType="0">
                      <Node pos="l" depth="8" NCoef="0" IVar="-1" Cut="0.0000000000000000e+00" cType="1" res="1.5219309997558594e+02" rms="2.2361354827880859e+01" purity="1.0000000000000000e+00" nType="-99"/>
                      <Node pos="r" depth="8" NCoef="0" IVar="-1" Cut="0.0000000000000000e+00" cType="1" res="1.8655786132812500e+02" rms="2.5301437377929688e+01" purity="1.0000000000000000e+00" nType="-99"/>
                    </Node>
                  </Node>
                </Node>
                <Node pos="r" depth="5" NCoef="0" IVar="3" Cut="2.3485929965972900e+00" cType="1" res="1.8187306213378906e+02" rms="4.0729980468750000e+01" purity="1.0000000000000000e+00" nType="0">
                  <Node pos="l" depth="6" NCoef="0" IVar="-1" Cut="0.0000000000000000e+00" cType="1" res="1.6204222106933594e+02" rms="3.7500709533691406e+01" purity="1.0000000000000000e+00" nType="-99"/>
                  <Node pos="r" depth="6" NCoef="0" IVar="-1" Cut="0.0000000000000000e+00" cType="1" res="2.0270782470703125e+02" rms="3.2819042205810547e+01" purity="1.0000000000000000e+00" nType="-99"/>
                </Node>
              </Node>
              <Node pos="r" depth="4" NCoef="0" IVar="-1" Cut="0.0000000000000000e+00" cType="1" res="2.2204643249511719e+02" rms="3.3434135437011719e+01" purity="1.0000000000000000e+00" nType="-99"/>
            </Node>
            <Node pos="r" depth="3" NCoef="0" IVar="3" Cut="2.3652770519256592e+00" cType="1" res="2.0590133666992188e+02" rms="3.9213100433349609e+01" purity="1.0000000000000000e+00" nType="0">
              <Node pos="l" depth="4" NCoef="0" IVar="-1" Cut="0.0000000000000000e+00" cType="1" res="1.9302189636230469e+02" rms="4.1218559265136719e+01" purity="1.0000000000000000e+00" nType="-99"/>
              <Node pos="r" depth="4" NCoef="0" IVar="-1" Cut="0.0000000000000000e+00" cType="1" res="2.2596363830566406e+02" rms="2.5010383605957031e+01" purity="1.0000000000000000e+00" nType="-99"/>
            </Node>
          </Node>
        </Node>
        <Node pos="r" depth="1" NCoef="0" IVar="1" Cut="1.3642213344573975e+00" cType="1" res="1.8998300170898438e+02" rms="4.3796821594238281e+01" purity="1.0000000000000000e+00" nType="0">
          <Node pos="l" depth="2" NCoef="0" IVar="2" Cut="2.2356171607971191e+00" cType="1" res="1.8332148742675781e+02" rms="4.3452884674072266e+01" purity="1.0000000000000000e+00" nType="0">
            <Node pos="l" depth="3" NCoef="0" IVar="3" Cut="1.5280444622039795e+00" cType="1" res="1.6874488830566406e+02" rms="4.3607643127441406e+01" purity="1.0000000000000000e+00" nType="0">
              <Node pos="l" depth="4" NCoef="0" IVar="0" Cut="2.7828764915466309e+00" cType="1" res="1.4659217834472656e+02" rms="3.7074195861816406e+01" purity="1.0000000000000000e+00" nType="0">
                <Node pos="l" depth="5" NCoef="0" IVar="0" Cut="4.6737316250801086e-01" cType="1" res="1.3654417419433594e+02" rms="2.8992734909057617e+01" purity="1.0000000000000000e+00" nType="0">
                  <Node pos="l" depth="6" NCoef="0" IVar="3" Cut="7.7029907703399658e-01" cType="1" res="1.1935829925537109e+02" rms="2.6106914520263672e+01" purity="1.0000000000000000e+00" nType="0">
                    <Node pos="l" depth="7" NCoef="0" IVar="-1" Cut="0.0000000000000000e+00" cType="1" res="1.0221409606933594e+02" rms="2.1316452026367188e+01" purity="1.0000000000000000e+00" nType="-99"/>
                    <Node pos="r" depth="7" NCoef="0" IVar="-1" Cut="0.0000000000000000e+00" cType="1" res="1.3296046447753906e+02" rms="2.1061765670776367e+01" purity="1.0000000000000000e+00" nType="-99"/>
                  </Node>
                  <Node pos="r" depth="6" NCoef="0" IVar="1" Cut="1.6463455557823181e-01" cType="1" res="1.4845010375976562e+02" rms="2.4583938598632812e+01" purity="1.0000000000000000e+00" nType="0">
                    <Node pos="l" depth="7" NCoef="0" IVar="-1" Cut="1.8225051164627075e+00" cType="1" res="1.3698234558105469e+02" rms="2.1419466018676758e+01" purity="1.0000000000000000e+00" nType="1"/>
                    <Node pos="r" depth="7" NCoef="0" IVar="-1" Cut="0.0000000000000000e+00" cType="1" res="1.6274960327148438e+02" rms="2.0431221008300781e+01" purity="1.0000000000000000e+00" nType="-99"/>
                  </Node>
                </Node>
                <Node pos="r" depth="5" NCoef="0" IVar="-1" Cut="0.0000000000000000e+00" cType="1" res="1.9934251403808594e+02" rms="2.9408199310302734e+01" purity="1.0000000000000000e+00" nType="-99"/>
              </Node>
              <Node pos="r" depth="4" NCoef="0" IVar="0" Cut="1.1835725307464600e+00" cType="1" res="1.9245190429687500e+02" rms="3.7128768920898438e+01" purity="1.0000000000000000e+00" nType="0">
                <Node pos="l" depth="5" NCoef="0" IVar="3" Cut="2.8819234371185303e+00" cType="1" res="1.7808914184570312e+02" rms="3.6180027008056641e+01" purity="1.0000000000000000e+00" nType="0">
                  <Node pos="l" depth="6" NCoef="0" IVar="1" Cut="-7.2756864130496979e-02" cType="1" res="1.6459626770019531e+02" rms="2.7474178314208984e+01" purity="1.0000000000000000e+00" nType="0">
                    <Node pos="l" depth="7" NCoef="0" IVar="-1" Cut="0.0000000000000000e+00" cType="1" res="1.5205882263183594e+02" rms="2.3373004913330078e+01" purity="1.0000000000000000e+00" nType="-99"/>
                    <Node pos="r" depth="7" NCoef="0" IVar="-1" Cut="0.0000000000000000e+00" cType="1" res="1.8119276428222656e+02" rms="2.3395627975463867e+01" purity="1.0000000000000000e+00" nType="-99"/>
                  </Node>
                  <Node pos="r" depth="6" NCoef="0" IVar="-1" Cut="0.0000000000000000e+00" cType="1" res="2.0860343933105469e+02" rms="3.4919845581054688e+01" purity="1.0000000000000000e+00" nType="-99"/>
                </Node>
                <Node pos="r" depth="5" NCoef="0" IVar="3" Cut="2.0952577590942383e+00" cType="1" res="2.1183523559570312e+02" rms="2.8605882644653320e+01" purity="1.0000000000000000e+00" nType="0">
                  <Node pos="l" depth="6" NCoef="0" IVar="-1" Cut="0.0000000000000000e+00" cType="1" res="1.9815325927734375e+02" rms="2.8796970367431641e+01" purity="1.0000000000000000e+00" nType="-99"/>
                  <Node pos="r" depth="6" NCoef="0" IVar="-1" Cut="-2.5587773323059082e-01" cType="1" res="2.2158642578125000e+02" rms="2.4124210357666016e+01" purity="1.0000000000000000e+00" nType="1"/>
                </Node>
              </Node>
            </Node>
            <Node pos="r" depth="3" NCoef="0" IVar="0" Cut="-3.7533840537071228e-01" cType="1" res="1.9934626770019531e+02" rms="3.7188179016113281e+01" purity="1.0000000000000000e+00" nType="0">
              <Node pos="l" depth="4" NCoef="0" IVar="3" Cut="1.3121666908264160e+00" cType="1" res="1.7434362792968750e+02" rms="4.0588748931884766e+01" purity="1.0000000000000000e+00" nType="0">
                <Node pos="l" depth="5" NCoef="0" IVar="-1" Cut="0.0000000000000000e+00" cType="1" res="1.5942187500000000e+02" rms="3.4577533721923828e+01" purity="1.0000000000000000e+00" nType="-99"/>
                <Node pos="r" depth="5" NCoef="0" IVar="-1" Cut="0.0000000000000000e+00" cType="1" res="2.0090344238281250e+02" rms="3.6741703033447266e+01" purity="1.0000000000000000e+00" nType="-99"/>
              </Node>
              <Node pos="r" depth="4" NCoef="0" IVar="3" Cut="5.6107395887374878e-01" cType="1" res="2.0723826599121094e+02" rms="3.2247051239013672e+01" purity="1.0000000000000000e+00" nType="0">
                <Node pos="l" depth="5" NCoef="0" IVar="2" Cut="3.1724166870117188e+00" cType="1" res="1.8898986816406250e+02" rms="3.4235942840576172e+01" purity="1.0000000000000000e+00" nType="0">
                  <Node pos="l" depth="6" NCoef="0" IVar="-1" Cut="2.6370511054992676e+00" cType="1" res="1.7372769165039062e+02" rms="2.7958013534545898e+01" purity="1.0000000000000000e+00" nType="1"/>
                  <Node pos="r" depth="6" NCoef="0" IVar="-1" Cut="0.0000000000000000e+00" cType="1" res="2.1743202209472656e+02" rms="2.5625864028930664e+01" purity="1.0000000000000000e+00" nType="-99"/>
                </Node>
                <Node pos="r" depth="5" NCoef="0" IVar="2" Cut="3.1100544929504395e+00" cType="1" res="2.1412873840332031e+02" rms="2.8578407287597656e+01" purity="1.0000000000000000e+00" nType="0">
                  <Node pos="l" depth="6" NCoef="0" IVar="0" Cut="2.2358827590942383e+00" cType="1" res="2.0909913635253906e+02" rms="2.8854764938354492e+01" purity="1.0000000000000000e+00" nType="0">
                    <Node pos="l" depth="7" NCoef="0" IVar="3" Cut="1.6460050344467163e+00" cType="1" res="2.0180372619628906e+02" rms="2.8541543960571289e+01" purity="1.0000000000000000e+00" nType="0">
                      <Node pos="l" depth="8" NCoef="0" IVar="-1" Cut="1.4141225814819336e-01" cType="1" res="1.8699783325195312e+02" rms="2.2498958587646484e+01" purity="1.0000000000000000e+00" nType="1"/>
                      <Node pos="r" depth="8" NCoef="0" IVar="-1" Cut="2.3072555065155029e+00" cType="1" res="2.2080938720703125e+02" rms="2.3830858230590820e+01" purity="1.0000000000000000e+00" nType="1"/>
                    </Node>
                    <Node pos="r" depth="7" NCoef="0" IVar="-1" Cut="0.0000000000000000e+00" cType="1" res="2.2943864440917969e+02" rms="1.7906364440917969e+01" purity="1.0000000000000000e+00" nType="-99"/>
                  </Node>
                  <Node pos="r" depth="6" NCoef="0" IVar="-1" Cut="0.0000000000000000e+00" cType="1" res="2.3352592468261719e+02" rms="1.6783992767333984e+01" purity="1.0000000000000000e+00" nType="-99"/>
                </Node>
              </Node>
            </Node>
          </Node>
          <Node pos="r" depth="2" NCoef="0" IVar="1" Cut="2.0751698017120361e+00" cType="1" res="2.2276560974121094e+02" rms="2.7798505783081055e+01" purity="1.0000000000000000e+00" nType="0">
            <Node pos="l" depth="3" NCoef="0" IVar="2" Cut="2.1496539115905762e+00" cType="1" res="2.1232075500488281e+02" rms="3.2415267944335938e+01" purity="1.0000000000000000e+00" nType="0">
              <Node pos="l" depth="4" NCoef="0" IVar="-1" Cut="0.0000000000000000e+00" cType="1" res="2.0202616882324219e+02" rms="3.4376304626464844e+01" purity="1.0000000000000000e+00" nType="-99"/>
              <Node pos="r" depth="4" NCoef="0" IVar="-1" Cut="0.0000000000000000e+00" cType="1" res="2.2670991516113281e+02" rms="2.2638338088989258e+01" purity="1.0000000000000000e+00" nType="-99"/>
            </Node>
            <Node pos="r" depth="3" NCoef="0" IVar="-1" Cut="0.0000000000000000e+00" cType="1" res="2.3010090637207031e+02" rms="2.1144823074340820e+01" purity="1.0000000000000000e+00" nType="-99"/>
          </Node>
        </Node>
      </Node>
    </BinaryTree>
    <BinaryTree type="DecisionTree" boostWeight="2.7653328926565535e+00" itree="4">
      <Node pos="s" depth="0" NCoef="0" IVar="2" Cut="5.5990695953369141e-01" cType="1" res="1.5986050415039062e+02" rms="6.1409351348876953e+01" purity="1.0000000000000000e+00" nType="0">
        <Node pos="l" depth="1" NCoef="0" IVar="3" Cut="9.3671441078186035e-01" cType="1" res="1.1478549957275391e+02" rms="6.1171005249023438e+01" purity="1.0000000000000000e+00" nType="0">
          <Node pos="l" depth="2" NCoef="0" IVar="1" Cut="5.6238412857055664e-01" cType="1" res="6.2033542633056641e+01" rms="4.2475410461425781e+01" purity="1.0000000000000000e+00" nType="0">
            <Node pos="l" depth="3" NCoef="0" IVar="-1" Cut="1.0549607872962952e-01" cType="1" res="3.9642223358154297e+01" rms="1.7688278198242188e+01" purity="1.0000000000000000e+00" nType="1"/>
            <Node pos="r" depth="3" NCoef="0" IVar="-1" Cut="0.0000000000000000e+00" cType="1" res="8.9451980590820312e+01" rms="4.7587299346923828e+01" purity="1.0000000000000000e+00" nType="-99"/>
          </Node>
          <Node pos="r" depth="2" NCoef="0" IVar="1" Cut="1.4768846035003662e+00" cType="1" res="1.3308537292480469e+02" rms="5.5801963806152344e+01" purity="1.0000000000000000e+00" nType="0">
            <Node pos="l" depth="3" NCoef="0" IVar="3" Cut="3.1241586208343506e+00" cType="1" res="1.1660543823242188e+02" rms="5.1330062866210938e+01" purity="1.0000000000000000e+00" nType="0">
              <Node pos="l" depth="4" NCoef="0" IVar="3" Cut="2.0823493003845215e+00" cType="1" res="9.3489784240722656e+01" rms="3.3997108459472656e+01" purity="1.0000000000000000e+00" nType="0">
                <Node pos="l" depth="5" NCoef="0" IVar="1" Cut="-2.3887257277965546e-01" cType="1" res="8.0818489074707031e+01" rms="2.6349731445312500e+01" purity="1.0000000000000000e+00" nType="0">
                  <Node pos="l" depth="6" NCoef="0" IVar="-1" Cut="1.1514374017715454e+00" cType="1" res="6.6108680725097656e+01" rms="2.3459249496459961e+01" purity="1.0000000000000000e+00" nType="1"/>
                  <Node pos="r" depth="6" NCoef="0" IVar="-1" Cut="1.9431707262992859e-01" cType="1" res="9.2405540466308594e+01" rms="2.2427953720092773e+01" purity="1.0000000000000000e+00" nType="1"/>
                </Node>
                <Node pos="r" depth="5" NCoef="0" IVar="-1" Cut="0.0000000000000000e+00" cType="1" res="1.1691074371337891e+02" rms="3.4109992980957031e+01" purity="1.0000000000000000e+00" nType="-99"/>
              </Node>
              <Node pos="r" depth="4" NCoef="0" IVar="-1" Cut="0.0000000000000000e+00" cType="1" res="1.5910632324218750e+02" rms="5.0648597717285156e+01" purity="1.0000000000000000e+00" nType="-99"/>
            </Node>
            <Node pos="r" depth="3" NCoef="0" IVar="-1" Cut="0.0000000000000000e+00" cType="1" res="1.6680950927734375e+02" rms="4.9001575469970703e+01" purity="1.0000000000000000e+00" nType="-99"/>
          </Node>
        </Node>
        <Node pos="r" depth="1" NCoef="0" IVar="0" Cut="2.1294810771942139e+00" cType="1" res="1.7585346984863281e+02" rms="5.2960517883300781e+01" purity="1.0000000000000000e+00" nType="0">
          <Node pos="l" depth="2" NCoef="0" IVar="2" Cut="1.7568721771240234e+00" cType="1" res="1.6589134216308594e+02" rms="5.2638835906982422e+01" purity="1.0000000000000000e+00" nType="0">
            <Node pos="l" depth="3" NCoef="0" IVar="3" Cut="2.1020731925964355e+00" cType="1" res="1.4798541259765625e+02" rms="5.2493190765380859e+01" purity="1.0000000000000000e+00" nType="0">
              <Node pos="l" depth="4" NCoef="0" IVar="1" Cut="1.5021938085556030e+00" cType="1" res="1.2808941650390625e+02" rms="4.6469532012939453e+01" purity="1.0000000000000000e+00" nType="0">
                <Node pos="l" depth="5" NCoef="0" IVar="3" Cut="1.0582414865493774e+00" cType="1" res="1.1023523712158203e+02" rms="3.2882015228271484e+01" purity="1.0000000000000000e+00" nType="0">
                  <Node pos="l" depth="6" NCoef="0" IVar="1" Cut="4.1218885779380798e-01" cType="1" res="9.3232734680175781e+01" rms="2.8226865768432617e+01" purity="1.0000000000000000e+00" nType="0">
                    <Node pos="l" depth="7" NCoef="0" IVar="2" Cut="1.1297053098678589e+00" cType="1" res="8.3182090759277344e+01" rms="2.2898908615112305e+01" purity="1.0000000000000000e+00" nType="0">
                      <Node pos="l" depth="8" NCoef="0" IVar="-1" Cut="6.2512332201004028e-01" cType="1" res="7.0375900268554688e+01" rms="1.7761716842651367e+01" purity="1.0000000000000000e+00" nType="1"/>
                      <Node pos="r" depth="8" NCoef="0" IVar="-1" Cut="3.2132083177566528e-01" cType="1" res="9.5883354187011719e+01" rms="2.0187940597534180e+01" purity="1.0000000000000000e+00" nType="1"/>
                    </Node>
                    <Node pos="r" depth="7" NCoef="0" IVar="-1" Cut="0.0000000000000000e+00" cType="1" res="1.1617555236816406e+02" rms="2.5721517562866211e+01" purity="1.0000000000000000e+00" nType="-99"/>
                  </Node>
                  <Node pos="r" depth="6" NCoef="0" IVar="2" Cut="1.1298629045486450e+00" cType="1" res="1.2534162902832031e+02" rms="2.9136302947998047e+01" purity="1.0000000000000000e+00" nType="0">
                    <Node pos="l" depth="7" NCoef="0" IVar="1" Cut="1.9179463386535645e-02" cType="1" res="1.0913465881347656e+02" rms="2.4041593551635742e+01" purity="1.0000000000000000e+00" nType="0">
                      <Node pos="l" depth="8" NCoef="0" IVar="-1" Cut="-6.4006328582763672e-01" cType="1" res="9.7039634704589844e+01" rms="1.9350366592407227e+01" purity="1.0000000000000000e+00" nType="1"/>
                      <Node pos="r" depth="8" NCoef="0" IVar="-1" Cut="0.0000000000000000e+00" cType="1" res="1.2542540740966797e+02" rms="1.9742065429687500e+01" purity="1.0000000000000000e+00" nType="-99"/>
                    </Node>
                    <Node pos="r" depth="7" NCoef="0" IVar="1" Cut="-5.3104978054761887e-02" cType="1" res="1.4019259643554688e+02" rms="2.5217889785766602e+01" purity="1.0000000000000000e+00" nType="0">
                      <Node pos="l" depth="8" NCoef="0" IVar="-1" Cut="0.0000000000000000e+00" cType="1" res="1.2609135437011719e+02" rms="2.1750411987304688e+01" purity="1.0000000000000000e+00" nType="-99"/>
                      <Node pos="r" depth="8" NCoef="0" IVar="-1" Cut="1.4582384824752808e+00" cType="1" res="1.5364004516601562e+02" rms="2.0513242721557617e+01" purity="1.0000000000000000e+00" nType="1"/>
                    </Node>
                  </Node>
                </Node>
                <Node pos="r" depth="5" NCoef="0" IVar="3" Cut="1.1594069004058838e+00" cType="1" res="1.7101220703125000e+02" rms="4.6289859771728516e+01" purity="1.0000000000000000e+00" nType="0">
                  <Node pos="l" depth="6" NCoef="0" IVar="-1" Cut="0.0000000000000000e+00" cType="1" res="1.4974017333984375e+02" rms="4.0636474609375000e+01" purity="1.0000000000000000e+00" nType="-99"/>
                  <Node pos="r" depth="6" NCoef="0" IVar="-1" Cut="0.0000000000000000e+00" cType="1" res="2.0025100708007812e+02" rms="3.6624473571777344e+01" purity="1.0000000000000000e+00" nType="-99"/>
                </Node>
              </Node>
              <Node pos="r" depth="4" NCoef="0" IVar="1" Cut="-6.7101633548736572e-01" cType="1" res="1.8375506591796875e+02" rms="4.2849887847900391e+01" purity="1.0000000000000000e+00" nType="0">
                <Node pos="l" depth="5" NCoef="0" IVar="3" Cut="2.9102456569671631e+00" cType="1" res="1.5673960876464844e+02" rms="3.8653858184814453e+01" purity="1.0000000000000000e+00" nType="0">
                  <Node pos="l" depth="6" NCoef="0" IVar="-1" Cut="0.0000000000000000e+00" cType="1" res="1.3156681823730469e+02" rms="2.8061063766479492e+01" purity="1.0000000000000000e+00" nType="-99"/>
                  <Node pos="r" depth="6" NCoef="0" IVar="-1" Cut="0.0000000000000000e+00" cType="1" res="1.6754106140136719e+02" rms="3.7533782958984375e+01" purity="1.0000000000000000e+00" nType="-99"/>
                </Node>
                <Node pos="r" depth="5" NCoef="0" IVar="3" Cut="3.1905562877655029e+00" cType="1" res="2.0000711059570312e+02" rms="3.6587768554687500e+01" purity="1.0000000000000000e+00" nType="0">
                  <Node pos="l" depth="6" NCoef="0" IVar="1" Cut="1.4645708799362183e+00" cType="1" res="1.8735324096679688e+02" rms="3.5046154022216797e+01" purity="1.0000000000000000e+00" nType="0">
                    <Node pos="l" depth="7" NCoef="0" IVar="2" Cut="1.0736113786697388e+00" cType="1" res="1.7143247985839844e+02" rms="2.6201162338256836e+01" purity="1.0000000000000000e+00" nType="0">
                      <Node pos="l" depth="8" NCoef="0" IVar="-1" Cut="0.0000000000000000e+00" cType="1" res="1.5535083007812500e+02" rms="1.9450908660888672e+01" purity="1.0000000000000000e+00" nType="-99"/>
                      <Node pos="r" depth="8" NCoef="0" IVar="-1" Cut="0.0000000000000000e+00" cType="1" res="1.8362486267089844e+02" rms="2.3987670898437500e+01" purity="1.0000000000000000e+00" nType="-99"/>
                    </Node>
                    <Node pos="r" depth="7" NCoef="0" IVar="-1" Cut="0.0000000000000000e+00" cType="1" res="2.2098196411132812e+02" rms="2.6574878692626953e+01" purity="1.0000000000000000e+00" nType="-99"/>
                  </Node>
                  <Node pos="r" depth="6" NCoef="0" IVar="-1" Cut="0.0000000000000000e+00" cType="1" res="2.2449957275390625e+02" rms="2.5349716186523438e+01" purity="1.0000000000000000e+00" nType="-99"/>
                </Node>
              </Node>
            </Node>
            <Node pos="r" depth="3" NCoef="0" IVar="3" Cut="5.0314342975616455e-01" cType="1" res="1.8888383483886719e+02" rms="4.3013393402099609e+01" purity="1.0000000000000000e+00" nType="0">
              <Node pos="l" depth="4" NCoef="0" IVar="2" Cut="3.2159965038299561e+00" cType="1" res="1.6161863708496094e+02" rms="4.3130916595458984e+01" purity="1.0000000000000000e+00" nType="0">
                <Node pos="l" depth="5" NCoef="0" IVar="1" Cut="1.7240370810031891e-01" cType="1" res="1.4520025634765625e+02" rms="3.3904827117919922e+01" purity="1.0000000000000000e+00" nType="0">
                  <Node pos="l" depth="6" NCoef="0" IVar="-1" Cut="-2.0614068210124969e-01" cType="1" res="1.3260137939453125e+02" rms="2.5935586929321289e+01" purity="1.0000000000000000e+00" nType="1"/>
                  <Node pos="r" depth="6" NCoef="0" IVar="-1" Cut="0.0000000000000000e+00" cType="1" res="1.6462864685058594e+02" rms="3.5534301757812500e+01" purity="1.0000000000000000e+00" nType="-99"/>
                </Node>
                <Node pos="r" depth="5" NCoef="0" IVar="-1" Cut="0.0000000000000000e+00" cType="1" res="2.0544444274902344e+02" rms="3.3424682617187500e+01" purity="1.0000000000000000e+00" nType="-99"/>
              </Node>
              <Node pos="r" depth="4" NCoef="0" IVar="2" Cut="2.7607727050781250e+00" cType="1" res="1.9703486633300781e+02" rms="3.9477169036865234e+01" purity="1.0000000000000000e+00" nType="0">
                <Node pos="l" depth="5" NCoef="0" IVar="3" Cut="1.9190219640731812e+00" cType="1" res="1.8742726135253906e+02" rms="3.9022655487060547e+01" purity="1.0000000000000000e+00" nType="0">
                  <Node pos="l" depth="6" NCoef="0" IVar="1" Cut="1.6723709106445312e+00" cType="1" res="1.7512939453125000e+02" rms="3.6374778747558594e+01" purity="1.0000000000000000e+00" nType="0">
                    <Node pos="l" depth="7" NCoef="0" IVar="0" Cut="1.7560799419879913e-01" cType="1" res="1.6404560852050781e+02" rms="2.8856594085693359e+01" purity="1.0000000000000000e+00" nType="0">
                      <Node pos="l" depth="8" NCoef="0" IVar="-1" Cut="-4.1672814637422562e-02" cType="1" res="1.4725111389160156e+02" rms="2.4185985565185547e+01" purity="1.0000000000000000e+00" nType="1"/>
                      <Node pos="r" depth="8" NCoef="0" IVar="1" Cut="-9.6165113151073456e-02" cType="1" res="1.7637608337402344e+02" rms="2.5602132797241211e+01" purity="1.0000000000000000e+00" nType="0">
                        <Node pos="l" depth="9" NCoef="0" IVar="-1" Cut="0.0000000000000000e+00" cType="1" res="1.6338940429687500e+02" rms="2.1427694320678711e+01" purity="1.0000000000000000e+00" nType="-99"/>
                        <Node pos="r" depth="9" NCoef="0" IVar="-1" Cut="1.1774809360504150e+00" cType="1" res="1.8624943542480469e+02" rms="2.4062877655029297e+01" purity="1.0000000000000000e+00" nType="1"/>
                      </Node>
                    </Node>
                    <Node pos="r" depth="7" NCoef="0" IVar="-1" Cut="0.0000000000000000e+00" cType="1" res="2.2044656372070312e+02" rms="2.7790851593017578e+01" purity="1.0000000000000000e+00" nType="-99"/>
                  </Node>
