<?xml version="1.0"?>
<MethodSetup Method="DNN::DNN_CPU">
  <GeneralInfo>
    <Info name="TMVA Release" value="4.2.1 [262657]"/>
    <Info name="ROOT Release" value="6.16/00 [397312]"/>
    <Info name="Creator" value="hrjheng"/>
    <Info name="Date" value="Sun Jun 30 15:19:52 2019"/>
    <Info name="Host" value="Darwin hrjheng.local 17.7.0 Darwin Kernel Version 17.7.0: Wed Feb 27 00:43:23 PST 2019; root:xnu-4570.71.35~1/RELEASE_X86_64 x86_64"/>
    <Info name="Dir" value="/Users/hrjheng/Documents/Gunther-TA/TMVA"/>
    <Info name="Training events" value="110315"/>
    <Info name="TrainingTime" value="5.86638231e+01"/>
    <Info name="AnalysisType" value="Regression"/>
  </GeneralInfo>
  <Options>
    <Option name="V" modified="Yes">True</Option>
    <Option name="VerbosityLevel" modified="No">Verbose</Option>
    <Option name="VarTransform" modified="Yes">Decorrelate</Option>
    <Option name="H" modified="Yes">False</Option>
    <Option name="CreateMVAPdfs" modified="No">False</Option>
    <Option name="IgnoreNegWeightsInTraining" modified="No">False</Option>
    <Option name="Layout" modified="Yes">TANH|50,Layout=TANH|50,Layout=TANH|50,LINEAR</Option>
    <Option name="ValidationSize" modified="No">20%</Option>
    <Option name="ErrorStrategy" modified="Yes">SUMOFSQUARES</Option>
    <Option name="WeightInitialization" modified="Yes">XAVIERUNIFORM</Option>
    <Option name="Architecture" modified="Yes">CPU</Option>
    <Option name="TrainingStrategy" modified="Yes">LearningRate=1e-2,Momentum=0.5,Repetitions=1,ConvergenceSteps=20,BatchSize=50,TestRepetitions=10,WeightDecay=0.01,Regularization=NONE,DropConfig=0.2+0.2+0.2+0.,DropRepetitions=2|LearningRate=1e-3,Momentum=0.9,Repetitions=1,ConvergenceSteps=20,BatchSize=50,TestRepetitions=5,WeightDecay=0.01,Regularization=L2,DropConfig=0.1+0.1+0.1,DropRepetitions=1|LearningRate=1e-4,Momentum=0.3,Repetitions=1,ConvergenceSteps=10,BatchSize=50,TestRepetitions=5,WeightDecay=0.01,Regularization=NONE</Option>
  </Options>
  <Variables NVar="4">
    <Variable VarIndex="0" Expression="charged_hadron_pT" Label="charged_hadron_pT" Title="charged_hadron_pT" Unit="GeV" Internal="charged_hadron_pT" Type="F" Min="1.95601001e-01" Max="3.17768993e+01"/>
    <Variable VarIndex="1" Expression="neutral_hadron_pT" Label="neutral_hadron_pT" Title="neutral_hadron_pT" Unit="GeV" Internal="neutral_hadron_pT" Type="F" Min="-4.39048004e+00" Max="1.06973999e+02"/>
    <Variable VarIndex="2" Expression="charged_plus_neutral_pT" Label="charged_plus_neutral_pT" Title="charged_plus_neutral_pT" Unit="GeV" Internal="charged_plus_neutral_pT" Type="F" Min="-8.79490972e-01" Max="1.51888000e+02"/>
    <Variable VarIndex="3" Expression="em_pT" Label="em_pT" Title="em_pT" Unit="GeV" Internal="em_pT" Type="F" Min="-9.87794995e-02" Max="1.40039993e+02"/>
  </Variables>
  <Spectators NSpec="0"/>
  <Classes NClass="1">
    <Class Name="Regression" Index="0"/>
  </Classes>
  <Targets NTrgt="1">
    <Target TargetIndex="0" Expression="truth_pT" Label="truth_pT" Title="truth_pT" Unit="" Internal="truth_pT" Type="F" Min="1.50008001e+01" Max="2.50000000e+02"/>
  </Targets>
  <Transformations NTransformations="1">
    <Transform Name="Decorrelation">
      <Selection>
        <Input NInputs="4">
          <Input Type="Variable" Label="charged_hadron_pT" Expression="charged_hadron_pT"/>
          <Input Type="Variable" Label="neutral_hadron_pT" Expression="neutral_hadron_pT"/>
          <Input Type="Variable" Label="charged_plus_neutral_pT" Expression="charged_plus_neutral_pT"/>
          <Input Type="Variable" Label="em_pT" Expression="em_pT"/>
        </Input>
        <Output NOutputs="4">
          <Output Type="Variable" Label="charged_hadron_pT" Expression="charged_hadron_pT"/>
          <Output Type="Variable" Label="neutral_hadron_pT" Expression="neutral_hadron_pT"/>
          <Output Type="Variable" Label="charged_plus_neutral_pT" Expression="charged_plus_neutral_pT"/>
          <Output Type="Variable" Label="em_pT" Expression="em_pT"/>
        </Output>
      </Selection>
      <Matrix Rows="4" Columns="4">
        1.278607810214780e+00 -4.926914751408364e-05 -2.564618051199731e-01 8.290798739128870e-04 -4.926914751407496e-05 1.902529590407898e-01 -5.735914084259151e-04 -1.103378464251376e-01 -2.564618051199731e-01 -5.735914084259055e-04 8.480568986934567e-02 -3.237984961694584e-03 8.290798739128968e-04 -1.103378464251377e-01 -3.237984961694581e-03 1.140669534422648e-01 
      </Matrix>
    </Transform>
  </Transformations>
  <MVAPdfs/>
  <Weights InputWidth="4" Depth="4" LossFunction="R" OutputFunction="I">
    <Layer ActivationFunction="3">
      <Weights rows="50" cols="4">
        2.6254789903759956e-02 -8.7451972067356110e-03 -1.7340596020221710e-01 -4.3637168407440186e-01 -2.3994268849492073e-03 1.2752068229019642e-02 -3.9737317711114883e-03 -3.1625072006136179e-03 -1.8012540414929390e-02 -6.9328553974628448e-02 -6.6380284726619720e-02 -6.7617222666740417e-02 1.3777930289506912e-03 7.4718473479151726e-03 -5.1470142789185047e-03 -7.1034482680261135e-03 1.5611497219651937e-03 -1.0945774847641587e-03 3.9362325333058834e-03 3.0769025906920433e-03 6.4103710465133190e-03 -3.3761635422706604e-03 1.4916180633008480e-02 2.4228252470493317e-02 8.7437726557254791e-02 1.7467027902603149e-01 -5.8429175615310669e-01 -1.3310353457927704e-01 -2.1845336596015841e-04 2.8444634517654777e-04 5.2177971228957176e-03 1.9745593890547752e-03 4.4560115784406662e-03 -6.5089971758425236e-03 2.8849048539996147e-03 9.8254131153225899e-03 7.3304343968629837e-03 4.0571540594100952e-02 -2.4962138384580612e-02 1.0576633363962173e-01 -4.4500708580017090e-02 2.0738979801535606e-02 3.4574365708976984e-03 2.3823533207178116e-02 -1.1901491321623325e-02 3.7111479323357344e-03 -3.6685794591903687e-02 -3.9111776277422905e-03 -7.9282328486442566e-02 1.5627926215529442e-02 -2.8484966605901718e-02 -8.6037088185548782e-03 3.9308119565248489e-02 2.8532469272613525e-01 4.9386091530323029e-02 -3.6286825779825449e-03 -1.3610238209366798e-02 4.4885575771331787e-03 1.3944582315161824e-03 4.0835980325937271e-03 -1.7234933329746127e-04 -1.7723493278026581e-02 1.8088260665535927e-02 -2.2231698036193848e-02 1.0879473760724068e-02 -5.7448181323707104e-03 -1.3003226369619370e-02 -2.6534108445048332e-02 1.4469172805547714e-02 4.0888157673180103e-03 2.2351692616939545e-01 5.2047364413738251e-02 1.2885547475889325e-03 -6.8887631641700864e-04 -3.1144346576184034e-03 -5.4849460721015930e-03 6.9281309843063354e-01 9.0608401224017143e-03 1.6811855137348175e-01 7.0549398660659790e-02 9.8831225186586380e-03 4.7553540207445621e-03 2.4081417359411716e-03 5.7701542973518372e-03 -2.9257595539093018e-02 2.1330988965928555e-03 -1.3351529836654663e-02 -5.0954386591911316e-02 -4.4454112648963928e-03 2.2095498570706695e-04 -2.6544060092419386e-03 -2.4843288119882345e-03 3.8938328623771667e-02 -2.5569736957550049e-02 2.5215396657586098e-02 -5.0043236464262009e-02 -1.6657045111060143e-02 3.9880904369056225e-03 9.9585400894284248e-03 -8.8176270946860313e-03 -9.0578030794858932e-03 -3.4837205894291401e-03 -2.8943408280611038e-02 -1.7741955816745758e-02 -5.8222906664013863e-03 4.0305415168404579e-03 -3.9470265619456768e-03 -2.0514655858278275e-02 -6.2086984515190125e-02 6.2858968973159790e-02 1.0516576468944550e-01 2.8905725106596947e-02 -6.3791417051106691e-04 -1.3630953617393970e-03 -4.1133644990622997e-03 -2.9883388197049499e-04 2.7530129998922348e-02 -5.8532296679913998e-03 -1.4454488409683108e-03 3.7045944482088089e-02 -2.1658312471117824e-04 -2.2802310922998004e-05 -9.3313865363597870e-04 -1.0329791111871600e-03 -3.3226758241653442e-03 -1.9842474721372128e-03 -1.2223098427057266e-02 -5.6043220683932304e-03 -2.7059825137257576e-02 -4.6362176537513733e-02 2.0309001207351685e-02 -5.4185646586120129e-03 -4.1393816471099854e-02 -7.6192736625671387e-02 -4.7989193350076675e-02 -4.7061521559953690e-02 2.1953393518924713e-01 -2.3839630186557770e-02 -2.3225106298923492e-02 -5.2988845109939575e-01 1.2304536066949368e-02 -5.4172263480722904e-04 9.8274145275354385e-03 9.1678006574511528e-03 -6.6677964059635997e-04 -3.0726208933629096e-05 2.3473314940929413e-03 1.7809957498684525e-03 1.7494510393589735e-03 -1.7162102740257978e-03 -3.1402509659528732e-02 -1.6405606642365456e-02 -1.2058760039508343e-03 -8.3440169692039490e-04 -6.2384600751101971e-03 -4.4149425812065601e-03 1.0678862454369664e-03 1.0544464923441410e-02 -3.8490730803459883e-03 -3.2737520523369312e-03 -8.9197941124439240e-03 -2.2378925234079361e-02 -5.3739782422780991e-02 1.7476974055171013e-02 -7.2528377175331116e-02 6.7842416465282440e-03 -3.5062436014413834e-02 -7.6293954625725746e-03 1.3772055972367525e-03 -1.1814588308334351e-01 -3.2700565457344055e-01 1.9274340011179447e-03 3.7440981715917587e-02 3.0272660776972771e-02 -9.5246266573667526e-03 2.5326894596219063e-02 -4.3388339690864086e-03 -1.2352881021797657e-02 -2.4170081596821547e-03 -1.1737101711332798e-02 -2.2132614627480507e-02 1.9922990351915359e-02 -9.1053619980812073e-03 -2.5282821152359247e-03 2.0666990894824266e-03 1.5281639061868191e-02 9.9614858627319336e-03 5.4828426800668240e-03 8.6702806875109673e-03 -5.4773059673607349e-04 3.7126867100596428e-03 3.0190832912921906e-03 -4.0109404362738132e-03 -7.7488709939643741e-04 -4.5451562851667404e-02 -2.2895023226737976e-02 -7.1618305519223213e-03 -1.9827738869935274e-03 -5.9523265808820724e-03 -3.0945285689085722e-03 
      </Weights>
      <Biases rows="50" cols="1">
        -1.1977852783203125e+03 -4.1475185394287109e+01 -9.2936065673828125e+01 -5.7111129760742188e+01 7.9047195434570312e+01 1.2629404449462891e+02 -2.0005614013671875e+03 3.7669334411621094e+01 1.5115185737609863e+01 1.2732127685546875e+03 -5.3460956573486328e+01 -1.1818289184570312e+02 -4.4175872802734375e+02 4.1409051513671875e+02 4.7979156494140625e+01 -9.6549850463867188e+01 -9.8506668090820312e+01 4.7165429687500000e+02 -8.1101409912109375e+01 6.7830975341796875e+02 5.3587207794189453e+01 -1.9096040344238281e+02 -1.3607638359069824e+01 -2.0953170776367188e+01 6.7664962768554688e+01 -1.9965393066406250e+02 -5.2201152801513672e+01 6.3343219757080078e+01 -3.7700592041015625e+01 -6.4849748611450195e+00 -1.4046521186828613e+01 -1.6770204162597656e+02 7.8538414001464844e+01 -1.7184545898437500e+02 -1.2274466552734375e+03 1.0731447601318359e+02 2.6542312622070312e+01 -1.4465113830566406e+02 -3.6272998809814453e+01 -4.0074367523193359e+00 -4.1867790222167969e+01 -2.5158157348632812e+02 -9.5459448242187500e+02 1.0976081085205078e+02 -6.5590515136718750e+01 -1.0769740295410156e+02 -5.8573352813720703e+01 5.2631095886230469e+01 -1.8755781555175781e+02 -4.1461231231689453e+01 
      </Biases>
    </Layer>
    <Layer ActivationFunction="3">
      <Weights rows="50" cols="50">
        7.3300153017044067e-03 4.7251223586499691e-03 -2.6825768873095512e-03 3.8369069807231426e-03 5.7732051936909556e-04 -4.5324582606554031e-03 -1.1000590166077018e-03 -1.8606885569170117e-03 -6.1360872350633144e-03 -6.0250272508710623e-04 -6.6800634376704693e-03 3.2051033340394497e-03 4.6844487078487873e-03 -3.3432687632739544e-03 6.7631929414346814e-04 1.5858305850997567e-03 2.4034368834691122e-05 1.0991682065650821e-03 1.6898104222491384e-03 3.7096976302564144e-03 -2.7869825717061758e-03 3.2426037359982729e-03 1.6755608376115561e-03 5.7994998060166836e-03 4.3180739157833159e-04 6.6796238534152508e-03 2.7483883313834667e-03 9.4953365623950958e-04 3.2253023236989975e-03 -5.2797230891883373e-03 4.0352931246161461e-03 1.9718571566045284e-03 -2.2130124270915985e-03 7.4730971828103065e-03 2.1472028456628323e-03 -3.7598011549562216e-03 -5.0466554239392281e-03 2.9070058371871710e-03 2.3621355649083853e-03 4.6524377539753914e-03 -4.6083456254564226e-04 3.3772324677556753e-03 6.1451792716979980e-03 -1.5323181869462132e-03 3.3636817242950201e-03 4.6320254914462566e-03 1.7822247464209795e-03 -3.3500615973025560e-03 3.3661241177469492e-03 1.5401314012706280e-03 -2.0325106743257493e-04 2.2488664835691452e-03 -2.9944144189357758e-03 1.7131316708400846e-03 -2.7416311204433441e-03 -6.0869357548654079e-04 4.0967401582747698e-04 -2.4708339478820562e-03 -1.5880484133958817e-03 -4.2885029688477516e-04 -3.0935623217374086e-03 1.9072042778134346e-03 9.3353242846205831e-04 1.0763899190351367e-03 -3.6286371760070324e-03 4.6102804481051862e-04 6.6802470246329904e-04 -4.2273139115422964e-04 2.4636650923639536e-03 2.6692200917750597e-03 -5.1727792015299201e-04 6.6391349537298083e-04 9.7852514591068029e-04 2.4586347863078117e-03 7.5701688183471560e-04 4.0906990761868656e-04 3.3582369796931744e-03 -3.9664559881202877e-04 2.2570448927581310e-03 1.9209129968658090e-03 2.6256740093231201e-03 -5.4276298033073545e-04 1.3997148489579558e-03 1.4138412661850452e-03 1.5190835110843182e-03 1.1237447615712881e-03 -1.0311221703886986e-03 3.1096565071493387e-03 2.3255578707903624e-03 9.0070761507377028e-04 -1.1899381643161178e-03 -8.7992870248854160e-04 2.6259869337081909e-03 -1.6301397699862719e-03 -8.1601907731965184e-04 2.5353848468512297e-03 1.8223201914224774e-04 3.5696072154678404e-04 1.9207585137337446e-03 3.1399930594488978e-04 -2.7838148176670074e-02 7.2166235186159611e-03 -1.5275708399713039e-02 -4.4396338053047657e-03 9.0444060042500496e-03 1.3332088477909565e-02 -3.9140335284173489e-03 1.0760327801108360e-02 1.6027530655264854e-03 1.0012693703174591e-02 9.6001829952001572e-03 -4.4275852851569653e-03 -1.3566504232585430e-02 1.4249407686293125e-02 -2.4241923820227385e-03 1.0186290368437767e-02 -8.0662779510021210e-04 1.4331406913697720e-02 -6.1732204630970955e-03 5.6954653700813651e-04 1.2171424925327301e-02 5.8197653852403164e-03 -1.0994307696819305e-02 -6.6073541529476643e-03 1.1927336454391479e-02 -7.5344368815422058e-03 -1.3948868960142136e-02 -1.2380357366055250e-03 -9.2854071408510208e-03 2.3863835260272026e-02 -2.4982995819300413e-03 -1.1927390471100807e-02 -6.0759263578802347e-04 -2.4328820407390594e-02 -3.0426168814301491e-02 -7.5117098167538643e-03 1.1639679782092571e-02 1.6000868054106832e-03 -1.5019056154415011e-03 7.1563418023288250e-03 1.2847972102463245e-02 -1.5735335182398558e-03 -1.8920548260211945e-02 -1.8413057550787926e-02 -1.1850962415337563e-02 -8.2033304497599602e-03 -2.1955424454063177e-03 1.3682529330253601e-02 -6.2628760933876038e-03 -2.8993443120270967e-03 -3.7503749132156372e-02 9.1817724751308560e-04 -2.3767609149217606e-02 -1.8314059823751450e-02 2.3698540404438972e-02 7.6638250611722469e-03 -1.2279757298529148e-02 2.0726088434457779e-02 1.6407527029514313e-02 -1.8819940742105246e-03 2.7722703292965889e-02 2.7999908197671175e-03 -1.2734862975776196e-02 2.6816049590706825e-02 3.6936202086508274e-03 1.4509286731481552e-02 -1.3134418986737728e-02 1.4856277033686638e-02 -1.6364034265279770e-02 3.7211317569017410e-02 -3.5054155159741640e-03 -3.9150803349912167e-03 -2.4211842566728592e-02 6.6158748231828213e-03 4.2844042181968689e-03 -1.4270710758864880e-02 -1.9705453887581825e-02 -9.4460267573595047e-03 -2.2504733875393867e-02 -1.0184111073613167e-02 -1.6070736572146416e-02 -1.8770715221762657e-02 -4.3317805975675583e-03 -2.8763372451066971e-02 -2.1995574235916138e-02 3.8991430774331093e-03 1.8338633701205254e-02 -1.7942080274224281e-02 -2.8078326955437660e-02 -5.6759170256555080e-03 2.0958811044692993e-02 -1.8234521150588989e-02 -3.2041821628808975e-02 2.3878533102106303e-04 -2.1457575261592865e-02 -9.7434883937239647e-03 3.0655721202492714e-02 8.9060878381133080e-03 -1.4067346230149269e-02 -1.2589704245328903e-02 -2.8939367621205747e-04 -3.9067803882062435e-03 -2.8305891901254654e-03 -1.0131627641385421e-04 3.7553464062511921e-03 4.2715314775705338e-03 2.4623947683721781e-03 1.8284844700247049e-03 4.3328856118023396e-03 -1.1146509787067771e-03 9.1792456805706024e-03 -2.4260138161480427e-03 -4.5445272698998451e-03 -6.9611828075721860e-04 5.4019568488001823e-03 -7.4737011454999447e-03 -1.9439128227531910e-03 3.5556904040277004e-03 -5.7960636913776398e-03 -3.2023594249039888e-03 4.8783821985125542e-03 -3.1486367806792259e-03 -4.8831840977072716e-03 -4.5506027527153492e-03 2.4422493297606707e-03 -4.0212944149971008e-03 -3.6773574538528919e-03 -6.4685085089877248e-04 -4.1445475071668625e-03 1.6401087632402778e-03 -7.0153390988707542e-03 -3.5703091998584569e-04 8.2548585487529635e-04 -9.3906521797180176e-03 -1.0123088024556637e-02 -3.3902975264936686e-03 4.8060799017548561e-03 -4.9152615247294307e-04 -1.9921285565942526e-03 -2.1534750703722239e-03 5.2122040651738644e-03 1.8290187290403992e-04 -2.8681349940598011e-03 -9.2635251348838210e-04 -6.2518659979104996e-03 -7.0177786983549595e-03 3.6760256625711918e-03 4.0353238582611084e-03 -7.4855117418337613e-05 -2.5469919200986624e-03 -4.7634546644985676e-03 -1.0294585488736629e-02 -7.6706144027411938e-03 -7.1829543448984623e-03 1.1025584302842617e-02 7.9256678000092506e-03 -5.5542341433465481e-03 3.6671054549515247e-03 2.7445065788924694e-03 5.4215206764638424e-03 -2.8357906267046928e-03 -6.4014294184744358e-03 -6.2571684829890728e-03 3.6512692458927631e-03 4.0807207114994526e-03 -5.2382326684892178e-03 -5.1438878290355206e-03 6.9903372786939144e-03 -5.9073190204799175e-03 1.0380451567471027e-02 1.5289560891687870e-02 -2.8257132507860661e-03 -5.5592604912817478e-03 -7.3320870287716389e-03 1.2520619202405214e-03 -2.4701408110558987e-03 -8.2181813195347786e-03 6.2964237295091152e-03 -6.3510346226394176e-03 -8.0860807793214917e-04 3.4507625969126821e-04 -8.3867041394114494e-03 4.6989996917545795e-03 -1.3260026462376118e-02 -4.6902461908757687e-03 2.6964037679135799e-03 1.2711307965219021e-02 -1.0436403565108776e-02 -1.4421026222407818e-02 -8.5217067971825600e-03 -5.8839418925344944e-03 -8.6053749546408653e-03 -4.3545202352106571e-03 1.2431827373802662e-02 -1.3483716174960136e-03 -5.6879236362874508e-03 -1.1021294631063938e-02 1.0104372166097164e-02 -5.7404241524636745e-03 -8.5537228733301163e-03 -6.2553450698032975e-04 1.9923364743590355e-03 -3.7092409911565483e-04 -1.9741208234336227e-04 -2.7069514617323875e-03 -4.1172737255692482e-03 -1.4733456773683429e-03 -1.5309103764593601e-03 -2.7339527150616050e-04 -5.9657200472429395e-04 -1.3546503614634275e-03 6.5358768915757537e-04 2.5051394477486610e-03 -2.2200781677383929e-04 -1.3649137690663338e-03 -1.5326554421335459e-03 2.2037520539015532e-03 -3.2591968774795532e-03 2.0331374835222960e-03 1.9362162565812469e-03 -1.8794281641021371e-04 2.2338263224810362e-03 2.9170680791139603e-03 5.1555573008954525e-05 -5.4230558453127742e-04 2.8938968171132728e-05 -7.2279234882444143e-04 -6.7971099633723497e-04 3.0838961247354746e-03 1.0640618856996298e-03 1.0208036983385682e-03 -3.6434692447073758e-04 1.6581512754783034e-03 1.1428224388509989e-03 1.2559124734252691e-03 1.3703238219022751e-03 -2.3086697328835726e-03 3.2161427661776543e-03 9.5538998721167445e-04 2.7234465815126896e-03 -2.7994508855044842e-04 -2.5477532763034105e-03 4.1824436630122364e-04 -1.4300059410743415e-04 -1.3193073682487011e-03 1.2225077953189611e-03 2.2795086260885000e-03 7.5414776802062988e-04 2.4645170196890831e-03 5.0347408978268504e-04 -1.3832660624757409e-03 -1.3780691660940647e-03 4.7704158350825310e-03 -4.1255494579672813e-03 1.2536159483715892e-03 4.2676334269344807e-03 1.4225849881768227e-03 4.5154681429266930e-03 -8.0094533041119576e-04 -4.3477988801896572e-03 2.3393456358462572e-03 5.0027703400701284e-04 -2.1283035166561604e-03 5.5189421400427818e-03 -8.0605084076523781e-04 2.4244892410933971e-03 -5.5164826335385442e-04 -1.5607700916007161e-03 -8.7492691818624735e-04 -2.8339745476841927e-03 3.1316655222326517e-03 -3.4156534820795059e-03 -1.1088927276432514e-03 -5.6824642233550549e-03 -2.6678435970097780e-03 -6.5573710016906261e-03 -5.7276389561593533e-03 -5.9574344195425510e-03 1.8199055921286345e-03 -8.4304664051160216e-04 -4.8807244747877121e-03 -3.5490430891513824e-03 6.3821848016232252e-04 1.3668689643964171e-03 1.5866946196183562e-03 4.3638455681502819e-03 9.7455113427713513e-04 -8.8139675790444016e-04 -5.9804657939821482e-04 -5.0886040553450584e-03 -9.0170506155118346e-04 -1.6021686606109142e-03 9.6331816166639328e-04 7.4126939289271832e-03 8.3015469135716558e-04 3.3118369174189866e-05 4.3540765182115138e-04 8.2733813906088471e-04 -9.2408893397077918e-04 -4.6995017328299582e-04 1.7285346984863281e-04 1.0968612041324377e-03 -4.0962159982882440e-04 2.7963085449300706e-04 -1.7676850548014045e-03 -1.0516803740756586e-04 -4.1055461042560637e-04 -5.0196505617350340e-04 -2.3023693938739598e-04 3.1239425879903138e-04 -7.5882603414356709e-04 8.2236580783501267e-04 1.0455335723236203e-03 7.5007003033533692e-04 -6.4980110619217157e-04 -1.9312336007715203e-05 1.6625429270789027e-04 -1.0931873694062233e-03 7.9778896179050207e-04 -1.8478708807379007e-04 -4.5561898150481284e-04 2.2174428522703238e-05 -1.9097144831903279e-04 -2.1241878857836127e-04 -3.8793208659626544e-04 -8.1715459236875176e-04 1.7683734768070281e-04 4.6267962898127735e-04 1.9538733176887035e-03 -1.0153860785067081e-03 5.9005338698625565e-04 1.5914862742647529e-03 1.9337635603733361e-04 4.3668007128871977e-04 -8.6681550601497293e-04 6.3700455939397216e-04 -1.7808665288612247e-03 1.0671148775145411e-03 1.2416839599609375e-03 1.0887009557336569e-03 -3.5665513132698834e-04 -1.9273077487014234e-04 1.4045991702005267e-04 -2.8838493744842708e-04 4.7915489994920790e-04 -2.0951475016772747e-04 5.0502951489761472e-04 -3.8264002068899572e-04 6.2972068553790450e-04 3.9450262556783855e-04 1.1559497797861695e-03 1.2886397307738662e-03 1.4199373545125127e-03 2.2274591028690338e-03 -9.5747649902477860e-04 -1.1524816509336233e-03 7.7351386426016688e-04 -1.8014378147199750e-03 -1.7254723934456706e-03 -1.0476028546690941e-03 2.3844754323363304e-03 6.0422084061428905e-04 2.0329919643700123e-03 5.0320074660703540e-04 -2.9033632017672062e-03 -2.4188609677366912e-04 6.7163648782297969e-04 -1.7581961583346128e-03 3.3541006268933415e-04 -2.7408213354647160e-03 -1.6473311698064208e-03 2.6572770439088345e-03 1.5599813777953386e-03 -1.9953879527747631e-03 -5.5148970568552613e-04 1.2522783363237977e-03 4.1307439096271992e-03 -3.4473445266485214e-03 3.1301123090088367e-03 -1.9145317375659943e-02 8.1423477968201041e-04 2.4689682759344578e-03 -6.9680198794230819e-04 6.8305927561596036e-04 1.0732369264587760e-03 -1.5796967782080173e-03 -1.4061576221138239e-03 2.3004272952675819e-03 1.9566412083804607e-03 5.5468356003984809e-04 1.9082496874034405e-03 5.2377773681655526e-04 9.3788978119846433e-05 -2.7237650938332081e-03 6.5631204051896930e-04 4.2071784846484661e-03 3.8811690174043179e-03 -2.6578432880342007e-03 7.1796675911173224e-04 1.3292011572048068e-03 6.8519526394084096e-04 -1.1820881627500057e-03 -9.5241348026320338e-04 4.2385479900985956e-04 9.1023050481453538e-04 1.9078681943938136e-03 4.5062182471156120e-04 1.3891252456232905e-03 9.3350542010739446e-04 -6.2531564617529511e-04 7.1151118027046323e-04 -3.9315427420660853e-04 -1.9373758696019650e-03 -5.6615062931086868e-05 2.8843426844105124e-04 -1.2260433286428452e-03 -2.0822400692850351e-03 -3.6838761297985911e-04 -4.8055118531920016e-04 -1.1566185858100653e-03 -1.5218605403788388e-04 1.5532842371612787e-04 -1.4251084066927433e-03 8.4480200894176960e-04 -1.7158992122858763e-03 -8.2606490468606353e-04 -1.1926611477974802e-04 -1.2924592010676861e-04 -9.2019728617742658e-04 3.3056089887395501e-04 -2.0309973042458296e-03 1.3570556184276938e-03 -1.3594607589766383e-03 -2.2524150554090738e-03 -6.8570283474400640e-04 -1.1434697080403566e-03 3.3759506186470389e-04 -4.1445257375016809e-04 -1.2871897779405117e-03 -1.7121743876487017e-03 5.1895412616431713e-04 -1.7335265874862671e-04 -1.8607942911330611e-04 -3.4224029514007270e-04 1.4578255359083414e-03 -3.0447456520050764e-03 -8.5839728126302361e-04 1.7241212772205472e-03 -2.4846910964697599e-03 -1.1323685757815838e-03 -5.7040667161345482e-03 -9.0544419363141060e-03 2.2319059818983078e-02 -1.8684180453419685e-02 6.1092306859791279e-03 7.4595888145267963e-03 -2.0710797980427742e-02 8.9395726099610329e-03 4.1403356008231640e-03 -8.8417419465258718e-04 8.2113714888691902e-03 -1.0782469995319843e-02 -9.0919528156518936e-03 -2.5810960214585066e-03 -4.5956955291330814e-03 2.5926805101335049e-03 5.8330032043159008e-03 -6.6464417614042759e-03 -5.7561076246201992e-03 -6.9962176494300365e-03 4.3715308420360088e-03 -1.5643248334527016e-02 3.2495232298970222e-03 -7.0695341564714909e-03 -1.0884582996368408e-02 -8.7854675948619843e-03 -9.4772307202219963e-03 -1.6965808346867561e-02 -1.5050590969622135e-02 -7.7732433564960957e-03 -7.4248299933969975e-03 -1.1999776586890221e-02 7.6896115206182003e-03 2.7564209885895252e-03 7.0294638862833381e-04 5.4622497409582138e-03 3.7580667994916439e-03 -6.9977929815649986e-03 -1.2319849338382483e-04 -7.8820493072271347e-03 8.5949636995792389e-03 -1.4026664197444916e-02 -2.2024888312444091e-04 8.0147637054324150e-03 -9.1429511085152626e-03 -1.2518879957497120e-02 -4.2974655516445637e-03 8.5335243493318558e-03 -3.2690775115042925e-03 1.9527125405147672e-03 1.1942865094169974e-03 2.5586846750229597e-03 8.9501484762877226e-04 3.1490887049585581e-03 -3.3037886023521423e-03 -4.5471682096831501e-04 4.1997814550995827e-03 -2.3956985678523779e-03 -1.8404069123789668e-03 -2.1193244028836489e-03 -4.9687456339597702e-04 -8.3274068310856819e-04 2.8431774117052555e-03 -1.5931109664961696e-03 -3.2345499494113028e-04 -9.4420812092721462e-04 -1.1860764352604747e-03 -1.0336561826989055e-03 1.0251370258629322e-03 -1.6559441573917866e-03 -1.5432343352586031e-03 2.2179519291967154e-03 1.3906414387747645e-03 3.2266761991195381e-04 5.7166244369000196e-04 -7.3616462759673595e-04 2.2352365776896477e-03 2.8502638451755047e-03 2.7071763761341572e-03 3.8245334289968014e-03 1.1982438154518604e-03 3.4190292935818434e-03 1.0564145486569032e-04 2.5372905656695366e-03 9.9566916469484568e-04 -3.4839194267988205e-03 -8.1116374349221587e-04 2.2056221496313810e-03 7.1508233668282628e-04 1.7197054112330079e-03 -2.8137143235653639e-03 3.3630212419666350e-04 -1.8325964920222759e-03 2.3736003786325455e-03 5.0772988470271230e-04 3.8306245114654303e-03 2.3222307208925486e-03 -2.4469408672302961e-03 1.8177379388362169e-03 1.9509122939780354e-03 9.6450967248529196e-04 2.2222651168704033e-03 2.1966570056974888e-03 -7.2526576695963740e-04 1.2449501082301140e-03 1.1300147743895650e-03 1.0806301143020391e-03 -3.9871846092864871e-04 1.6795414267107844e-03 -1.5484172618016601e-03 1.4214474940672517e-03 -3.1605707481503487e-03 -8.8721793144941330e-04 5.9873552527278662e-04 1.2142640771344304e-03 -1.3979243813082576e-03 -2.6771009434014559e-03 1.1145437383675016e-05 -1.5052721137180924e-03 -6.3452043104916811e-04 3.4602964296936989e-03 -1.0609630262479186e-03 -2.2338444832712412e-03 -9.2161179054528475e-04 -9.4744452508166432e-04 -4.9275165656581521e-04 2.8129530255682766e-04 -6.7122222390025854e-04 -2.2382468450814486e-03 -4.1111494647338986e-04 -9.1378460638225079e-04 -1.1167863849550486e-03 -5.7423888938501477e-04 -8.6119672050699592e-04 -1.3750777579843998e-03 -6.0330895939841866e-04 1.4466028660535812e-03 7.4934342410415411e-04 -9.7745459061115980e-04 -5.4098822874948382e-04 1.7735355067998171e-03 -1.5307402936741710e-03 9.8915060516446829e-04 1.3023818610236049e-03 -1.9593255128711462e-03 1.7164917662739754e-03 -1.1198816355317831e-03 2.5321403518319130e-03 2.0354557782411575e-03 -1.2017478002235293e-03 -4.0699504315853119e-03 -9.5958318561315536e-03 2.9844006057828665e-03 -8.7081156671047211e-03 5.1036626100540161e-03 6.2197679653763771e-03 -1.6194429481402040e-03 6.1178198084235191e-03 6.6700312308967113e-03 4.5990059152245522e-03 2.2110969293862581e-03 -6.5068267285823822e-03 -7.3670046404004097e-03 -8.1365753430873156e-04 -3.9768372662365437e-03 4.0885959751904011e-03 4.0000965818762779e-03 7.3264236561954021e-03 -4.4737514108419418e-03 8.4773693233728409e-03 3.8232402876019478e-03 -1.6292351065203547e-03 -8.1412224099040031e-03 8.2497131079435349e-03 3.6753180902451277e-03 -5.0550666637718678e-03 -5.3834589198231697e-03 -3.3693858422338963e-03 -5.6853992864489555e-03 1.7556499224156141e-03 -4.9965218640863895e-03 -4.4809561222791672e-03 1.1986129917204380e-02 -3.3358260989189148e-03 -2.5870562531054020e-03 8.9094303548336029e-03 4.1673481464385986e-03 -2.6272055692970753e-03 -2.6030042208731174e-03 -2.6430804282426834e-03 1.1948018800467253e-03 -1.1162789538502693e-02 5.2836723625659943e-04 4.3087797239422798e-03 -4.7742105089128017e-03 -5.8739618398249149e-03 -9.7414180636405945e-03 -1.3335571857169271e-03 -1.3782598543912172e-03 -4.7331922687590122e-03 -3.5574813373386860e-03 -8.5118571296334267e-03 1.5876713441684842e-03 2.5797246489673853e-03 -2.6582840364426374e-03 -1.5501717571169138e-03 2.7801315300166607e-03 -4.5591974630951881e-03 -1.9490228733047843e-03 -2.8335493989288807e-03 -4.8913620412349701e-03 9.5595582388341427e-04 1.3755604159086943e-03 -2.0907078869640827e-03 -3.0249333940446377e-03 6.1909942887723446e-03 -2.0795552991330624e-03 -3.4430832602083683e-03 4.6172104775905609e-03 -6.0406414559110999e-04 -2.9416074976325035e-03 5.1766895921900868e-04 3.4201180096715689e-03 7.3232054710388184e-03 3.6222315393388271e-03 5.1428363658487797e-03 4.0141148492693901e-03 4.5232567936182022e-03 4.9906698986887932e-03 2.2034256253391504e-03 3.9039503317326307e-03 1.2521431781351566e-03 4.0145711973309517e-03 5.7973093353211880e-03 -2.9982181731611490e-03 -3.8658068515360355e-03 -6.3968624453991652e-04 4.4476622715592384e-03 -1.2355458457022905e-03 3.7325546145439148e-03 -1.4374840538948774e-03 2.2447828669101000e-03 6.3954093493521214e-03 -2.3877236526459455e-03 1.6008636448532343e-03 3.6995147820562124e-03 6.3756876625120640e-04 -6.1956066638231277e-03 3.2685908954590559e-03 -1.8767928122542799e-04 1.3438267633318901e-03 -1.2838275870308280e-03 6.0395570471882820e-03 -2.8241008985787630e-03 -4.3505546636879444e-04 -1.4321057824417949e-03 1.8501504091545939e-03 -4.3964306823909283e-03 3.3781991805881262e-03 1.9057920435443521e-03 -1.3784471666440368e-03 1.6888608224689960e-03 6.1554359272122383e-03 -4.8355623148381710e-03 -6.8875155411660671e-03 4.7958927461877465e-04 4.6744015999138355e-03 -2.6940871030092239e-03 4.0778825059533119e-03 -2.0444141700863838e-03 -3.4139526542276144e-03 1.2585049262270331e-03 5.1973112858831882e-03 6.1015863902866840e-03 -5.2522881887853146e-03 6.0735312290489674e-03 3.0993216205388308e-04 -3.5601896233856678e-03 8.8117169216275215e-03 6.2131513841450214e-03 4.7077136114239693e-03 -1.0346982162445784e-03 6.4755412749946117e-03 2.1839933469891548e-03 6.4829527400434017e-03 -2.0692946854978800e-03 -1.6211344627663493e-03 5.6738490238785744e-03 3.7978151813149452e-03 2.8869651723653078e-03 5.0259672570973635e-04 1.9880002364516258e-03 2.4408560420852154e-04 -7.5054902117699385e-04 -4.4040134525857866e-04 7.8996137017384171e-04 -1.5628441469743848e-03 -4.7724805772304535e-03 2.8894420247524977e-03 6.5830280072987080e-03 1.1811035219579935e-03 4.3319333344697952e-03 -3.5295076668262482e-03 7.0171861443668604e-04 -2.3437270428985357e-03 -3.3920111600309610e-03 -1.7298012971878052e-04 -3.4807834308594465e-03 -1.8750206800177693e-03 9.4408256700262427e-04 -3.5432891454547644e-03 1.3001254992559552e-03 -2.3505573335569352e-04 1.6748920315876603e-03 -1.8403124995529652e-03 -4.0513099520467222e-05 1.9249842735007405e-03 -3.4189112484455109e-03 3.5269856452941895e-03 1.3789918739348650e-03 9.3053048476576805e-04 1.6109750140458345e-03 2.8178240172564983e-03 6.1939319130033255e-04 -3.9156244019977748e-04 1.1384247336536646e-03 2.0609546918421984e-03 -9.4560248544439673e-04 2.6690522208809853e-03 3.5780837060883641e-04 3.2644805032759905e-03 1.1937755625694990e-03 -2.8670657775364816e-04 1.6800750745460391e-03 -2.7753447648137808e-03 1.5716786729171872e-03 -3.1418548896908760e-03 1.6982238739728928e-03 2.3857813794165850e-03 2.7631225530058146e-03 -2.0265143830329180e-03 1.0170524474233389e-03 2.9708740767091513e-03 9.5497776055708528e-04 1.9994296599179506e-03 2.5221025571227074e-03 4.2254774598404765e-04 -2.4718235363252461e-04 8.3068682579323649e-04 2.4408570025116205e-03 -5.8754980564117432e-03 -9.9152149632573128e-03 1.7193345120176673e-03 2.6075036730617285e-03 6.0124248266220093e-03 1.1542889289557934e-02 -4.7619114629924297e-03 6.4214435406029224e-03 2.7130888774991035e-03 -3.0330165755003691e-03 4.6693119220435619e-03 2.4556559510529041e-03 -4.7037894837558270e-03 1.4028068631887436e-02 -1.4043246628716588e-03 1.6977533698081970e-02 4.3070362880825996e-03 6.2839244492352009e-04 3.8824749644845724e-03 1.8905085744336247e-03 3.3769598230719566e-03 -2.6223586872220039e-02 -5.7193925604224205e-03 2.8836322017014027e-03 7.8342733904719353e-03 -1.3880529440939426e-03 -2.7099091093987226e-03 -5.6746089830994606e-03 2.4145795032382011e-03 -8.4100002422928810e-03 4.0809456259012222e-03 -7.6469625346362591e-03 -1.1134475469589233e-02 -8.3510503172874451e-03 2.3045295383781195e-03 1.2401337735354900e-02 -8.7398989126086235e-04 -1.4458778314292431e-02 5.7866559363901615e-03 -7.0302160456776619e-03 9.1072004288434982e-03 3.1932501588016748e-03 2.1872311830520630e-02 3.3540267031639814e-03 -4.4146585278213024e-03 -1.5145101584494114e-02 -9.9621601402759552e-03 5.6578069925308228e-03 -6.5286871977150440e-03 3.7975774612277746e-03 -9.5249498263001442e-03 -5.8555742725729942e-03 -3.1347197946161032e-03 1.8821649719029665e-03 -1.3879711041226983e-03 4.0811942890286446e-03 -8.2869315519928932e-05 3.7967846728861332e-03 2.0148830953985453e-03 1.3293341035023332e-03 5.6331520900130272e-03 -1.8960832385346293e-03 -5.9001212939620018e-03 -1.8001602729782462e-03 7.8376075252890587e-03 6.0247471556067467e-03 -6.1156027950346470e-03 3.1563113443553448e-03 -6.7261988297104836e-03 -2.6859582867473364e-03 4.7464622184634209e-03 -1.9208614248782396e-03 -4.7786468639969826e-03 -5.2897068671882153e-03 6.3084498979151249e-03 -5.2555939182639122e-03 -3.1951304990798235e-03 -4.0613423334434628e-04 -5.8982619084417820e-03 -5.9313201345503330e-03 -3.4923434723168612e-03 -1.6189410816878080e-03 -2.4559330195188522e-03 -3.3622581977397203e-03 -1.0170030407607555e-02 2.2315138485282660e-03 -2.7255506720393896e-03 -8.6772919166833162e-04 -4.9450679216533899e-04 -4.9749352037906647e-03 4.7808066010475159e-03 -4.4206427992321551e-04 -2.9370614793151617e-03 -4.9657551571726799e-03 -4.5809056609869003e-03 -4.4936798512935638e-03 -2.2620349191129208e-03 3.1695452053099871e-03 -4.1576982475817204e-03 -2.9689304064959288e-03 8.1608787877485156e-04 2.5073401047848165e-04 -1.1898913653567433e-03 4.7294076648540795e-04 -1.6021875198930502e-03 -5.4987438488751650e-04 -5.3223920986056328e-04 -2.2877149749547243e-03 -2.0817073527723551e-03 1.2475820258259773e-03 -1.5970631502568722e-03 5.8672396698966622e-04 4.9197179032489657e-04 -9.3438819749280810e-04 -7.8550983744207770e-06 7.2257179999724030e-04 -5.2236492047086358e-04 -1.3994280016049743e-03 2.4779539089649916e-03 3.0392690096050501e-03 -9.6819491591304541e-04 3.8525479612872005e-04 4.7980260569602251e-04 -1.2056315317749977e-03 -1.0037440370069817e-04 7.5892917811870575e-04 4.9308879533782601e-04 5.9339677682146430e-04 1.8206060631200671e-03 8.8836380746215582e-04 2.4172945413738489e-03 7.0139026502147317e-04 6.2019433244131505e-05 1.6646954463794827e-03 -2.1896550897508860e-03 1.5449982311110944e-04 -2.7176053263247013e-03 7.9283979721367359e-04 1.8147525843232870e-03 1.6430382383987308e-03 -7.7185884583741426e-04 -6.5101128711830825e-05 1.4183749444782734e-03 4.2304952512495220e-04 5.2398529078345746e-05 1.6464504878968000e-03 2.1240706555545330e-03 -8.5387629223987460e-04 1.5440514544025064e-03 1.3876127777621150e-03 7.9783825203776360e-03 -4.7775860875844955e-03 5.0521399825811386e-03 1.7027695430442691e-03 -6.6689075902104378e-04 -4.5186042552813888e-04 4.3438044376671314e-03 -1.0632597841322422e-03 1.5139105962589383e-03 -4.9705570563673973e-03 -5.1653437549248338e-04 -8.3024747436866164e-04 3.9981850422918797e-03 -1.4106136513873935e-03 6.1070364608895034e-05 4.3829386122524738e-03 -9.1880070976912975e-04 -5.9061506763100624e-03 1.8282835371792316e-03 -1.3441230403259397e-03 -1.9306484609842300e-03 3.2148926984518766e-03 1.1449903831817210e-04 1.4376529725268483e-03 7.1608717553317547e-04 5.9654429787769914e-04 2.1048709750175476e-03 3.2043189276009798e-04 -1.1072053166572005e-04 4.9964231438934803e-03 5.2920433518011123e-05 2.1836687810719013e-03 5.3814793936908245e-03 5.6772483512759209e-03 -3.2933866605162621e-03 3.0274833989096805e-05 -3.3873070497065783e-03 4.7526238486170769e-03 1.1555937817320228e-03 1.9169681472703815e-03 3.0408722814172506e-03 -2.3339302279055119e-03 4.6051191166043282e-03 8.1949576269835234e-04 5.4402119712904096e-04 7.5182673754170537e-04 -6.0102795250713825e-03 1.8348203739151359e-03 1.4596030814573169e-03 1.4257479924708605e-03 7.1168378926813602e-03 -3.7111183628439903e-03 -1.9767966587096453e-03 6.1339358799159527e-03 -2.6034167967736721e-04 -1.1055904906243086e-04 -3.9514750242233276e-03 -4.3795462697744370e-03 -2.5086374953389168e-03 1.4129985356703401e-03 -3.6386593710631132e-03 4.1518555954098701e-03 3.7509836256504059e-03 -4.5903213322162628e-03 1.0652727214619517e-03 4.0992540307343006e-03 -1.3664794387295842e-03 -3.2518345396965742e-03 3.5552687477320433e-03 3.7491158582270145e-03 -1.8065472831949592e-03 4.4406691449694335e-04 8.4650155622512102e-04 -1.9597327336668968e-03 1.8426931637804955e-04 1.2648775009438396e-03 1.2173855211585760e-03 1.3599903322756290e-03 5.3219227120280266e-03 -5.0812279805541039e-03 4.5827315188944340e-03 5.1185628399252892e-03 1.2186274034320377e-05 5.3382623009383678e-03 -2.9864052776247263e-03 -3.7357932887971401e-03 -5.3267455659806728e-03 3.4258458763360977e-03 4.8833717592060566e-03 2.8703231364488602e-03 -4.4925617985427380e-03 1.9659660756587982e-03 2.2994943428784609e-03 -5.7926392182707787e-03 5.7249451056122780e-03 3.1295171938836575e-03 1.3735815882682800e-03 -1.4355418970808387e-03 3.9151362143456936e-03 2.5104999076575041e-03 1.5640741912648082e-04 -1.5923249884508550e-04 -1.7363141523674130e-04 -6.2606483697891235e-04 -1.5030124923214316e-03 1.4176979893818498e-03 -5.6989770382642746e-04 -1.0959872743114829e-03 -1.1356674367561936e-03 2.9925475246272981e-04 -4.2299405322410166e-04 1.5603168867528439e-04 1.1124092852696776e-03 6.8826426286250353e-04 -1.1575863463804126e-03 -7.2559795808047056e-04 6.1357764934655279e-05 3.5134164500050247e-04 6.7123235203325748e-04 9.5776468515396118e-04 -1.0890387929975986e-03 -1.7872522585093975e-04 -2.9873425955884159e-04 -1.4031646423973143e-04 4.8707364476285875e-04 3.1556721660308540e-04 3.2282629399560392e-04 1.1600324796745554e-05 1.6609642188996077e-03 2.8772104997187853e-04 1.7305936198681593e-03 7.7133008744567633e-04 4.8649506061337888e-04 -5.1236595027148724e-04 -1.1057918891310692e-03 3.2382624340243638e-04 -1.4436691999435425e-03 9.9376810248941183e-04 9.1831490863114595e-04 6.0759426560252905e-04 -1.0757398558780551e-03 -1.1348734915372916e-05 -2.5857027503661811e-04 -1.2856256216764450e-04 8.4174948278814554e-04 6.5959022322203964e-05 5.0924078095704317e-04 -6.2543293461203575e-04 1.0837381705641747e-03 3.3023493597283959e-04 -1.0539073264226317e-03 1.8914349493570626e-04 1.3435336295515299e-03 7.0207426324486732e-04 -1.6941408393904567e-03 -1.0998806683346629e-03 2.1316789207048714e-04 -2.1257188636809587e-03 -2.4994244449771941e-04 6.4761639805510640e-04 -1.5079907607287169e-03 5.7265150826424360e-04 8.5074896924197674e-04 -4.5792828314006329e-04 -9.4659172464162111e-04 -5.1330926362425089e-04 1.5110903186723590e-03 -9.9432305432856083e-04 2.6024964172393084e-03 5.4530124180018902e-04 -1.6512653091922402e-03 1.2341614346951246e-03 1.1744938092306256e-03 9.7807974088937044e-04 -2.1737985662184656e-04 1.8214163137599826e-03 5.5143442295957357e-05 -1.0695389937609434e-03 -3.7586654798360541e-05 1.0022270726040006e-03 1.3561729574576020e-03 1.6775308176875114e-04 6.8943830910939141e-07 6.4903037855401635e-04 -3.2754185667727143e-05 -1.1259770690230653e-04 -3.9558266871608794e-04 1.6157283680513501e-03 1.4444788685068488e-03 1.3685591984540224e-03 -8.6460297461599112e-04 -7.5271446257829666e-04 8.4514974150806665e-04 -1.2530678650364280e-03 -1.2000263668596745e-03 1.0588251752778888e-03 2.1205152734182775e-04 -9.5840502763167024e-04 1.5973845729604363e-03 1.2363438727334142e-03 -3.9349305443465710e-03 3.7226642016321421e-03 -3.1920524779707193e-03 4.5875813812017441e-03 2.3423666134476662e-03 -4.4106473214924335e-03 -4.3797846883535385e-03 1.6768759815022349e-03 -2.8196736238896847e-03 5.1865740679204464e-03 5.6517110206186771e-03 3.4924608189612627e-03 -4.2650030809454620e-04 4.8972712829709053e-03 1.8769403686746955e-03 -5.7061146944761276e-03 -4.6687340363860130e-03 5.3807105869054794e-03 -6.0160774737596512e-03 3.4842477180063725e-03 3.6867009475827217e-03 5.0920802168548107e-03 -4.6265819109976292e-03 -1.8362540868110955e-04 1.3770606601610780e-03 -5.3678900003433228e-03 3.6230951081961393e-03 4.3878341093659401e-03 -5.4648648947477341e-03 -5.6556463241577148e-03 -6.4600687474012375e-03 -4.7309282235801220e-03 -3.6518294364213943e-03 -4.3767951428890228e-03 -4.9953437410295010e-03 -4.0243687108159065e-03 2.3464439436793327e-03 -1.1176492553204298e-03 -6.3090156763792038e-03 -7.2118518874049187e-03 4.4149841414764524e-04 -3.7768455222249031e-03 -1.3039647601544857e-03 3.6602905020117760e-03 -5.4728155955672264e-03 -3.0641854391433299e-04 2.7617204468697309e-03 5.2050966769456863e-03 -5.6436201557517052e-03 -3.5396632738411427e-03 2.5081029161810875e-03 5.3405393846333027e-03 -1.0565816191956401e-03 3.6580025334842503e-04 -3.2802436035126448e-03 -3.9602434262633324e-03 -4.3273600749671459e-03 -4.5112445950508118e-03 -2.0134348887950182e-03 -1.2354309437796474e-03 -3.2554510980844498e-03 7.0937573909759521e-03 4.0373615920543671e-03 -3.6424880381673574e-03 -4.2849201709032059e-03 -5.6823613122105598e-03 3.4326403401792049e-03 2.5970914866775274e-03 3.2517972867935896e-03 3.0251007992774248e-03 -3.1364217866212130e-03 5.3416229784488678e-03 1.1500718537718058e-03 -3.3667401876300573e-03 -3.3293198794126511e-03 -3.5011209547519684e-03 4.3160715140402317e-03 -2.9049557633697987e-03 3.0346647836267948e-03 4.0391799993813038e-03 4.7215917147696018e-03 -3.3445886801928282e-03 2.6979749090969563e-03 2.4937500711530447e-03 1.1723136994987726e-03 2.9871996957808733e-03 -3.3431570045650005e-03 4.6774861402809620e-03 3.6682963836938143e-03 3.6130656953901052e-03 -1.9831040408462286e-03 2.6946705766022205e-03 -3.6276862956583500e-03 -1.6164401313290000e-03 2.0870997104793787e-03 5.5000917054712772e-03 5.8890073560178280e-03 -4.7624581493437290e-03 -6.3025136478245258e-04 7.6971651287749410e-04 6.8801699671894312e-04 -1.3072929577901959e-03 -1.0877959430217743e-03 5.4747291142120957e-04 1.4300785260275006e-03 -4.8981473810272291e-06 1.9317385158501565e-04 1.1370911961421371e-03 1.0909441625699401e-03 -5.2118743769824505e-04 1.9681487174239010e-05 2.0993789075873792e-04 -8.2020962145179510e-04 -6.0183322057127953e-04 1.8165805377066135e-03 -1.4123816508799791e-03 -7.9400761751458049e-04 9.0565130813047290e-04 -4.5720933121629059e-04 -1.8929160432890058e-03 1.9299655687063932e-03 7.2775757871568203e-04 -1.0601879330351949e-03 -1.4897190267220140e-03 -1.1328562395647168e-03 -1.0239465627819300e-03 -1.2078995350748301e-03 -8.4783788770437241e-04 -3.1212235335260630e-03 -6.2799075385555625e-04 -9.2355057131499052e-04 -8.6350005585700274e-04 -2.0058348309248686e-03 -3.7664116825908422e-04 8.6715311044827104e-04 3.5820636549033225e-04 1.4696324942633510e-03 4.3321295379428193e-05 -1.6277691656796378e-06 -1.0889474069699645e-03 2.0396127365529537e-03 6.2263320432975888e-04 -1.5687460836488754e-04 3.4827837953343987e-04 -1.5876096440479159e-03 -6.7261024378240108e-04 -1.2550945393741131e-03 4.3051241664215922e-04 -1.0657187085598707e-03 -3.9500408456660807e-04 -1.1387362610548735e-03 2.6680177543312311e-03 -4.0266830474138260e-03 4.3620970100164413e-03 -4.4298591092228889e-03 -7.0477174594998360e-03 -4.2819787631742656e-04 -4.7787572257220745e-03 -6.7572221159934998e-03 2.4082346353679895e-03 -3.2481609378010035e-04 5.3234123624861240e-03 5.8299745433032513e-03 4.6269474551081657e-03 6.8611907772719860e-04 -3.3675206359475851e-03 -2.5764043675735593e-04 -1.6338195418938994e-03 2.2285431623458862e-03 1.8420758424326777e-03 -4.4767521321773529e-03 -1.6347892815247178e-03 4.3370700441300869e-03 2.9639974236488342e-03 -4.9002910964190960e-04 -9.0235401876270771e-04 6.4588887616991997e-03 -4.8320586211048067e-04 1.3781641609966755e-03 2.4260070640593767e-03 3.4680438693612814e-03 -2.2539307828992605e-03 3.0907932668924332e-03 3.3058603294193745e-03 -1.9828183576464653e-03 1.3449192047119141e-03 -1.7990582855418324e-03 3.7895170971751213e-03 5.4994006641209126e-03 3.1536114402115345e-03 -7.2938767261803150e-03 4.2199157178401947e-03 4.0478650480508804e-03 7.5319265306461602e-05 3.1577625777572393e-03 6.3168304041028023e-03 2.7773291803896427e-03 -3.1195816118270159e-03 5.2923313342034817e-04 4.8502739518880844e-03 -2.6437561027705669e-03 1.3719087000936270e-03 1.9381546881049871e-03 -7.8478138893842697e-03 1.6650863690301776e-03 3.5047668498009443e-03 2.4421382113359869e-04 3.1810095533728600e-03 5.8489842340350151e-03 -6.4108891820069402e-05 -1.0765325278043747e-03 -4.6272301115095615e-03 -9.9147402215749025e-04 2.2291948553174734e-03 1.4485992724075913e-03 5.8599831536412239e-03 1.9012644770555198e-04 -2.0802740473300219e-03 -1.7268828814849257e-03 5.7239690795540810e-04 4.2274454608559608e-03 -3.6111683584749699e-03 -2.0825520623475313e-03 1.7959018005058169e-03 1.1439016088843346e-03 -5.4672546684741974e-03 -5.4396241903305054e-03 -4.4787409715354443e-03 -1.8152791308239102e-03 3.0965576297603548e-04 -2.2670114412903786e-03 -2.9307273216545582e-03 -1.5590094262734056e-03 -1.5857640391914174e-05 4.7646975144743919e-04 2.0917821675539017e-03 2.8133520390838385e-04 -1.9076454918831587e-03 -1.1401886586099863e-03 -2.7250419370830059e-03 2.0856787450611591e-03 -9.8811229690909386e-05 1.1352399596944451e-03 2.2126974072307348e-03 -2.9258866561576724e-05 -7.3444744339212775e-04 -1.8821541452780366e-03 2.6348838582634926e-03 -1.1399039067327976e-03 4.1307773790322244e-04 1.2586663477122784e-02 6.0030189342796803e-04 3.2304434571415186e-03 -6.8651507608592510e-03 -9.9275307729840279e-03 -1.0787167586386204e-02 1.4647801406681538e-02 -1.0465011000633240e-02 2.1687045227736235e-03 -1.5927143394947052e-02 -1.0030814446508884e-02 7.3159928433597088e-03 9.6906861290335655e-03 -1.1713104322552681e-02 3.4989281557500362e-03 8.0218296498060226e-03 -7.1685742586851120e-03 -1.6992771998047829e-02 1.6894297674298286e-02 -1.0970911011099815e-02 -1.4171125367283821e-02 1.3267330825328827e-02 1.3738434761762619e-02 -6.9416295737028122e-03 1.1024973355233669e-03 1.0319374268874526e-03 -1.7149563645943999e-03 8.3583751693367958e-03 4.9694632180035114e-03 -2.1828962489962578e-03 -7.8122288687154651e-04 1.0964564047753811e-02 8.1210499629378319e-03 1.2589006684720516e-02 -1.1412489693611860e-03 -8.7540270760655403e-03 -8.2196537405252457e-03 -1.6036803135648370e-03 1.0837505571544170e-02 1.1672601103782654e-02 3.4969914704561234e-03 2.7068194467574358e-03 1.6418220475316048e-02 -8.8785924017429352e-03 1.3047649525105953e-02 -6.6278530284762383e-03 -1.5634004026651382e-02 -1.4804189093410969e-02 1.1013340204954147e-02 1.2366312555968761e-02 8.0842170864343643e-03 1.6631022095680237e-02 7.5908424332737923e-03 1.1351553723216057e-02 -1.8756270408630371e-02 -4.9125561490654945e-03 9.7361728549003601e-03 -6.5785093465819955e-04 -1.9940923899412155e-02 -1.2380531057715416e-02 -8.9942682534456253e-03 1.3392506167292595e-02 6.8380525335669518e-03 -2.8185084462165833e-02 -2.0864915102720261e-02 2.3825217038393021e-02 1.1474862694740295e-02 -3.1690050382167101e-03 3.6174820270389318e-03 -1.0651994496583939e-02 -2.0800441503524780e-02 1.5479922294616699e-02 5.3409216925501823e-03 2.4440821260213852e-02 -1.7855972051620483e-02 5.2124401554465294e-03 5.8290846645832062e-03 -3.8664669264107943e-03 1.2500515207648277e-02 -6.4892466180026531e-03 -4.8698792234063148e-03 -4.8696901649236679e-03 6.8732090294361115e-03 3.6457333713769913e-02 3.1702790409326553e-02 1.2737724930047989e-02 -1.1973001062870026e-02 1.8360368907451630e-02 3.9261574856936932e-03 1.2296096421778202e-02 3.4029118716716766e-02 2.2760543972253799e-02 3.9789706468582153e-02 -2.8639021911658347e-04 2.4897303432226181e-02 3.6917079705744982e-03 -3.8237988483160734e-03 -9.5831938087940216e-03 2.9873626772314310e-03 7.9016424715518951e-03 8.6744659347459674e-04 1.8688776763156056e-03 -6.6679029259830713e-04 5.9713661903515458e-04 -1.1562921572476625e-03 3.0209936085157096e-04 -5.2638747729361057e-04 -1.4612847007811069e-03 1.0374030534876511e-04 -1.2258203933015466e-03 -1.4967761235311627e-03 1.7331177368760109e-03 2.0419864449650049e-03 4.2483743163757026e-04 -1.2346191797405481e-03 -2.1106863860040903e-03 2.3569434415549040e-03 -1.3127361889928579e-03 9.0372085105627775e-04 3.0679008341394365e-04 -5.8130430988967419e-04 -2.1229441335890442e-04 1.2624702321772929e-05 -1.1917368974536657e-03 -2.8139707865193486e-04 -1.3668807223439217e-03 4.1322535253129900e-04 2.0665171905420721e-04 1.1638024589046836e-03 8.3367363549768925e-04 1.1029018787667155e-03 2.0107605960220098e-03 7.3600449832156301e-04 -2.8468176606111228e-04 1.0422599734738469e-03 4.9445737386122346e-04 -1.5988233499228954e-03 1.3947194674983621e-03 8.3941023331135511e-04 1.0692245559766889e-03 -1.5348281012848020e-03 -9.1990514192730188e-04 -9.9323736503720284e-04 -1.7872215248644352e-03 3.4339449484832585e-04 1.7328575486317277e-03 8.0809893552213907e-04 -1.1492636986076832e-03 1.4223256148397923e-03 2.3536570370197296e-03 -8.6724769789725542e-04 3.6347815766930580e-03 -1.8981981556862593e-03 -1.3134974324202631e-05 -1.4648997457697988e-03 2.2643789998255670e-04 -1.4809365384280682e-03 -7.0252368459478021e-04 -1.8371279584243894e-03 1.8404411384835839e-03 -5.6413159472867846e-04 1.1994645465165377e-03 1.3468323741108179e-03 2.9678537975996733e-03 -2.1699503995478153e-03 -2.7284892275929451e-03 1.1688952799886465e-03 -2.2037916351109743e-03 2.7542621828615665e-03 -2.2003254853188992e-03 -2.3414918687194586e-03 1.0313644306734204e-03 1.1020748643204570e-03 6.1723223188892007e-04 2.2282160352915525e-03 6.5729109337553382e-04 4.3285666033625603e-03 -8.5212656995281577e-04 -9.1355579206719995e-04 -3.2421459909528494e-03 2.6221943553537130e-03 2.8356132097542286e-03 1.8514158437028527e-03 -1.8666783580556512e-03 -1.8416926031932235e-03 1.3310401700437069e-03 1.3532867887988687e-03 2.8931603301316500e-03 1.0829236125573516e-03 3.0304188840091228e-03 -8.2211260451003909e-04 3.7981942296028137e-04 -8.7668269407004118e-04 -3.2471355516463518e-03 -7.9105794429779053e-04 2.8038318268954754e-03 2.5909475516527891e-03 -1.8545099301263690e-03 2.0296114962548018e-03 3.8790630642324686e-03 1.1105690151453018e-02 9.7917094826698303e-03 9.8284436389803886e-03 1.5569347888231277e-02 -6.8065449595451355e-03 -5.0531458109617233e-03 1.1250875890254974e-02 -3.6941783037036657e-03 -3.4643877297639847e-03 -1.2709837406873703e-02 6.9880168884992599e-03 1.4988912269473076e-02 1.0717068798840046e-02 -7.6379943639039993e-03 -6.7496597766876221e-03 1.0183008387684822e-02 1.0622477158904076e-02 -1.0243770666420460e-02 6.5192012116312981e-03 -1.7061792314052582e-02 -2.0460531115531921e-02 1.0312872938811779e-02 6.5379189327359200e-03 1.0491649620234966e-02 -7.6495492830872536e-03 3.9353501051664352e-03 1.2672482989728451e-02 -1.0974860051646829e-03 1.2315660715103149e-02 6.9511414039880037e-05 -6.3834581524133682e-03 1.2893299572169781e-02 -2.3472642060369253e-03 1.8433883786201477e-02 4.9339672550559044e-03 -3.2223858870565891e-03 -1.2300558388233185e-02 1.7510563135147095e-02 1.1483515612781048e-02 9.1885169968008995e-03 1.1970579624176025e-02 7.0454906672239304e-03 1.1403000913560390e-02 -1.4442606829106808e-02 8.1157479435205460e-03 9.9864704534411430e-03 7.5118131935596466e-03 -1.2499914504587650e-02 8.8780680671334267e-03 6.8523534573614597e-03 4.9892840906977654e-03 1.7944941064342856e-03 5.4451180621981621e-03 4.7681262367404997e-04 -3.3245321828871965e-03 -1.8226753454655409e-03 7.3776142671704292e-03 -1.3018900062888861e-03 -6.2602244724985212e-05 -2.2948801051825285e-03 1.0878868488362059e-04 -4.8752431757748127e-03 -3.3054884988814592e-03 -4.1636661626398563e-03 2.4539628066122532e-03 4.2785215191543102e-03 1.1693474370986223e-03 5.3731503430753946e-04 3.2798948232084513e-03 -5.8258580975234509e-03 -1.3199874665588140e-03 1.8218766199424863e-03 -4.0008631185628474e-04 1.9810332451015711e-03 -2.1872734650969505e-03 1.2551129329949617e-03 -1.1838872451335192e-03 -3.6424637073650956e-04 4.1505228728055954e-03 4.6434854157269001e-03 2.6263336185365915e-03 2.8102318174205720e-04 -3.8515101186931133e-03 4.3708933517336845e-03 6.3783214427530766e-03 3.0836631776764989e-04 1.0519783245399594e-03 5.3092855960130692e-03 2.7958299033343792e-03 7.1087828837335110e-04 -5.4078217362985015e-04 4.9724830314517021e-03 -1.7569668125361204e-03 9.0050540165975690e-04 -5.9454748407006264e-04 3.1131792347878218e-03 1.3325103791430593e-03 -1.0463142534717917e-03 5.2538905292749405e-03 2.4849732290022075e-04 -2.8544797096401453e-03 -5.1093129441142082e-03 1.0593698360025883e-02 -6.1290557496249676e-03 7.7173142926767468e-04 2.5111259892582893e-03 -2.5792205706238747e-03 3.5791664849966764e-03 5.6953141465783119e-03 -1.1273875134065747e-03 1.1184385948581621e-04 -6.9154598750174046e-03 -2.9583256691694260e-03 3.1614063773304224e-03 -6.9530062319245189e-05 7.6278611086308956e-03 5.9108505956828594e-03 -1.2158924946561456e-03 1.7058987868949771e-03 -2.3876195773482323e-03 5.1350719295442104e-03 -4.9552833661437035e-03 -7.4650258757174015e-03 -4.8014768399298191e-03 -3.2701555173844099e-03 -3.4910198301076889e-03 -4.1739693842828274e-03 -2.0819325000047684e-03 -2.3200430441647768e-03 3.6484170705080032e-03 3.8712899549864233e-04 -8.6834309622645378e-03 -2.0261323079466820e-03 3.0788432341068983e-03 -5.1785499090328813e-04 8.4790717810392380e-03 1.2612532591447234e-03 1.3296549441292882e-03 -9.1141194570809603e-04 -1.4385330723598599e-03 4.1822888888418674e-03 -1.7063176492229104e-03 3.9663137868046761e-03 6.6569913178682327e-03 -1.4193891547620296e-03 -4.0872637182474136e-03 -4.5549953938461840e-04 3.6006609443575144e-03 -5.1950174383819103e-03 -1.1062248377129436e-03 -2.9558051028288901e-04 3.2924597617238760e-03 -1.3042752398177981e-03 8.5545616457238793e-04 2.6556970551609993e-03 -8.3676067879423499e-04 3.1930059776641428e-04 1.5327484579756856e-03 1.6204699641093612e-03 4.1346242651343346e-03 2.5241789408028126e-03 -8.1008265260607004e-04 -6.2571268063038588e-04 3.1867385841906071e-03 -2.9724417254328728e-03 2.9818617622368038e-04 3.8721135351806879e-03 4.4657341204583645e-03 -3.4090017434209585e-03 -1.4039545785635710e-03 2.2117150947451591e-03 -2.9502210672944784e-03 -1.5040143625810742e-03 1.0785848135128617e-03 -1.8716570921242237e-03 -3.5621081478893757e-03 -6.1026134062558413e-04 -2.1595063153654337e-03 -3.5901850787922740e-04 -2.5126598775386810e-03 -3.0460446141660213e-03 -2.1225872915238142e-03 2.6999975088983774e-03 -3.0224681831896305e-03 3.4601746592670679e-03 2.8092865250073373e-04 2.3502775002270937e-03 -1.5703410608693957e-03 -2.6305664796382189e-03 -1.2112795375287533e-03 -1.9592428579926491e-03 -2.6126035954803228e-03 -5.6949858553707600e-03 2.3028517607599497e-03 -3.2150160986930132e-03 -5.9595581842586398e-04 1.8464645836502314e-03 -1.0005881777033210e-03 -1.6944813542068005e-03 1.5862346626818180e-03 -5.3846933878958225e-03 1.0696326382458210e-02 -1.4485302381217480e-02 -5.7404721155762672e-04 4.3081897310912609e-03 -2.2750392090529203e-03 -6.0763233341276646e-03 4.4689648784697056e-03 -9.9577149376273155e-04 -3.7449637893587351e-03 2.7688970789313316e-02 3.9015877991914749e-03 -5.1929834298789501e-03 -1.0383724234998226e-02 1.3060039840638638e-02 -2.1644129883497953e-03 -2.7820901945233345e-02 2.0461471285670996e-03 3.7083106581121683e-03 7.0453085936605930e-04 7.6577817089855671e-03 -1.0860829614102840e-02 -2.0526794251054525e-03 -2.7705915272235870e-02 1.0928801260888577e-02 -5.9591340832412243e-03 1.5323152183555067e-04 9.2116286978125572e-03 -5.7234796695411205e-03 -5.3901453502476215e-03 -1.8714604084379971e-04 -5.5444440804421902e-03 -2.0787601824849844e-03 -9.8287155851721764e-03 -1.3052894733846188e-02 1.5527966897934675e-03 4.1884561069309711e-03 -1.6879080794751644e-03 -6.0161263681948185e-03 -2.1156393922865391e-03 -1.3917931355535984e-02 3.1268417369574308e-03 -7.1879511233419180e-04 3.8404793012887239e-03 7.2548806201666594e-04 -1.3346574269235134e-03 8.8735474273562431e-03 4.7020870260894299e-03 -1.0975732468068600e-02 -9.1620469465851784e-03 -6.7708693677559495e-04 -3.1971803400665522e-04 -8.7120261741802096e-04 1.2813595822080970e-03 1.8372865160927176e-03 1.6174520133063197e-03 -6.1450892826542258e-04 2.4934634566307068e-03 2.0083726849406958e-03 -1.3830093666911125e-03 9.6578890224918723e-04 -1.9249350298196077e-03 -3.4893203992396593e-03 2.6789976982399821e-04 8.1861985381692648e-04 1.0045895760413259e-04 1.5607691602781415e-03 -1.1158238630741835e-03 -2.9795619193464518e-03 -1.4492020709440112e-03 1.5352906193584204e-03 1.5999812167137861e-03 -3.1429585069417953e-03 -1.0215564398095012e-03 -2.0595393143594265e-03 -2.8492144774645567e-03 -9.7753177396953106e-04 3.0955638067098334e-05 -1.6362972091883421e-03 -1.7210567602887750e-04 -1.6287908656522632e-03 1.4075923245400190e-03 -1.7962633864954114e-04 -8.8660034816712141e-04 -1.5652518486604095e-03 2.2177854552865028e-03 1.8851817585527897e-03 -8.9350061898585409e-05 -3.0512015800923109e-03 -1.0740886209532619e-03 1.4442177489399910e-03 -2.6269841473549604e-03 -1.7803777009248734e-03 -3.6186628858558834e-04 -9.9172268528491259e-04 -5.0746841588988900e-04 -1.1286137159913778e-03 1.5522243920713663e-03 2.0362099166959524e-04 -8.8040734408423305e-04 -5.2563850658771116e-06 1.6896692104637623e-03 3.0742236413061619e-03 -4.9262316897511482e-03 3.1347393523901701e-03 2.6151072233915329e-03 -2.3018391220830381e-04 1.9010651158168912e-04 4.3699427624233067e-04 -8.2744978135451674e-04 1.8949689110741019e-03 -5.1398441428318620e-04 -1.4778921613469720e-03 -1.4076679944992065e-03 2.5880848988890648e-03 -2.7180274482816458e-03 1.6085937386378646e-03 -1.8573271809145808e-03 -3.1374190002679825e-03 4.1648730984888971e-04 5.8360896073281765e-03 -3.5933610051870346e-03 -2.5648472364991903e-03 -3.8599264807999134e-03 -2.0313762070145458e-04 1.8037264235317707e-03 -1.1532841017469764e-03 2.7871029451489449e-03 -3.3054840750992298e-03 -1.6505258390679955e-03 -2.4650911800563335e-03 -4.7503174282610416e-03 -1.2416392564773560e-03 5.1609158981591463e-04 4.3761790730059147e-03 2.6663665194064379e-03 2.9597093816846609e-03 -3.5556920920498669e-04 -1.7237790161743760e-03 -1.4503240818157792e-03 1.0308701312169433e-03 9.5146082458086312e-05 1.8347323639318347e-03 5.0499984063208103e-03 -4.2964029125869274e-03 -3.0171111575327814e-04 -2.2669560275971889e-03 5.9184018755331635e-04 -4.2943870648741722e-03 -2.1847719326615334e-03 -4.8715457523940131e-05 1.2295803753659129e-04 -1.7809077689889818e-04 1.5669362619519234e-04 -9.8026671912521124e-04 -7.5303381890989840e-05 -4.9812789075076580e-04 -1.2121160980314016e-03 -5.2440713625401258e-04 1.6733909724280238e-03 -2.1428063337225467e-04 3.1276390654966235e-04 1.6352700768038630e-03 9.5460105512756854e-05 -1.2768072774633765e-03 7.6362019171938300e-04 -1.2581089686136693e-04 -2.9279483715072274e-04 4.9635389586910605e-04 1.1300812475383282e-03 -3.5664893221110106e-04 -1.2576823064591736e-04 3.0114053515717387e-04 1.3889349065721035e-03 6.4116768771782517e-04 1.0836222209036350e-03 9.0757959696929902e-05 -4.8950180644169450e-04 2.1454093512147665e-03 -5.7321146596223116e-04 1.5287814894691110e-03 -2.4125570780597627e-04 1.6222246631514281e-04 6.9697416620329022e-04 -1.3355861301533878e-04 6.6870322916656733e-04 -9.7845960408449173e-04 9.0236199321225286e-04 1.4414117904379964e-03 1.5077507123351097e-03 -2.8673571068793535e-04 4.5553289965027943e-05 4.3025313061662018e-04 1.1582688894122839e-03 8.0088269896805286e-04 2.1417415700852871e-04 5.2078283624723554e-04 -1.4108137693256140e-03 5.0329515943303704e-04 3.7559764223260572e-06 3.6867698654532433e-03 3.8210735656321049e-03 1.5323494153562933e-04 1.6728795599192381e-03 -5.7598028797656298e-04 -3.6221423652023077e-03 5.6003271602094173e-03 -2.8661694377660751e-03 -1.1294002179056406e-03 -4.6654455363750458e-03 -1.3303238665685058e-03 9.6176069928333163e-04 2.4326231505256146e-04 3.2880259095691144e-04 -1.1972397333011031e-03 1.5864786109887064e-04 4.0261652320623398e-03 -3.7581417709589005e-03 5.9957790654152632e-04 -1.5464066527783871e-03 1.6602482646703720e-03 1.0052168508991599e-03 6.4619249315001070e-05 -5.2164350636303425e-03 -5.6267394684255123e-03 1.0208036983385682e-03 3.4068448003381491e-03 -5.3731439402326941e-04 2.0483259577304125e-03 2.4390364997088909e-03 1.8620727350935340e-03 6.5768632339313626e-04 -4.2893486097455025e-03 5.6384615163551643e-05 -1.9013389246538281e-03 -3.8829639088362455e-03 -1.2657103361561894e-03 2.1518224384635687e-03 2.5482231285423040e-03 9.8784721922129393e-04 -4.3765418231487274e-03 -2.3821501526981592e-03 3.1854102853685617e-03 7.3312182212248445e-04 -2.0369382109493017e-03 2.5065783411264420e-03 -1.2841521529480815e-03 -7.2946982982102782e-05 2.3854319006204605e-03 2.8698467649519444e-03 7.9712417209520936e-04 -2.6108568999916315e-03 1.3209769967943430e-03 -3.5398776526562870e-04 -2.8271409682929516e-03 -5.9780146693810821e-04 -1.1769266566261649e-03 -3.7955413572490215e-03 2.2050134430173784e-04 -2.4251169525086880e-03 -3.2674600370228291e-03 -1.1284907814115286e-03 2.1021994762122631e-03 -2.2709190379828215e-03 2.8562344959937036e-04 1.5549586387351155e-03 1.7231738893315196e-03 1.0444440413266420e-03 1.4567674370482564e-03 -6.0098303947597742e-04 -2.1435627422761172e-04 -3.9803472463972867e-04 2.8351112268865108e-03 6.4009934430941939e-04 -8.9688703883439302e-04 6.9732445990666747e-04 7.4511661659926176e-04 2.5139562785625458e-03 2.8215167112648487e-03 1.9210840109735727e-03 2.7154246345162392e-03 -1.4926892472431064e-03 2.1437834948301315e-03 2.7208244428038597e-03 1.1609139619395137e-03 9.1505347518250346e-04 -6.1275227926671505e-04 2.0700856111943722e-03 3.4484148491173983e-03 3.3738072961568832e-03 -3.9698902401141822e-04 -7.1054586442187428e-04 4.7308590728789568e-04 -2.4034569505602121e-03 1.3170728925615549e-03 -1.7367895634379238e-04 8.9746594312600791e-05 -3.7600826472043991e-03 8.2176114665344357e-04 4.5763523667119443e-04 1.4215570874512196e-02 -1.6932185739278793e-02 1.7801662907004356e-02 2.6609087362885475e-03 2.4656627792865038e-03 -2.6226812042295933e-03 3.2248175702989101e-03 4.3523652129806578e-04 -3.9788144640624523e-03 -4.4777910225093365e-03 -1.4857870526611805e-02 -1.0585513897240162e-02 1.0184228420257568e-02 -1.5191580168902874e-02 -1.3295027427375317e-02 2.8002865146845579e-03 1.1930488981306553e-02 -1.0166543535888195e-02 1.3171027414500713e-02 -1.0826529935002327e-02 -9.7193224355578423e-03 -1.7107283696532249e-02 7.7092130668461323e-03 8.0326823517680168e-03 -5.3606643341481686e-03 1.3069516979157925e-02 -8.3263602573424578e-04 -5.9588747099041939e-03 6.5540289506316185e-03 -1.0314259678125381e-02 9.4776153564453125e-03 -9.4998590648174286e-03 1.9781641662120819e-02 1.1240957304835320e-02 1.0860681533813477e-02 -5.2205589599907398e-03 -1.0692432988435030e-03 5.7654874399304390e-03 1.2596419081091881e-02 5.6981015950441360e-03 -1.0142035782337189e-02 -5.5475900880992413e-03 2.5543471798300743e-02 5.1784571260213852e-03 3.7242474500089884e-03 7.4229249730706215e-03 7.5657758861780167e-04 -1.6573289409279823e-02 -8.1898178905248642e-03 1.0358518920838833e-02 -2.3107146844267845e-03 3.7260988028720021e-04 4.7362302429974079e-03 1.8332867184653878e-03 -2.6142820715904236e-03 -3.3951252698898315e-03 2.3658126592636108e-03 -9.4451179029420018e-04 -2.1515805274248123e-03 5.3487764671444893e-03 -5.4667578078806400e-03 2.1663319785147905e-03 9.5256284112110734e-04 3.4095302689820528e-03 -2.5607135612517595e-03 -5.9675876982510090e-03 5.0989552401006222e-03 -1.0938252322375774e-02 5.0203460268676281e-03 3.4179848153144121e-03 -2.1730514708906412e-03 -2.3370278067886829e-03 5.3226430900394917e-03 5.3068813867866993e-03 -2.7418741956353188e-03 8.8398228399455547e-04 3.4107342362403870e-03 -2.9616497922688723e-03 2.5783199816942215e-03 4.7683855518698692e-04 2.7545073535293341e-03 -1.7898066435009241e-03 3.1788104679435492e-03 6.6339005716145039e-03 2.9990605544298887e-03 2.8667168226093054e-03 -3.8325516507029533e-03 6.9292713887989521e-03 1.6486739332322031e-04 -1.9966780673712492e-03 -4.7974837943911552e-03 -1.7879075603559613e-03 4.0440550073981285e-03 4.9865129403769970e-03 6.6811400465667248e-03 2.7700567152351141e-03 1.5968700172379613e-03 -4.2904592119157314e-03 -1.1642518220469356e-03 2.2565196268260479e-03 -3.5663128364831209e-03 3.8673458620905876e-03 4.3384917080402374e-03 7.6490049250423908e-03 -1.4392200391739607e-03 -7.5956890359520912e-03 -8.6698203813284636e-04 -9.7410369198769331e-04 -7.0710168220102787e-03 1.5388337196782231e-03 -1.5933285467326641e-03 1.5405390877276659e-03 1.5122051117941737e-03 -3.8698259741067886e-03 -2.6908142026513815e-03 -3.7375870160758495e-03 5.1303436048328876e-03 -2.5536599569022655e-03 3.0540858861058950e-03 2.7352517936378717e-03 -7.0260302163660526e-04 -6.4674910390749574e-05 2.0186326582916081e-04 2.3522591218352318e-03 -3.9280857890844345e-03 2.6442459784448147e-03 5.7408348657190800e-03 -2.5660756509751081e-03 -1.3997169444337487e-03 -8.3461366593837738e-03 1.9572360906749964e-03 -7.0459405833389610e-05 1.6469369875267148e-03 -2.4075449910014868e-03 4.1486648842692375e-03 -3.3483833540230989e-03 -3.7385588511824608e-03 -2.5357960257679224e-03 4.4693341478705406e-03 2.4029540363699198e-03 -6.8011827534064651e-04 -2.0160300191491842e-03 -1.1633425019681454e-03 -2.3758216411806643e-04 -3.5026716068387032e-04 3.4033728297799826e-03 1.1744580697268248e-03 -1.7904292326420546e-03 1.4998851111158729e-03 1.2720624217763543e-03 -6.9150220951996744e-05 -7.4597401544451714e-04 -3.1043376657180488e-04 -8.3228410221636295e-04 1.6298500122502446e-03 6.8603502586483955e-04 2.8112201835028827e-04 1.0228031314909458e-03 2.4587364168837667e-04 -3.5810231929644942e-04 4.4411045382730663e-04 6.1096792342141271e-04 -6.9459661608561873e-04 -2.0586444588843733e-04 -4.4134321797173470e-05 1.0490651475265622e-03 -3.6838371306657791e-04 1.4404072426259518e-03 -1.5992502449080348e-03 -9.9217367824167013e-04 8.4031600272282958e-04 8.4434583550319076e-04 -6.1056320555508137e-04 -8.7601068662479520e-04 -8.1418559420853853e-04 8.3656760398298502e-04 -5.9558579232543707e-04 6.8336242111399770e-04 -5.9619755484163761e-04 -8.8926833996083587e-05 -1.4441543025895953e-03 -4.6876812120899558e-04 -6.3662984757684171e-05 -7.0972353569231927e-05 1.8698953499551862e-04 1.0571976890787482e-03 5.7665328495204449e-04 -8.8032509665936232e-04 -7.0151832187548280e-04 -9.0426567476242781e-04 5.8874359820038080e-04 -1.2818947652704082e-05 -7.0338464865926653e-05 1.9629648886620998e-03 -1.3229098112788051e-04 -8.6082768393680453e-04 -8.6023146286606789e-04 7.5656059198081493e-04 -1.1837779311463237e-03 -2.4977076100185513e-04 3.7308435421437025e-03 -3.4715500660240650e-03 4.9735065549612045e-03 -1.1637788265943527e-03 1.9957444164901972e-03 2.7757214847952127e-03 -1.5403740108013153e-03 4.3853023089468479e-03 3.5398006439208984e-03 -3.0077737756073475e-03 1.2207332765683532e-03 -1.2087626382708549e-03 -4.6599409542977810e-03 -2.2172917670104653e-04 -6.5717648249119520e-04 1.7990380292758346e-03 1.3339804718270898e-03 4.8196781426668167e-03 -1.4670034870505333e-03 -2.4265714455395937e-03 -8.0350576899945736e-04 -5.0234775990247726e-03 -5.2295960485935211e-03 -2.2249605972319841e-03 2.8739515691995621e-03 -5.8289463631808758e-03 -4.1417605243623257e-03 -1.0013142309617251e-04 -2.1063534077256918e-03 -6.5044552320614457e-04 -3.6856476217508316e-03 -5.4586478509008884e-03 1.1482574336696416e-05 -2.8567621484398842e-03 -1.2143315980210900e-03 2.3498260416090488e-03 2.7737314812839031e-03 -3.6072938237339258e-03 -3.2232014928013086e-03 -3.0507608316838741e-03 1.9858143059536815e-04 1.5141996555030346e-03 3.0473605729639530e-03 4.1530905291438103e-03 -2.4489627685397863e-03 -4.2652408592402935e-03 -3.5657819826155901e-03 1.3788283104076982e-03 -1.6433679265901446e-03 -5.2921548485755920e-03 -9.8291155882179737e-04 6.1306804418563843e-03 -2.5975068565458059e-03 5.3335707634687424e-03 -3.5209204070270061e-03 -3.2252785749733448e-03 -5.8946986682713032e-03 -4.5189550146460533e-03 -4.8369294963777065e-03 5.5530420504510403e-03 -3.0262283980846405e-03 -2.9207142069935799e-03 3.4923355560749769e-03 -4.0407134220004082e-03 -5.9017017483711243e-03 -8.7596513330936432e-03 4.8761107027530670e-03 -3.1797194969840348e-04 -2.3776479065418243e-03 -3.9366027340292931e-04 -4.3451054953038692e-03 -4.3389229103922844e-03 3.7982736248522997e-03 3.9460575208067894e-03 -4.3899554293602705e-04 1.0413723066449165e-03 6.1262487433850765e-03 4.1473179589956999e-04 3.1004268676042557e-03 7.3193553835153580e-03 4.0654963231645525e-04 2.9332225676625967e-03 3.2560855615884066e-03 -2.3554427025374025e-04 5.3119915537536144e-03 -4.7317948192358017e-03 -3.1921495683491230e-03 8.7459199130535126e-04 4.7317082062363625e-03 3.8119980599731207e-03 -5.6019886396825314e-03 -3.9271353743970394e-03 2.4319414515048265e-03 -6.3216714188456535e-03 -2.4653100408613682e-03 5.8916066773235798e-03 -1.1062660487368703e-03 -3.1059330794960260e-03 4.0962249040603638e-03 5.0539569929242134e-03 
      </Weights>
      <Biases rows="50" cols="1">
        -2.9149730682373047e+01 -2.7485019683837891e+01 5.7781669616699219e+01 9.9323806762695312e+01 4.2351905822753906e+01 1.1086039543151855e+00 -1.5487045288085938e+01 1.5118027687072754e+01 -2.6957552433013916e+00 -2.7584202289581299e+00 1.3356828689575195e+01 3.8659194946289062e+01 -3.3729631900787354e+00 6.7416677474975586e+00 2.3048093795776367e+01 -1.7329080581665039e+01 -3.4383995056152344e+01 -1.5578360557556152e+01 2.5348161697387695e+01 2.8582977294921875e+01 -1.3770147323608398e+01 -9.4153747558593750e+00 -2.1274768829345703e+01 -4.2628650665283203e+00 -1.4901558876037598e+01 3.6741455078125000e+01 -2.0052274703979492e+01 2.0118627548217773e+01 -1.6881988525390625e+01 3.7439029216766357e+00 -7.0739707946777344e+01 -7.4468702077865601e-01 -1.2720326423645020e+01 -9.2628412246704102e+00 -4.5721009373664856e-01 -4.9137239456176758e+00 5.3341469764709473e+00 9.0775194168090820e+00 1.9930546283721924e+00 1.8572177886962891e+01 9.8665237426757812e+00 -1.0103958129882812e+01 -1.1328229904174805e+01 -2.5461812973022461e+01 -6.3110839843750000e+01 -3.6550025939941406e+01 -1.4232084274291992e+01 9.5587997436523438e+00 2.0295011520385742e+01 -1.3796229362487793e+01 
      </Biases>
    </Layer>
    <Layer ActivationFunction="3">
      <Weights rows="50" cols="50">
        -3.3225528895854950e-02 -4.0010668337345123e-02 2.9763689264655113e-02 1.8388098105788231e-02 2.1014308556914330e-02 5.4050102829933167e-02 -3.0291443690657616e-02 2.7015073224902153e-02 -3.1672015786170959e-02 -6.8039074540138245e-02 3.2898195087909698e-02 8.0156937241554260e-02 -3.5911250859498978e-02 4.7005422413349152e-02 4.3007291853427887e-02 -5.4308950901031494e-02 -4.2672030627727509e-02 -2.7396345511078835e-02 6.4983516931533813e-02 5.2815072238445282e-02 -8.6099440231919289e-03 -2.5432555004954338e-02 -6.7363515496253967e-02 -9.1806352138519287e-02 -2.2950062528252602e-02 6.6974982619285583e-02 -5.0050012767314911e-02 2.3775180801749229e-02 -5.3946323692798615e-02 3.0130896717309952e-02 -3.8290694355964661e-02 -4.4362414628267288e-02 -1.1020791530609131e-01 -2.6846157386898994e-02 -2.4021716788411140e-02 -6.0911670327186584e-02 6.6288493573665619e-02 5.8941759169101715e-02 5.1673777401447296e-02 2.2668844088912010e-02 4.5934684574604034e-02 -1.3540848158299923e-02 -3.4267045557498932e-02 -5.4324023425579071e-02 -7.0745766162872314e-02 -4.3357379734516144e-02 -7.9385474324226379e-02 1.0808576829731464e-02 3.1687572598457336e-02 -6.5915085375308990e-02 -2.4464586749672890e-02 -2.2084420546889305e-02 2.8490981087088585e-02 4.9433112144470215e-02 3.7741765379905701e-02 1.3962821103632450e-02 -2.6939583942294121e-02 4.1784889996051788e-02 -3.5901252180337906e-02 -2.1723875775933266e-02 2.2149620577692986e-02 1.4919099397957325e-02 -4.2590688914060593e-02 3.1957965344190598e-02 1.8915301188826561e-02 -1.8774943426251411e-02 -2.8765255585312843e-02 -3.5380989313125610e-02 2.1112980321049690e-02 2.0367836579680443e-02 -5.0923988223075867e-02 -3.2196834683418274e-02 -2.2503623738884926e-02 -6.9863717071712017e-03 -4.8242367804050446e-02 1.0617260821163654e-02 -2.0392665639519691e-02 3.9455339312553406e-02 -1.7667995765805244e-02 2.5667089968919754e-02 -3.4411534667015076e-02 -1.6839737072587013e-02 1.1269646696746349e-02 -3.2284982502460480e-02 -2.6973089203238487e-02 -2.1589295938611031e-02 1.0026906616985798e-02 2.8479987755417824e-02 3.0184246599674225e-02 3.9342515170574188e-02 2.8061987832188606e-02 -3.3982634544372559e-02 -2.4663371965289116e-02 -2.4120988324284554e-02 -1.7876645550131798e-02 -2.7350513264536858e-02 -8.6039556190371513e-03 4.2572505772113800e-02 3.9129670709371567e-02 -1.3984421268105507e-02 1.2806920334696770e-02 1.0242544114589691e-02 -1.9788732752203941e-02 -3.6985266953706741e-02 -2.6340553537011147e-02 -1.4711316907778382e-03 1.5062641352415085e-02 -2.7721574530005455e-02 2.4525972083210945e-02 6.5293144434690475e-03 -1.0686473920941353e-02 2.5223593693226576e-03 2.8358727693557739e-02 -1.6287116333842278e-02 -5.4930984042584896e-03 2.5374072138220072e-03 1.6350949183106422e-02 2.3145267739892006e-02 -4.6587665565311909e-03 -6.8115894682705402e-03 4.0676180273294449e-02 2.2554775699973106e-02 4.7728135250508785e-03 -1.0918397456407547e-02 3.6733459681272507e-02 2.9431402217596769e-03 7.7921440824866295e-03 -2.7749763801693916e-02 4.3271915055811405e-03 -1.5417316928505898e-02 1.9768295809626579e-02 5.7285754010081291e-03 -2.9823744669556618e-02 1.9850501790642738e-02 1.9657041877508163e-02 7.2973161004483700e-03 4.6410663053393364e-03 -1.0615929961204529e-02 -1.4326960779726505e-02 -2.8342587873339653e-02 -1.2202810496091843e-02 2.6636401191353798e-02 1.2094292789697647e-02 1.0498169809579849e-02 -3.7078591412864625e-04 1.1960674077272415e-02 -8.6633395403623581e-03 -3.2428931444883347e-02 -2.7177849784493446e-02 -8.6781318532302976e-04 -4.3002087622880936e-02 -5.2158612757921219e-02 4.0761869400739670e-02 3.0373120680451393e-02 3.1694356352090836e-02 6.6465862095355988e-02 -3.7594508379697800e-02 3.5107787698507309e-02 -3.8299549371004105e-02 -1.0295301675796509e-01 3.9589937776327133e-02 9.0273380279541016e-02 -4.6459648758172989e-02 5.5969435721635818e-02 5.0838235765695572e-02 -6.5822780132293701e-02 -5.7614039629697800e-02 -3.7664290517568588e-02 7.8453987836837769e-02 6.1053428798913956e-02 -1.5569297596812248e-02 -3.8909647613763809e-02 -8.1626743078231812e-02 -1.0813853889703751e-01 -3.3014956861734390e-02 7.8952953219413757e-02 -6.1252173036336899e-02 3.3095542341470718e-02 -6.9046422839164734e-02 4.2121671140193939e-02 -4.2109999805688858e-02 -5.5204696953296661e-02 -1.2253946065902710e-01 -3.3057149499654770e-02 -2.8989966958761215e-02 -7.1543157100677490e-02 7.6643481850624084e-02 6.9118514657020569e-02 6.3736632466316223e-02 3.0382806435227394e-02 5.5814664810895920e-02 -2.4433182552456856e-02 -3.7230174988508224e-02 -6.2894269824028015e-02 -8.0747023224830627e-02 -5.7415585964918137e-02 -8.8124126195907593e-02 1.9988445565104485e-02 4.3528668582439423e-02 -7.8203633427619934e-02 6.5375871956348419e-02 7.9465143382549286e-02 -8.3080820739269257e-02 -7.3508404195308685e-02 -6.4626671373844147e-02 -9.6569687128067017e-02 6.9406770169734955e-02 -6.2090612947940826e-02 6.6964432597160339e-02 1.1381408572196960e-01 -6.1197444796562195e-02 -1.1948501318693161e-01 7.7723115682601929e-02 -9.0623013675212860e-02 -6.3298471271991730e-02 9.5392815768718719e-02 8.6583130061626434e-02 6.5659962594509125e-02 -1.0699332505464554e-01 -8.6952708661556244e-02 3.7475310266017914e-02 5.8815844357013702e-02 1.1179386824369431e-01 1.4746935665607452e-01 6.4924217760562897e-02 -1.1154337972402573e-01 9.9079109728336334e-02 -6.0265347361564636e-02 9.1744087636470795e-02 -5.2815183997154236e-02 7.1374602615833282e-02 7.1938186883926392e-02 1.5455403923988342e-01 6.3391052186489105e-02 5.3443957120180130e-02 1.0306243598461151e-01 -9.5494978129863739e-02 -9.7352378070354462e-02 -9.6481539309024811e-02 -5.6738719344139099e-02 -8.3605416119098663e-02 4.7204248607158661e-02 6.2674939632415771e-02 9.6293114125728607e-02 1.3958808779716492e-01 8.5332430899143219e-02 1.2203409522771835e-01 -5.2213102579116821e-02 -7.3554798960685730e-02 1.1126755177974701e-01 6.6742545459419489e-04 -8.2805484998971224e-04 1.0760508012026548e-03 9.8442088346928358e-04 8.6312013445422053e-04 1.3077749172225595e-03 -1.1612575035542250e-03 4.9159495392814279e-04 -6.6377210896462202e-04 -1.1231845710426569e-03 2.4376425426453352e-03 6.6904503910336643e-05 1.0527968406677246e-03 -6.5781857119873166e-04 -6.8246241426095366e-04 8.4592163329944015e-04 -1.7685666680335999e-03 -2.7419210528023541e-04 -1.3422347547020763e-04 1.0106534464284778e-03 -1.0323625756427646e-03 -2.8117117471992970e-04 3.9589748485013843e-04 -3.4909730311483145e-04 -5.9446971863508224e-04 -9.4707094831392169e-05 4.4551026076078415e-04 5.9772538952529430e-04 2.0099824178032577e-04 -9.4065029406920075e-04 -1.2288675643503666e-03 2.4192284035962075e-04 -1.1454039486125112e-03 -4.1877379408106208e-04 3.9096837281249464e-04 -1.8322161849937402e-05 -1.3312976807355881e-03 -5.9372297255322337e-04 9.5943646738305688e-04 7.1338471025228500e-04 1.1174501851201057e-03 -1.6035333101172000e-04 -3.6953839298803359e-05 -1.4637840213254094e-03 -1.4075636863708496e-03 -4.6489259693771601e-04 -5.8962416369467974e-04 5.0238077528774738e-04 3.3978969440795481e-04 -7.4888591188937426e-04 -2.4545572232455015e-03 -1.6686544986441731e-03 4.4510801672004163e-04 4.7760221059434116e-04 8.0785475438460708e-04 3.9566957275383174e-04 -1.7360986676067114e-03 5.6829128880053759e-04 -1.0900370543822646e-03 -7.5655465479940176e-04 1.0565201519057155e-03 -2.1125585772097111e-03 1.2362841516733170e-04 6.7866081371903419e-04 -7.3566928040236235e-04 2.3075517674442381e-04 -1.3576839119195938e-03 -1.1631208471953869e-03 -2.8120572096668184e-04 1.3949573040008545e-03 -1.4224471524357796e-03 7.8362732892856002e-04 -5.8249526773579419e-05 -1.8283285899087787e-03 -2.3518912494182587e-03 1.3001580955460668e-03 1.2141651241108775e-03 1.0451825801283121e-03 2.3168886546045542e-03 9.7855529747903347e-04 4.1796328150667250e-04 6.8399858719203621e-05 -2.9605391318909824e-04 -1.1734907457139343e-04 1.1066126171499491e-03 -1.0013465362135321e-04 5.4556678514927626e-04 -7.3854031506925821e-04 1.7283044289797544e-03 8.4383689681999385e-05 8.0568902194499969e-04 -6.3253258122131228e-04 4.1334834531880915e-04 -1.2364620342850685e-03 -3.0417402740567923e-04 -6.8861106410622597e-04 1.4472410839516670e-04 1.2218714691698551e-03 -1.0121820378117263e-04 -4.0346532477997243e-04 1.2069729156792164e-02 1.5943078324198723e-02 -5.8757243677973747e-03 6.5168626606464386e-03 1.1867100838571787e-03 -2.8061689808964729e-02 9.3747461214661598e-03 -6.1053049284964800e-04 4.8699099570512772e-03 3.1650900840759277e-02 -1.3960382901132107e-02 -4.1445832699537277e-02 5.9580667875707150e-03 -1.7548253759741783e-02 -2.0496563985943794e-02 2.8809266164898872e-02 1.4927213080227375e-02 4.0507512167096138e-03 -2.7558958157896996e-02 -2.4336880072951317e-02 -1.5440836548805237e-02 1.4087487943470478e-03 3.2934781163930893e-02 5.2449576556682587e-02 -5.7900724932551384e-03 -3.6719683557748795e-02 2.2257363423705101e-02 -5.2617810433730483e-04 2.8386184945702553e-02 -1.0590992867946625e-02 9.3075325712561607e-03 1.9049098715186119e-02 7.2917997837066650e-02 2.9726717621088028e-03 2.1428118925541639e-03 2.8773386031389236e-02 -3.7421319633722305e-02 -2.6078036054968834e-02 -1.9460421055555344e-02 -1.5663816884625703e-04 -1.7836773768067360e-02 -3.8439568597823381e-03 1.0926787741482258e-02 2.4141455069184303e-02 3.5755898803472519e-02 2.0139461383223534e-02 4.4032108038663864e-02 9.8038436844944954e-03 -2.9783428180962801e-03 3.4107465296983719e-02 -1.2956517748534679e-03 -4.1596690425649285e-04 -8.8279310148209333e-04 2.6770457625389099e-02 -2.5489483959972858e-03 -1.4172954251989722e-03 6.1016029212623835e-04 -2.4637626484036446e-03 2.1093846298754215e-03 -3.3170084934681654e-03 -1.2073831167072058e-03 -1.3735060580074787e-02 1.9059879705309868e-03 2.4033545050770044e-03 -2.5651324540376663e-03 -2.8442668262869120e-03 -6.1532109975814819e-04 2.9409292619675398e-03 -4.4451160356402397e-03 9.1202246039756574e-06 2.5570852449163795e-04 -1.4746024680789560e-04 5.1148007623851299e-03 2.7843543794006109e-03 1.7118085816036910e-04 7.6917547266930342e-04 7.5201207073405385e-04 -2.0453922916203737e-03 2.7461191639304161e-03 -7.9929764615371823e-04 1.4796128198213410e-05 -5.3832153789699078e-03 7.2272529359906912e-04 3.2249626237899065e-03 1.6016748268157244e-03 -1.9476956222206354e-03 -1.6752409283071756e-03 -6.2048640102148056e-03 2.0743576809763908e-02 -2.1977303549647331e-03 2.9961252585053444e-04 -1.5700540971010923e-03 1.2892731465399265e-03 -1.7409282736480236e-03 -6.6351373679935932e-03 -8.6014799308031797e-04 5.4676746949553490e-03 -1.8134580459445715e-03 6.2839040765538812e-04 1.0086746187880635e-03 -6.1634786427021027e-02 -7.0938028395175934e-02 6.4097605645656586e-02 5.8631308376789093e-02 5.7803280651569366e-02 8.9176192879676819e-02 -6.3423983752727509e-02 6.2563382089138031e-02 -6.3938558101654053e-02 -1.0300765186548233e-01 5.9317849576473236e-02 1.1901284009218216e-01 -7.7116861939430237e-02 8.5443727672100067e-02 6.1617456376552582e-02 -8.7416701018810272e-02 -8.0564789474010468e-02 -5.7858034968376160e-02 9.8798476159572601e-02 8.9789815247058868e-02 -4.1494250297546387e-02 -5.0429739058017731e-02 -1.1657462269067764e-01 -1.3479284942150116e-01 -6.2582172453403473e-02 1.0639248043298721e-01 -9.3755118548870087e-02 6.2643609941005707e-02 -8.7398625910282135e-02 5.3494155406951904e-02 -6.4484693109989166e-02 -6.6199816763401031e-02 -1.5110324323177338e-01 -5.5123366415500641e-02 -4.8036336898803711e-02 -9.4998076558113098e-02 9.3215636909008026e-02 1.0164067894220352e-01 9.1928496956825256e-02 5.1510661840438843e-02 8.2552872598171234e-02 -4.1786193847656250e-02 -6.0449101030826569e-02 -9.9307782948017120e-02 -1.1279467493295670e-01 -7.3834933340549469e-02 -1.2332830578088760e-01 4.3459996581077576e-02 6.5340578556060791e-02 -1.0352873802185059e-01 -1.0822535259649158e-03 -1.2341617839410901e-03 3.2636816613376141e-03 3.1766663305461407e-03 -4.9601797945797443e-04 2.7850244659930468e-03 -1.5640719793736935e-03 5.7661480968818069e-04 -1.3283300213515759e-03 -1.3419045717455447e-04 1.6108900308609009e-03 -4.8664113273844123e-04 -4.7398154856637120e-04 8.6349109187722206e-04 -6.8217987427487969e-04 -1.2068873184034601e-04 -1.4193729730322957e-03 -1.7400846118107438e-03 -7.8226561890915036e-04 8.2838768139481544e-04 -7.2368833934888244e-04 2.6326411170884967e-04 -3.2643054146319628e-04 -1.1108290636911988e-03 -1.9800253212451935e-03 1.8338899826630950e-03 -5.2926252828910947e-04 2.5634625926613808e-03 3.7669113953597844e-04 -1.1423389660194516e-03 -2.8164553805254400e-04 7.4327265610918403e-04 -2.0259873417671770e-04 -9.9224771838635206e-04 5.7563249720260501e-04 -1.6483785657328553e-05 -3.8107376894913614e-04 -6.8419828312471509e-04 8.0985366366803646e-04 1.5214299783110619e-03 9.4594276743009686e-04 -6.3050596509128809e-04 7.9495710087940097e-04 -2.8647662475123070e-05 -4.2695472948253155e-03 4.1004739614436403e-05 -6.7954004043713212e-04 1.7241737805306911e-03 1.0469390690559521e-04 -1.0044075315818191e-03 -6.1324104899540544e-04 1.1263464111834764e-03 -1.0080680949613452e-03 -3.8868052070029080e-04 -1.4289827086031437e-03 -1.1297470191493630e-03 9.6175551880151033e-04 8.5343682439997792e-04 1.3296707766130567e-03 1.3717189431190491e-03 -9.2155992751941085e-04 -2.5752829969860613e-04 -1.1637216666713357e-03 -1.4508988533634692e-04 -5.4668063967255875e-05 2.9236713089630939e-05 1.7412249871995300e-04 1.9193149637430906e-03 2.7501248405314982e-04 -4.4905499089509249e-04 8.9730689069256186e-04 -1.5297579811885953e-03 -5.1189342048019171e-04 1.9701397832250223e-05 1.7467202851548791e-03 -1.4917141525074840e-03 2.0936006330884993e-04 -2.0211094524711370e-03 3.0310486909002066e-04 3.1213156762532890e-04 3.5011110594496131e-04 -1.4395988546311855e-03 1.0800295276567340e-03 6.3328159740194678e-04 -1.3821810716763139e-03 1.3571795716416091e-04 1.0619391687214375e-03 9.4369641738012433e-04 -7.5773691060021520e-04 -4.6745711006224155e-04 -2.4769990704953671e-04 1.7619271529838443e-03 1.9496403183438815e-05 3.6499137058854103e-04 -1.0346709314035252e-04 -1.5982371405698359e-04 1.7787198303267360e-03 -1.0931389406323433e-03 -3.7143408553674817e-04 1.4187388296704739e-04 1.5119809540919960e-04 -5.2176252938807011e-04 -3.6717046168632805e-04 7.9760479275137186e-04 -7.9453329090029001e-04 1.9457873713690788e-04 -1.0909982665907592e-04 -1.7494197236374021e-03 -1.7643328465055674e-04 -5.6345295161008835e-04 9.0067309793084860e-04 -1.2124468339607120e-03 1.5430436469614506e-03 -5.5895932018756866e-04 -1.2514300178736448e-03 2.1142061450518668e-04 -3.3935659303097054e-05 -5.1974039524793625e-04 -2.7160616591572762e-03 -1.0911659046541899e-04 -5.8716419152915478e-04 1.2193939182907343e-03 -2.3607924231328070e-04 -1.5419513511005789e-04 2.1337988073355518e-05 -5.5944477935554460e-05 -6.8900990299880505e-04 -5.5306567810475826e-04 -1.1851672315970063e-03 -9.5152267022058368e-04 1.5968105799402110e-05 1.6577712958678603e-03 -3.8919311919016764e-05 2.4899942218326032e-04 1.9859327003359795e-03 2.2025615908205509e-03 -1.8066103802993894e-03 -9.5491425599902868e-04 1.0041171917691827e-03 5.6629732716828585e-04 -1.0820551542565227e-03 -4.5886353473179042e-04 1.9949306733906269e-03 -3.8797568413428962e-04 1.2904675677418709e-03 -3.1047938391566277e-03 -3.7396713742054999e-04 -2.2633560001850128e-04 -4.3406733311712742e-03 5.5562361376360059e-04 -7.9000897705554962e-02 -9.4471953809261322e-02 9.7273014485836029e-02 8.1563659012317657e-02 9.2127434909343719e-02 1.1122620850801468e-01 -8.0149061977863312e-02 8.7366126477718353e-02 -8.8832855224609375e-02 -1.3667948544025421e-01 7.6529256999492645e-02 1.5804754197597504e-01 -1.0220710188150406e-01 1.1147601902484894e-01 7.1353755891323090e-02 -1.0945972055196762e-01 -1.0223729163408279e-01 -8.2949690520763397e-02 1.3700260221958160e-01 1.1384902149438858e-01 -5.4266106337308884e-02 -7.3214091360569000e-02 -1.4616538584232330e-01 -1.7523807287216187e-01 -8.6833722889423370e-02 1.3145713508129120e-01 -1.3175792992115021e-01 7.7056892216205597e-02 -1.1356315761804581e-01 7.3942340910434723e-02 -8.2172386348247528e-02 -8.5069946944713593e-02 -1.7467059195041656e-01 -8.5940413177013397e-02 -6.7616887390613556e-02 -1.2534837424755096e-01 1.1287688463926315e-01 1.2253154069185257e-01 1.2716600298881531e-01 7.2636388242244720e-02 1.0677302628755569e-01 -5.8337602764368057e-02 -8.2059420645236969e-02 -1.2704674899578094e-01 -1.4601840078830719e-01 -9.9029131233692169e-02 -1.4783872663974762e-01 6.3715316355228424e-02 9.2279300093650818e-02 -1.2728923559188843e-01 -3.7204101681709290e-02 -4.6201713383197784e-02 3.6085225641727448e-02 2.6795476675033569e-02 2.8494849801063538e-02 6.2660954892635345e-02 -3.6955766379833221e-02 3.3491544425487518e-02 -3.8154710084199905e-02 -7.7181942760944366e-02 3.7502206861972809e-02 8.7915256619453430e-02 -4.2325351387262344e-02 5.3420208394527435e-02 4.7093220055103302e-02 -6.0891747474670410e-02 -5.1215082406997681e-02 -3.2108895480632782e-02 7.2607427835464478e-02 5.8318108320236206e-02 -1.5514177270233631e-02 -2.8214607387781143e-02 -7.5229547917842865e-02 -1.0119210183620453e-01 -2.9393196105957031e-02 7.4001014232635498e-02 -5.7971365749835968e-02 3.0870489776134491e-02 -6.0634881258010864e-02 3.3284462988376617e-02 -4.3868854641914368e-02 -5.0523165613412857e-02 -1.1842636764049530e-01 -3.2678946852684021e-02 -2.7106231078505516e-02 -6.8224079906940460e-02 7.1492224931716919e-02 6.6821224987506866e-02 5.9096947312355042e-02 2.9691576957702637e-02 5.1766209304332733e-02 -1.9759196788072586e-02 -3.8430340588092804e-02 -6.2196493148803711e-02 -7.9447247087955475e-02 -4.9942627549171448e-02 -8.7600544095039368e-02 1.7327420413494110e-02 3.7603814154863358e-02 -7.4073769152164459e-02 1.0826396755874157e-03 1.3644957216456532e-03 -7.7777724072802812e-05 4.1680983849801123e-04 -1.7410914879292250e-03 -4.7789217205718160e-04 8.8431971380487084e-04 -9.4435358187183738e-04 5.4517417447641492e-04 1.8879973795264959e-03 -4.1441869689151645e-04 2.2693742357660085e-04 -8.0796546535566449e-04 4.4751033419743180e-04 1.9272153731435537e-03 -8.4885704563930631e-04 4.6350108459591866e-04 1.6036176821216941e-03 -6.9375126622617245e-04 -5.9680396225303411e-04 1.4682431938126683e-03 -2.8061980265192688e-04 -2.2288571926765144e-04 8.4863946540281177e-04 3.2127022859640419e-04 -9.3037186888977885e-04 5.7670382375363261e-05 -1.1170456127729267e-04 -3.4667642466956750e-05 -1.0798842413350940e-03 -4.4494346366263926e-04 3.2576126977801323e-04 2.1107839711476117e-04 1.6531184082850814e-03 -1.1155727552250028e-03 -7.5200508581474423e-04 2.1543537732213736e-03 5.0425890367478132e-04 -1.3502632500603795e-03 -1.6327475896105170e-04 -2.4920573923736811e-04 2.5203378754667938e-04 7.1842875331640244e-04 1.0903246002271771e-03 1.0727312183007598e-03 6.8561261286959052e-04 3.2515532802790403e-04 -5.6121969828382134e-04 -1.0009892284870148e-03 2.5614869082346559e-04 -5.6224358268082142e-03 -3.3972181845456362e-03 7.8792013227939606e-03 3.9042174816131592e-02 2.2675931453704834e-02 -4.2083119042217731e-03 -1.4532726258039474e-02 2.2555142641067505e-02 -1.5925850719213486e-02 9.0086506679654121e-03 3.9072944782674313e-03 -8.8598057627677917e-03 -1.9855745136737823e-02 6.5802247263491154e-03 4.5058545656502247e-03 -2.5973662268370390e-03 -1.0847704485058784e-02 -1.7038967460393906e-02 -4.3692165054380894e-03 -1.1203343747183681e-03 -3.7785239517688751e-02 -1.5667382627725601e-02 -3.8346778601408005e-03 2.2086989134550095e-02 -3.0962858349084854e-02 -9.6000544726848602e-03 4.3091081897728145e-04 2.6176549494266510e-02 -6.9573300424963236e-04 1.1128069832921028e-02 -1.3826666399836540e-02 9.4384849071502686e-03 4.0242306888103485e-02 -1.5289625152945518e-02 -1.2372863478958607e-02 6.9666919298470020e-03 -1.7468554899096489e-02 1.3727141544222832e-02 7.1448199450969696e-03 2.1222617477178574e-02 7.8251240774989128e-03 -1.9203942269086838e-02 -9.7509268671274185e-03 -7.8368997201323509e-03 2.6421674992889166e-03 -2.8133660089224577e-03 1.5015741810202599e-02 2.8900470584630966e-02 1.3444733805954456e-02 3.6646889057010412e-03 1.4264392666518688e-04 6.2712404178455472e-04 -6.0754962032660842e-04 -8.6927256779745221e-04 -4.5135320397093892e-04 4.6270433813333511e-04 6.3001835951581597e-04 3.5287826904095709e-04 4.4064671965315938e-04 1.4640407171100378e-03 -1.5136086149141192e-03 -2.0512298215180635e-03 -2.4542490791645832e-05 -1.8212161376141012e-04 9.4580778386443853e-04 -5.2332936320453882e-04 8.3917559823021293e-04 5.9840630274266005e-04 7.1066763484850526e-04 2.4102296447381377e-04 1.2385769514366984e-03 -1.4137637335807085e-03 -4.3088392703793943e-04 9.7314431332051754e-04 1.2590136611834168e-04 -6.5543479286134243e-04 -3.8622887223027647e-04 -9.5986462838482112e-05 2.0692450925707817e-04 -1.0031067067757249e-03 -4.0590445860289037e-04 -3.6652014387072995e-05 9.1840594541281462e-04 2.6539168902672827e-04 -1.2480841251090169e-03 -9.2363753356039524e-04 5.2245694678276777e-04 7.1906868834048510e-04 -3.0649401014670730e-04 2.6905621052719653e-04 4.5894485083408654e-04 5.1138113485649228e-04 6.9782231003046036e-04 1.5544859925284982e-03 1.1454785708338022e-03 9.4931432977318764e-04 2.5225739227607846e-04 -3.0520118889398873e-04 -9.2737714294344187e-04 5.3691776702180505e-04 1.6781512647867203e-02 1.4677672646939754e-02 -2.2947683930397034e-02 -4.0628843009471893e-02 -2.9681846499443054e-02 -6.0026515275239944e-03 1.8473494797945023e-02 -3.1874835491180420e-02 2.7985043823719025e-02 1.0388281196355820e-02 -1.4275456778705120e-02 -2.4483017623424530e-03 3.2840531319379807e-02 -2.1055242046713829e-02 -9.7388299182057381e-03 7.5695812702178955e-03 2.0448029041290283e-02 2.6596520096063614e-02 -9.9437059834599495e-03 -1.0278207249939442e-02 4.4198609888553619e-02 2.6065297424793243e-02 1.0031844489276409e-02 -5.6570307351648808e-03 4.0413692593574524e-02 -1.3353981776162982e-03 1.2206823565065861e-02 -3.0901044607162476e-02 9.0487645938992500e-03 -1.9426951184868813e-02 2.3635886609554291e-02 8.4177069365978241e-03 -2.4368893355131149e-02 2.2690664976835251e-02 2.2025683894753456e-02 1.2080789543688297e-02 -4.9896782729774714e-04 -1.5101752243936062e-02 -1.8803358078002930e-02 -3.2300293445587158e-02 -1.6252730041742325e-02 2.8846744447946548e-02 1.5557932667434216e-02 1.4774340204894543e-02 4.9423398450016975e-03 1.5955854207277298e-02 -3.1361537985503674e-03 -3.5952754318714142e-02 -3.0607663094997406e-02 3.0731121078133583e-03 -3.4103509970009327e-03 -6.0545192100107670e-03 -4.4845477677881718e-03 -1.9948404282331467e-02 -1.2172590941190720e-02 1.7376797273755074e-02 1.3991650484967977e-04 -1.1515604332089424e-02 8.6031937971711159e-03 -2.2962013259530067e-02 4.0747560560703278e-03 2.5278311222791672e-02 7.2878710925579071e-03 4.0703630074858665e-03 1.1613467708230019e-02 -1.4975953847169876e-02 -1.4126519672572613e-03 7.4618454091250896e-03 1.4806436374783516e-02 1.2014178559184074e-02 2.6219692081212997e-02 9.1992132365703583e-03 -1.6221147030591965e-02 -3.4453738480806351e-02 1.9082251936197281e-02 2.3038018494844437e-02 -7.3626819066703320e-03 -1.4120614156126976e-02 -1.4569530263543129e-02 -1.1326355161145329e-03 1.1912488844245672e-03 -1.2005848810076714e-02 -5.7544969022274017e-02 4.6789324842393398e-03 6.1156102456152439e-03 -1.2405095621943474e-02 2.3216603323817253e-02 1.0777579620480537e-02 7.0974365808069706e-03 -1.0884473100304604e-02 5.0581763498485088e-03 1.2487614527344704e-02 -1.1038300581276417e-03 -1.0965427383780479e-02 -2.4399835616350174e-02 -8.5903890430927277e-03 -2.8487540781497955e-02 -1.9100654870271683e-02 -9.9728126078844070e-03 -1.9307071343064308e-02 -6.0671460814774036e-03 -1.1935834772884846e-02 3.0813838820904493e-03 -1.2790317647159100e-02 -4.8525887541472912e-03 2.3726487532258034e-02 -9.9785448983311653e-03 -4.7437916509807110e-03 2.0831828005611897e-03 -2.6247525587677956e-02 1.1616147123277187e-02 2.7404574677348137e-02 1.4858231879770756e-03 1.1442935094237328e-02 1.6168395057320595e-02 -2.3507317528128624e-02 -1.2280025519430637e-02 -1.6710885101929307e-03 2.5749323889613152e-02 1.8086733296513557e-02 1.9176928326487541e-02 2.7083258610218763e-03 -2.4029934778809547e-02 -4.5189585536718369e-02 1.1172260157763958e-02 3.2907918095588684e-02 -1.4893609099090099e-02 -4.4549661688506603e-03 -2.4875624105334282e-02 5.1351832225918770e-03 -7.9876715317368507e-03 -1.3799262233078480e-02 -6.6406898200511932e-02 -7.4771459912881255e-04 2.8396346606314182e-03 -2.3146647959947586e-02 3.3151004463434219e-02 1.9250603392720222e-02 1.5757692977786064e-02 -5.5840532295405865e-03 1.2208874337375164e-02 9.1572133824229240e-03 -5.1258248277008533e-03 -1.7540490254759789e-02 -3.0609527602791786e-02 -1.4544441364705563e-02 -4.1949100792407990e-02 -1.2720198370516300e-02 -4.1050720028579235e-04 -2.7806160971522331e-02 -2.8249571914784610e-04 1.7887746216729283e-03 -1.3049449771642685e-03 -1.0601843241602182e-03 -2.3187508340924978e-03 -1.2585132208187133e-04 1.1131574865430593e-03 -3.2585131702944636e-04 4.1443252121098340e-04 6.1126751825213432e-04 -8.0018572043627501e-04 2.3358468897640705e-03 -1.0090393479913473e-03 7.1273534558713436e-04 4.8787004197947681e-04 4.7740810259710997e-05 7.9726078547537327e-04 2.3546272423118353e-03 -7.6565059134736657e-04 -2.5149103021249175e-04 1.4427766436710954e-03 -2.0121599081903696e-03 -6.1591900885105133e-04 9.3288230709731579e-04 1.4072535559535027e-03 -1.1735734296962619e-03 7.3110352968797088e-04 -1.0807391954585910e-03 -1.1694639688357711e-03 1.9408906518947333e-04 5.6084862444549799e-04 2.5215598288923502e-03 5.8829033514484763e-04 4.0876501589082181e-04 -4.8537482507526875e-04 -6.7785062128677964e-04 -4.7909265958878677e-06 9.6970854792743921e-04 -1.4420514926314354e-03 9.1229879762977362e-04 2.2934612352401018e-03 9.3179033137857914e-04 -3.4404062898829579e-04 1.0660935658961535e-03 1.5541758621111512e-03 1.2113122502341866e-03 -5.8832898503169417e-04 -9.8931312095373869e-04 -5.7318439939990640e-04 3.2175082014873624e-04 -1.0320637375116348e-04 1.2864435557276011e-03 -4.4744968181475997e-04 -1.0661809938028455e-04 -2.7518193237483501e-03 8.5962412413209677e-04 6.0337566537782550e-04 -2.4769507581368089e-04 -3.5100808599963784e-04 3.6468179314397275e-04 -5.3351995302364230e-04 1.5185303054749966e-03 -6.0572696384042501e-04 2.0460918312892318e-04 3.7057526060380042e-04 -6.9603224983438849e-04 8.0019311280921102e-04 4.6476672287099063e-04 -5.8803387219086289e-04 -4.6266111894510686e-04 1.4953061472624540e-03 -2.9989043832756579e-04 7.9453777289018035e-05 1.3750554353464395e-04 1.1906758882105350e-03 -9.7493588691577315e-04 -4.2311649303883314e-04 -3.4322511055506766e-04 -5.3201784612610936e-04 -1.7016041965689510e-05 -6.9763167994096875e-04 -8.0397003330290318e-04 4.0730653563514352e-04 2.3285970382858068e-04 -9.3223800649866462e-04 -1.5455826360266656e-04 6.0456164646893740e-04 6.3461210811510682e-04 -4.1397663881070912e-04 4.5035735820420086e-04 4.8988425987772644e-05 9.0517051285132766e-04 7.1586651029065251e-04 8.3697950685746036e-06 2.3990284535102546e-04 1.0425079381093383e-03 3.1293058418668807e-04 -9.1701402561739087e-04 -5.4732797434553504e-04 3.6407634615898132e-04 2.7822397649288177e-02 2.6275623589754105e-02 -3.0407648533582687e-02 -5.3621347993612289e-02 -4.0837954729795456e-02 -1.6822397708892822e-02 3.1009458005428314e-02 -4.4737685471773148e-02 3.7960097193717957e-02 2.4931022897362709e-02 -2.6165544986724854e-02 -2.0284622907638550e-02 4.7005731612443924e-02 -3.5919692367315292e-02 -2.3226156830787659e-02 2.2590741515159607e-02 3.1823474913835526e-02 3.9383966475725174e-02 -2.5821000337600708e-02 -2.4065844714641571e-02 5.4399859160184860e-02 3.5310942679643631e-02 2.7741137892007828e-02 1.1859855614602566e-02 5.1592778414487839e-02 -1.5196067281067371e-02 2.3643705993890762e-02 -4.3028835207223892e-02 2.3030541837215424e-02 -2.9274193570017815e-02 3.8539241999387741e-02 1.9859392195940018e-02 -4.7267740592360497e-03 3.5095807164907455e-02 2.8200266882777214e-02 2.5375463068485260e-02 -1.5098475851118565e-02 -3.4368347376585007e-02 -3.3115491271018982e-02 -4.2243000119924545e-02 -3.2960262149572372e-02 3.7025433033704758e-02 2.8593689203262329e-02 2.9161565005779266e-02 2.2745378315448761e-02 3.1942706555128098e-02 1.4959068037569523e-02 -4.4649664312601089e-02 -4.1755430400371552e-02 1.8868342041969299e-02 -1.2082672910764813e-03 -4.1726807830855250e-04 3.7519887555390596e-03 7.4626342393457890e-04 7.5194583041593432e-04 1.7678333679214120e-03 -1.1912827612832189e-03 8.0657814396545291e-04 -1.0270550847053528e-03 -3.6218005698174238e-04 1.3025254011154175e-03 -7.3466316098347306e-04 7.5812945397046860e-06 1.4493866183329374e-04 -2.5671985349617898e-04 8.5759529611095786e-04 -1.5349090099334717e-03 -1.2207301333546638e-03 -6.9919496309012175e-04 1.5223377849906683e-03 -1.6908362740650773e-03 9.9095610494259745e-05 -2.1042741718702018e-04 2.1341102547012269e-04 -1.9958487246185541e-03 3.4502925700508058e-04 -4.2169462540186942e-04 9.6484331879764795e-04 -5.0250574713572860e-04 7.7021500328555703e-04 -6.7352043697610497e-04 -7.8405183739960194e-04 -6.7102443426847458e-04 -4.2500809649936855e-04 1.3297112309373915e-04 6.0404778923839331e-04 -5.7710107648745179e-04 -2.7850968763232231e-04 1.3883481733500957e-03 -2.4396403750870377e-04 